3781 64
648 0.05369627 0.19388515 0.14401765 -0.4205665 -0.051593523 -0.060981024 -0.08580718 -0.06390471 -0.14535342 -0.026768394 0.04487851 -0.11675853 -0.010713672 0.25233778 0.24417777 -0.079773895 -0.016515877 0.10901835 0.059361465 -0.062776364 -0.015163927 -0.25003213 -0.119483046 0.10888796 -0.101981714 -0.051596083 -0.008587909 0.024921166 -0.12491311 -0.044442497 0.05565324 0.06211348 -0.031720333 0.09937111 0.1914921 -0.11848297 0.111114934 0.14383051 -0.09149421 -0.12586664 -0.0058048395 -0.013753729 0.34383178 -0.18387742 0.1786928 -0.032400716 -0.10884243 -0.36516735 0.24805525 -0.1893711 -0.04803549 0.11020017 -0.03413958 -0.108137056 -0.079845056 -0.0761354 -0.006102601 0.22522755 0.060378186 -0.10886393 0.117099814 0.044190228 -0.23760402 0.041239824
2402 -0.1794195 0.44688272 -0.10047982 -0.40199918 -0.037637066 -0.13402888 -0.118999615 -0.22565717 -0.09771335 -0.07860762 -0.14927477 -0.13316347 -0.0739901 0.20310268 -0.106100686 -0.020164875 -0.13805346 -0.18786854 0.21164818 0.040734258 -0.1335095 0.03843837 -0.1267443 -0.16047567 0.013296276 -0.123290025 -0.008960839 0.13713399 -0.12016686 0.047340177 -0.068484254 -0.048380222 0.03362993 0.14356078 0.020225568 0.044729505 0.34146973 0.25931975 -0.22471762 -0.09300717 -0.076270744 -0.4733107 0.14317155 -0.39492777 0.14723645 0.13100034 -0.13050753 -0.32330072 0.23273493 0.07132684 -0.22773862 -0.19670047 -0.23140478 -0.16960898 -0.39037508 0.26107723 -0.26146376 0.40839353 -0.15243803 -0.06926443 -0.14544305 0.1388006 -0.42971656 0.40286347
707 -0.116427824 0.25646302 0.17104855 -0.20611012 0.049772546 -0.34678283 -0.0050923447 -0.11879773 0.23355404 0.26205316 -0.10732842 -0.24337733 -0.21494514 0.31169608 0.15856916 -0.2749447 -0.1632194 -0.20936887 -0.1374046 0.2540179 -0.035791006 0.18821432 -0.07163898 -0.2795015 0.18196343 -0.13276103 -0.06788217 0.04487294 -0.28076163 -0.1347489 0.37689114 -0.03649249 -0.16023067 -0.089516446 -0.18916337 -0.030087773 0.11638922 0.24862172 -0.034801524 0.08942921 -0.02227928 -0.1969364 0.26943344 -0.20926204 0.06098662 0.19002979 0.25340724 -0.16743033 -0.02669397 -0.25202262 -0.16281089 0.19894038 -0.038864654 0.018179692 -0.085864 -0.22458565 -0.18716976 0.09853057 -0.28569767 -0.13400456 -2.8336726e-06 0.25042388 -0.09114817 -0.06423927
1464 0.07912167 0.26430297 0.64369375 0.00028115447 0.21485244 0.009804662 -0.26226363 -0.03144419 0.24607056 -0.18574019 -0.12703207 -0.2729111 -0.040014666 0.28956664 0.18411765 -0.35480294 -0.33037248 -0.027014388 -0.116807334 0.024007156 -0.3616851 0.25643 0.09930506 -0.49266353 -0.26617625 -0.06992109 -0.0935479 -0.26222712 -0.30979103 -0.20242256 0.40795982 0.043316763 -0.24521215 0.40436184 -0.46578133 -0.2536124 0.15388784 0.17220616 -0.16123943 0.030727427 0.042131245 -0.2850375 0.018321434 -0.22435245 -0.23359202 -0.26103714 -0.05603065 0.076632515 0.17627692 0.3121656 -0.2508608 -0.10024194 0.16073795 0.1473296 0.118942104 -0.28892377 0.0053980737 -0.20226267 0.067346655 -0.048949115 -0.14893697 0.35922888 -0.36970478 0.051596172
639 -0.11334497 0.20064344 0.45003784 -0.3022638 0.08590331 -0.4095482 -0.0743384 0.3184957 -0.077278316 0.24686408 0.16431347 -0.16925743 0.05279801 0.44077104 -0.052078955 -0.03400248 -0.043854594 0.02519779 0.20995614 0.0685528 0.0053669973 0.07451386 0.09521889 0.1669654 -0.025439782 -0.05562478 0.012539096 -0.13762347 -0.009563607 -0.29302981 0.17429632 -0.28220305 -0.33891696 0.049417432 0.4786972 0.07742816 -0.061155744 0.15862432 0.15114084 -0.36043334 0.14035314 -0.30368727 0.1693399 -0.06485799 -0.008633282 -0.17917769 -0.16915834 -0.21570073 0.010990186 -0.07300434 -0.20203593 -0.011250553 0.078329705 0.072038546 -0.16037318 0.01000285 -0.00781555 0.08983939 -0.12902664 -0.06942074 0.22676733 0.04716812 0.17045842 -0.14709686
1962 0.08863062 0.32681918 0.09451914 -0.3843782 -0.24397019 -0.31191933 -0.22901076 -0.05467852 -0.07011388 0.3227213 0.018763756 -0.31268883 0.038357466 0.015649687 0.20928963 0.047809623 0.04514485 -0.22545385 0.35973725 0.16850308 0.16675971 -0.0061957333 -0.052978158 0.16470303 -0.14933361 -0.43035996 0.023591315 -0.16178526 0.1743599 -0.30313447 0.25360283 -0.09599845 -0.15761402 0.088151604 -0.19835085 0.13363943 -0.12952088 -0.060835496 -0.28198212 -0.46685752 -0.25584388 -0.12089283 0.27186933 0.10245224 0.103374794 -0.15307917 -0.013919838 -0.14476186 0.25593796 -0.09273926 0.013118009 -0.08140556 0.04770967 0.19026737 -0.03965657 -0.22498919 -0.158896 -3.3154403e-05 0.011608845 0.014728696 0.25966766 -0.19633898 0.346591 0.32149243
677 -0.037042495 0.080784485 0.13647409 -0.31010014 0.08782329 -0.2990849 -0.07942988 -0.29136723 0.007958318 0.036177464 -0.18216982 -0.2635984 -0.0054744664 -0.048903577 0.14196745 0.03718165 -0.2262694 -0.04659475 0.019859152 0.26527256 0.14208877 0.070804186 -0.24978791 -0.11293946 -0.11630426 -0.26377082 -0.069717705 -0.028314244 -0.06930671 -0.15437233 0.38531557 -0.05579203 -0.016010022 0.085174486 -0.14248067 -0.084297284 0.15555084 0.0363927 -0.1276028 -0.075760335 0.08186274 -0.14362173 0.08123625 -0.20461181 -0.083361804 0.14070994 -0.070027456 -0.18038426 0.30234328 0.012154364 -0.043951526 -0.113466606 0.02853765 0.059539452 -0.22136587 -0.064408846 0.09993251 -0.04468908 -0.06446289 0.09032383 0.3064087 0.09356494 -0.06497077 0.15003365
1790 -0.074678294 0.29642308 -0.12009591 -0.23835577 0.2953967 -0.3539212 -0.12290339 0.06453654 0.02783035 -0.08526633 0.045835663 0.1372531 0.027085727 0.09477952 0.083051674 0.068621695 -0.23756313 -0.15251657 0.11866855 -0.13548933 0.13081488 0.29705253 0.013992387 -0.04641785 -0.001849855 -0.1453787 0.27435508 -0.018834881 0.044369712 -0.06432432 0.42561668 0.298022 0.0038138225 0.06452511 0.19859253 0.08936707 -0.097175635 -0.06955694 -0.40295365 -0.20244828 -0.095652565 -0.17772307 0.19413933 -0.09578812 0.120061286 -0.05108479 0.14439835 -0.28388494 0.22876793 -0.17004135 0.047691714 -0.091042414 0.11956961 0.2558997 -0.02831961 -0.023753973 -0.14982644 -0.2738797 0.11511217 -0.1344978 0.19056089 -0.16505341 0.08473266 0.054018054
606 0.17152424 0.030987313 0.1452892 -0.16255224 0.16688076 -0.18351468 -0.058570422 -0.02120137 -0.07150112 0.01732854 -0.024999429 -0.008143966 -0.12925181 0.092786774 -0.06239814 -0.044074677 -0.09639522 -0.080012135 0.053987224 0.038111825 -0.19588612 0.079855315 0.00911187 0.094408244 0.0042232163 -0.24115464 -0.10596159 -0.25993922 -0.33897054 0.0149775185 0.2845417 0.077415764 -0.040778622 -0.025196988 0.056683406 -0.0011310249 -0.060380626 -0.08727711 -0.0636044 -0.026207604 0.07056108 -0.00467755 0.08233301 0.028652748 -0.09728942 -0.15767974 -0.18055065 -0.38805315 -0.022671776 -0.124556884 0.048982546 0.036948305 -0.03242935 -0.118205264 -0.18697412 0.14282651 -0.07647936 -0.003917296 -0.08833412 -0.061652895 0.21172789 0.024004735 -0.031935185 -0.124823436
2816 0.091267616 -0.0019788742 0.11482363 0.2764021 0.10512275 -0.34099576 -0.16828771 -0.12008791 -0.03847622 -0.13124394 0.021830915 -0.17066197 -0.31355724 -0.014941168 0.03662771 -0.011030668 -0.0018105366 -0.39309317 -0.0023650993 0.13822363 -0.00047545024 0.10526459 0.14144666 0.08718838 -0.025663026 -0.47486 -0.099739954 -0.18892744 -0.02069987 0.053458344 0.39424026 0.28653872 0.1094262 -0.038913507 -0.056777287 0.3035602 0.17161265 -0.1334735 -0.25453928 -0.21323448 0.022481041 -0.28403288 0.096333265 0.1266277 0.12830083 -0.17833701 0.056199245 -0.17559451 0.232362 0.0809397 0.21701781 -0.07499613 0.027901996 -0.16758643 -0.048715062 0.11242682 -0.004698031 -0.010994386 0.1542582 -0.062466554 0.20888393 0.18464507 0.075878836 -0.02194219
641 0.061791487 0.08961268 0.16099449 -0.1925322 0.14164785 -0.23389183 -0.02116009 -0.062129557 0.06674991 -0.11579936 0.094477616 -0.16346943 -0.13514145 0.17480569 0.045460057 0.0046612048 -0.1776652 -0.059436895 0.00864883 0.13107015 0.019387012 0.11712169 -0.0576339 0.09657628 0.049547616 -0.23329933 -0.18363534 -0.15724973 -0.23931788 -0.045673054 0.17824414 0.21778907 0.050892476 -0.0050168782 0.10577952 -0.11129983 0.09060867 0.045548476 -0.147736 -0.032232773 0.048327874 -0.030497503 -0.030848613 0.014888772 0.018691529 0.026986055 -0.015271188 -0.2927395 0.24698365 -0.11774361 -0.014082103 0.05644804 0.26910335 0.005026463 0.027450945 0.18455614 0.115397565 -0.12967359 0.06133946 0.10110751 0.10808747 0.08766891 0.10011897 -0.1511791
3104 0.16812348 0.5014611 -0.37554947 0.23512666 0.29601982 -0.5199194 -0.18940258 0.09039526 -0.17833881 0.060289986 -0.19179921 0.22129819 -0.22894594 0.17655827 0.14294392 -0.13826391 -0.07230122 -0.3159409 0.1900774 0.107731454 -0.055183936 -0.027751263 -0.021818401 0.072703265 -0.21304864 -0.2141548 0.12231299 -0.1496028 -0.5901197 0.09977183 0.097102664 0.2130216 0.14661045 0.2011498 0.080544285 0.15940665 -0.07877891 0.25945756 -0.3563681 0.024524847 0.1823205 -0.27383325 0.36471578 0.20201227 -0.036505014 0.010971147 -0.076761544 -0.065917455 0.22400431 0.2400636 -0.11539775 0.11596654 0.018481612 -0.062896416 0.34221932 -0.02577613 -0.011484164 0.10305723 0.054567605 -0.3075311 0.034818888 0.07048595 0.27724698 -0.33835334
608 -0.019288454 -0.09803944 0.30698165 -0.02377428 0.1438198 -0.07059211 -0.1464314 -0.06469205 -0.048861507 -0.096810214 -0.026832016 -0.17833444 -0.23541813 0.1514324 -0.036163557 -0.2640524 -0.14323457 -0.03709708 0.06410778 0.029964704 -0.09931123 -0.02846302 -0.09155522 0.0074440804 -0.09281141 -0.34616935 0.13139044 -0.13230646 -0.2596654 -0.046619922 0.35635594 0.13858336 0.005028017 -0.07889357 0.14093897 0.029857127 0.033569243 -0.0060810437 -0.12014865 -0.09556845 0.028775891 0.08823169 0.11258295 0.00830838 -0.122275546 -0.02365011 -0.03381815 -0.3524841 0.21293306 0.1149274 -0.1302183 0.13536464 0.11989576 -0.013164981 -0.031760737 0.06971193 -0.0008795321 0.14729968 0.059937533 0.23313636 0.12720546 -0.05006988 0.04439547 -0.24670474
3190 -0.016324835 0.058604244 0.2473081 -0.043783836 0.01629348 -0.24238709 -0.040602617 -0.21526274 0.23963732 -0.11197879 0.020268122 -0.14288601 0.2534863 0.2639237 0.19039784 0.022820488 -0.03385732 -0.04491903 0.09456859 0.12932462 0.002457063 -0.012247984 0.052246742 -0.11079923 0.1675528 0.12438031 -0.07190522 -0.08509944 -0.3676906 -0.18699254 0.23148441 0.21960765 -0.17300218 -0.17799824 -0.086195804 0.0735631 0.2356364 -0.061438132 -0.43835676 0.041688506 0.024889076 -0.22819623 0.25647017 -0.16150522 -0.22381663 -0.19030498 -0.1292499 -0.067419074 0.16190308 -0.005779446 -0.07902997 -0.019344838 0.27953827 -0.11377286 -0.18922584 -0.1297115 -0.020709187 -0.17536998 0.032053813 -0.06507358 0.090060614 -0.02513205 -0.0079534855 -0.14206466
668 0.016655726 0.054285865 0.44550923 -0.15282443 -0.10728085 -0.20210896 0.030497741 -0.17772569 -0.017656025 -0.022521136 0.04871533 -0.12099043 -0.029969255 -0.10150443 0.2615397 -0.041435566 -0.23407131 -0.15816027 -0.014768752 0.056234676 0.104745045 -0.19442129 -0.14124273 0.15920402 -0.124579825 -0.111894876 -0.08525291 -0.13323034 -0.13648799 0.019520845 0.27810398 0.05232694 0.16892374 -0.14060016 0.08767651 -0.1629624 0.24491277 -0.15506206 -0.10890708 -0.27159142 -0.06398387 -0.09169006 0.37387055 -0.17979392 0.02724215 0.12101477 -0.20876206 -0.1435538 0.17040789 -0.061462574 0.21240725 0.018719863 -0.20923427 0.019174691 -0.079638734 -0.24912246 -0.016832048 0.21743686 0.0630318 -0.14679639 -0.06172672 0.1740197 -0.11436672 0.12673762
2054 0.018782161 0.40036896 0.23666862 -0.3691724 -0.257386 -0.07681262 -0.3046241 -0.1621546 -0.12293458 0.12887314 -0.08048114 0.09886526 0.03889363 0.1518254 -0.071538724 0.14544372 -0.20809092 -0.14352737 0.022533115 0.08821651 -0.115878746 -0.30344036 -0.21872172 -0.13834623 -0.0682111 -0.21386339 0.033603773 -0.09917333 -0.22560665 0.014856171 0.06430782 -0.037848502 -0.0059117023 0.0073791146 0.096190214 -0.04218389 0.25389388 -0.05848031 0.023646878 -0.0025659387 0.18699828 -0.13636538 0.4759736 -0.2306581 0.4088114 -0.029568238 -0.2952623 -0.10132647 -0.14714618 0.023456248 0.03169169 -0.037126303 -0.10963398 -0.3708006 0.031942267 0.10159998 -0.1595923 0.23312156 0.03592007 0.085762955 -0.0058251214 -0.10461889 -0.25012058 0.19930635
653 0.23626086 -0.0072183553 0.11511 -0.25219265 -0.022309467 -0.16889018 -0.13028315 -0.31292027 -0.23904154 -0.116824865 0.11993471 -0.04651303 -0.26898816 0.22471735 -0.10676301 -0.007311711 0.121321805 -0.013737462 0.097799785 0.06969955 0.0049872496 0.22491693 -0.06325839 0.081139386 -0.037890684 -0.25484803 -0.33293042 -0.2703383 -0.30614763 -0.06376362 -0.011347537 0.09619246 0.026562873 -0.10653833 0.10515601 -0.08683378 0.05530771 -0.012596343 0.04043206 -0.092559144 0.029998709 -0.091708064 0.23318918 -0.22008511 0.13100652 0.05859909 -0.13007483 -0.41701764 0.12179785 0.16383243 -0.036439434 0.21316922 0.1437733 0.0991909 0.04457366 -0.0045463312 -0.09082506 0.16876645 -0.12014027 0.13603254 -0.045613047 0.0284334 0.06667919 0.03833544
1881 -0.22931181 0.24791642 -0.060843702 -0.09768462 0.112272926 -0.23456918 -0.09006505 -0.06285226 0.07327634 0.12496325 -0.10364937 0.053515185 0.21010727 0.024508735 -0.0366713 -0.123147085 -0.054179616 0.0077200374 0.28845286 0.08228744 -0.058417358 0.017368501 -0.07195566 -0.2105672 -0.037481446 -0.29934335 -0.119710885 -0.03208769 -0.16421954 -0.0025106838 0.14901105 0.15447311 -0.20047311 0.07551755 0.11835061 -0.12146216 0.27738592 -0.19776742 -0.15319616 0.023855748 -0.016294481 -0.2626124 0.2039614 -0.12789464 0.055747796 -0.13305748 -0.14412019 -0.2506335 0.16328186 0.047734577 0.048379023 -0.07366155 0.20481966 -0.029742658 0.1066039 0.07843962 -0.08744681 -0.05442977 0.037500378 0.11380633 0.11558723 -0.14956696 0.07349883 0.14874704
551 -0.14105147 0.11542193 -0.29542097 -0.18421584 0.46472266 0.05801012 0.13327843 -0.0048466986 0.13743247 0.1432098 0.11906986 -0.38470465 -0.096780725 -0.23029183 -0.09111056 0.012852651 -0.26538414 -0.5573551 -0.5817573 -0.04821892 0.62183416 0.2401598 -0.0036726573 -0.097515605 -0.60767573 -0.102351874 0.113023765 -0.040800884 -0.14683414 -0.40663496 0.8364226 -0.030571505 -0.35515344 -0.4516648 0.021404156 -0.28607008 -0.118629 -0.06890854 -0.24710654 0.111882985 -0.019003255 -0.32179803 0.99506634 0.31003302 0.1959573 -0.25429046 -0.17870821 -0.9993318 -0.061540503 -0.158853 -0.33734977 0.4107287 0.20885432 -0.07070158 0.030081702 -0.3357626 -0.26641724 -0.21881364 0.50567895 0.10895493 0.15322596 0.01267504 -0.027390338 0.5268126
1238 -0.2557159 0.36544532 -0.29891172 -0.08102543 0.36685443 0.0009444534 0.086202435 -0.19542278 -0.038140915 0.007945325 0.25758734 -0.33181018 -0.28995743 -0.007079115 0.095279545 0.049399815 -0.2800541 -0.40800315 -0.26463693 0.19237395 0.36285415 0.1490019 0.056530654 -0.19825473 -0.45755926 0.041687284 0.20963995 0.077590585 -0.21090312 -0.36204937 0.54592675 -0.10187952 -0.06664355 -0.25266755 -0.06731187 0.058852144 -0.061866004 0.118798494 -0.06255535 0.03667732 0.012787212 -0.365569 0.7124782 0.20867829 0.25498053 0.007752052 -0.19715668 -0.59355354 0.21802579 -0.16614877 0.050901853 0.11446981 0.23916332 0.19826014 -0.020055404 -0.20379291 -0.4534374 0.09111545 0.39070365 -0.19287574 0.3737802 -0.26058853 0.11263471 0.30946112
649 0.045981206 0.27907285 0.23705354 -0.10746984 0.09889803 -0.13662441 -0.09376453 -0.07205418 -0.015554903 0.05544903 0.13275558 -0.07186648 0.02913696 0.052301478 0.19665438 0.06663527 -0.19696477 0.14037807 0.04984237 -0.08395422 -0.025164336 -0.2517514 -0.07538103 0.15371722 -0.00017687719 -0.3357365 -0.02893713 0.06825996 -0.24438924 -0.11305914 0.15868556 -0.020995053 -0.09988591 0.27084482 -0.020156668 -0.04456161 -0.045155946 -0.06467252 -0.06150573 -0.30522358 0.004395856 -0.026251465 0.12825556 -0.15960959 0.15193284 0.022999432 0.03976807 -0.39794615 0.016012028 -0.09369837 -0.080785014 0.09499297 -0.04027411 0.032472454 -0.19775768 -0.14156307 -0.16410947 -0.020804068 -0.0931836 0.028649734 0.2315655 0.16700333 -0.12133112 0.07158265
2460 -0.1220979 0.19477405 0.18141554 0.16182892 0.1599489 -0.3734191 -0.42175055 0.061711244 -0.28336203 0.01142636 -0.1539794 -0.19152032 0.120331295 0.11844213 -0.26585504 -0.14547691 0.20647043 0.117612265 0.32477605 -0.026418556 0.16304103 0.0011606432 0.06443561 0.07262683 -0.070390895 -0.1397663 -0.016264556 -0.082341075 -0.41859797 -0.14122732 0.0642575 0.17590034 -0.09657218 -0.10134758 -0.053431723 0.05787392 -0.05785892 -0.10763255 -0.06699436 -0.0433985 -0.14897984 -0.12608841 0.20324072 0.15120019 0.14634547 0.029899677 0.20486315 -0.20764162 0.18293136 -0.18703698 -0.027757013 0.10377592 0.06705055 -0.11719614 -0.24137817 -0.20738663 -0.17871296 -0.120495014 0.42763922 -0.032527667 0.3964621 -0.14211823 -0.20035401 -0.08823472
759 0.06308738 0.23239532 0.13179104 0.0900424 0.22270569 -0.027850047 0.16120392 0.062731996 0.0030034785 -0.13211337 -0.40586352 -0.35688296 -0.00027542564 0.3043943 0.1727862 -0.13301855 -0.13907173 0.11212775 -0.02745426 -0.1393673 -0.08320744 0.26058722 -0.22978516 -0.1314252 -0.022572407 -0.31363755 -0.4902671 0.15117118 -0.042419184 0.061864164 0.14152694 0.1312019 0.0021954374 0.12727945 0.18436912 0.403336 -0.026455058 -0.20563334 0.039215136 -0.23136728 -0.041465733 -0.30567014 -0.057170063 -0.0870437 -0.0384756 0.55887437 -0.003147497 -0.5476934 0.1452791 -0.09396299 -0.18808264 0.097051516 0.44870922 0.26125404 0.19874902 0.18195769 0.09196465 -0.19315344 0.11252782 0.23565456 0.17632811 -0.03573658 -0.075507484 0.055961046
1855 -0.105628535 0.34314254 0.2432968 0.015982458 0.20220548 -0.28576326 -0.08857005 -0.075298145 -0.03605695 -0.07920501 -0.21030067 0.15945213 0.1201883 0.021494053 -0.1445927 0.06572802 -0.09343936 -0.07206056 0.039104275 0.22326285 -0.020983545 -0.011521028 0.05943669 -0.23416713 0.18638805 -0.2336063 -0.13235453 -0.1470128 0.102070615 0.11335499 0.09850979 -0.26192942 -0.3096785 -0.2480602 0.16078414 0.085262775 0.13455538 -0.25041157 -0.09398746 0.1012134 0.08956813 0.06690349 0.49486107 -0.052615877 -0.051096108 -0.0769049 -0.030237466 -0.18367751 0.13587654 -0.12473206 -0.13954158 0.3096269 0.08990832 0.086125076 -0.020506315 -0.060865734 -0.008449932 -0.002554097 0.112924874 0.11954703 -0.009480673 -0.048657313 0.1406979 0.2861518
609 0.07666948 0.033049617 0.18976097 -0.06810958 0.1409931 -0.18362372 -0.09055617 -0.008047043 -0.102285005 -0.06017836 -0.00834297 -0.026274672 -0.06674623 -0.0069246404 -0.030091912 -0.01585263 -0.2791069 -0.13150501 0.10710672 0.07032036 -0.107998095 -0.007505968 -0.014005386 0.12321494 -0.051387943 -0.16862729 -0.078010365 -0.1533488 -0.33745077 -0.002476875 0.25383887 0.10762228 -0.06148921 0.08900166 0.1004089 -0.03288748 0.0046181385 0.00022602885 -0.10583855 -0.1596634 -0.08119419 0.004739872 0.09860715 0.07466879 -0.056007832 -0.055156752 -0.1362297 -0.3094639 0.06474131 -0.14690031 0.007464928 -0.011499817 -0.067224115 -0.11337071 -0.08941156 0.10742968 -0.036273964 -0.04664591 -0.03888211 0.027021836 0.23270111 0.059010837 -0.12371784 -0.0311164
2041 0.081324495 0.1267785 -0.025139963 -0.03274741 0.20561244 -0.044790808 0.07022803 -0.111592144 -0.14473943 -0.004699531 0.086270146 -0.04287089 -0.16822232 0.101239055 0.027776567 -0.095074736 -0.41233087 -0.12540138 0.18727113 0.021884985 -0.34700063 -0.17814317 0.08073746 -0.07998611 0.041747224 -0.3527227 -0.08546633 -0.18725224 -0.4606071 -0.15247719 -0.037808217 0.0132213775 -0.27981147 0.2197937 0.07475811 0.10576272 -0.079543896 0.1044456 -0.16801403 0.061016276 -0.09194899 0.21651295 0.34937268 0.13507369 -0.15180066 0.11529801 -0.35076103 -0.252669 -0.04748625 -0.09754554 0.1786534 -0.030290248 -0.15148957 -0.04678799 -0.04038267 0.19906661 -0.1691362 0.030623198 -0.008314777 0.08912469 0.16669999 -0.039689653 -0.08403612 0.05004756
374 0.53800815 0.5037133 0.44681683 -0.10004341 0.45713693 0.70345557 0.25814575 0.00363898 -0.23928662 0.24684821 -0.1898851 -0.29354265 0.3574294 -0.2568364 0.23800592 0.106418416 -0.5630325 0.09987245 0.5701001 -0.03271089 0.09595233 0.13200076 -0.10966982 0.39751425 -0.26575342 -0.18775946 -0.07691136 0.20282486 -0.80611694 -0.54849595 0.44734564 0.26015612 -0.17085458 0.040998537 0.65049094 0.45701176 -0.4417676 0.45239657 -0.021739768 0.5123594 0.3318842 0.026083617 0.59268236 -0.27292132 -0.1500951 0.29551473 0.11911021 0.49279872 0.15821426 0.35527387 0.15810713 0.5802448 -0.17790042 0.22812246 -0.19681619 0.4270783 -0.49914363 1.05125 0.3700317 -0.099828035 0.19656032 0.3081754 0.63498443 0.7930996
1556 -0.028781142 0.6263374 0.21414033 -0.41966355 0.13487406 0.2103016 0.14383003 0.15926223 -0.13877583 0.13262266 -0.06735325 -0.15876295 -0.012959521 0.03602164 0.09450432 0.060065616 -0.512437 -0.0625636 -0.2227295 -0.12923351 0.070710674 0.07291501 -0.1398087 0.15345152 -0.66901976 -0.3086418 0.07267891 0.29316708 -0.113301285 -0.11082381 0.26256728 0.09767959 -0.2476597 -0.20961186 0.56689703 0.4162918 0.14076221 0.22172998 -0.22332418 0.34035516 0.08374088 -0.34586453 0.3188961 -0.22673555 -0.02483822 0.08401559 0.23359951 0.03554443 0.25313476 0.22030184 0.25691268 0.27684408 -0.16292801 0.016848521 -0.18049477 0.27484268 -0.50282186 0.31130323 0.33126268 -0.18805763 0.4126273 0.23210837 0.55547696 0.40261075
602 0.10019137 0.17711778 0.083388515 -0.15572052 0.23015799 -0.21820615 -0.093470916 -0.060022745 -0.05744252 -0.011350588 -0.0045188954 -0.038553014 -0.11343015 0.024667796 -0.023403699 -0.011376127 -0.3259466 -0.08304173 0.075854994 0.033475496 -0.10296097 0.019733084 0.03137687 0.10383685 0.03002419 -0.16713159 -0.0697852 -0.15891322 -0.30440027 -0.0410843 0.17281155 0.118359014 0.0008955922 0.027300023 0.03798306 0.008739383 0.00864728 -0.03879146 -0.09361912 -0.10193252 -0.06860108 0.05408385 0.07343312 -0.08867985 -0.11519168 -0.026664726 -0.07732296 -0.2703859 0.06926555 -0.16444506 0.04583428 0.053703357 -0.10477764 -0.110387266 -0.044660565 0.10696392 -0.093336016 -0.043225426 -0.0071536074 -0.0021654328 0.26883125 0.0019137701 -0.14217871 -0.09943416
1465 -0.016519936 0.08840654 -0.23547111 -0.10309488 0.12815234 -0.056497402 -0.087530956 0.045414202 -0.16450563 -0.02790067 0.116712704 -0.3898656 0.046970017 0.048068006 0.08080289 0.0029740457 -0.19345267 -0.0810496 -0.74496454 -0.095231704 0.137313 0.23452815 -0.056346383 0.22510734 -0.2570998 -0.33349073 0.061986335 0.33618927 -0.15363345 -0.21249875 0.4749067 0.05622344 -0.16757381 -0.2723913 0.21661422 -0.08899424 -0.10430878 -0.020813286 -0.38714626 0.04376465 0.17585148 -0.21080229 0.7476861 -0.07042741 -0.0018852549 -0.14672963 0.031501677 -0.5779957 -0.12939788 -0.13262464 -0.0461295 0.017990444 0.24017982 -0.17752588 0.023325505 -0.22774313 -0.08389869 -0.06164484 0.39457563 0.16183224 0.19373721 0.12953737 -0.021322953 0.46072274
714 0.12851575 0.023294099 0.40599528 -0.20620383 0.028041733 -0.25251654 0.28506133 -0.085186034 -0.22724465 -0.19822331 -0.14418952 0.04251679 0.23579893 0.21250042 0.011970836 0.011415779 0.0808731 -0.10932291 0.025694115 0.14448157 0.36802 -0.056239817 -0.20913965 0.11063041 -0.19235466 -0.106321536 -0.15862626 0.057960805 -0.21577863 0.384659 0.17442855 0.21013416 -0.051042162 0.05661522 -0.09021634 0.22158502 -0.039628845 0.14350796 0.0476389 0.017155346 0.09604623 -0.098410286 0.18000922 -0.1740896 0.15648697 0.12443801 -0.29384446 -0.37036133 0.060802966 -0.4166161 0.062838644 -0.0023966716 0.32503712 -0.05002197 0.13834003 -0.21451217 0.072308786 0.24075581 0.055136982 -0.14419812 0.16617377 0.09105753 0.056973267 0.18932049
1767 -0.12430965 0.54605174 -0.05078174 -0.07753387 0.23904824 -0.1228508 -0.24278162 -0.5411196 -0.47488964 -0.014306667 -0.024923636 0.037154187 0.12706938 0.4879045 -0.15917864 0.2818639 0.20367718 -0.04080948 0.0056330496 0.20594223 0.40955228 -0.028318143 0.2996068 -0.6069894 -0.045397732 -0.26360774 0.29325333 -0.23653023 -0.15712528 0.1427745 0.408319 0.28499576 -0.059018597 -0.029188877 0.013954885 0.35041192 0.10129095 0.0987936 0.003615375 -0.15275672 -0.20629504 -0.044137537 0.2885142 -0.04208059 -0.07912448 -0.10575873 0.018324487 -0.22812906 -0.13608927 -0.104088426 0.3551516 0.3599069 -0.30479416 -0.062248465 0.1050087 -0.56772876 0.1395088 0.19744553 0.36635816 -0.37947965 0.30054206 0.0029600263 0.10902628 0.14899555
640 0.12604979 0.20084672 0.20420007 -0.38772905 -0.081488214 -0.12277025 -0.09229823 -0.12740718 -0.15125306 0.056834895 0.01691789 -0.03815501 -0.05686309 0.32904485 0.083842024 -0.049900647 -0.08685178 -0.0073836474 -0.021696823 0.023191081 -0.22267658 -0.17136747 -0.16943839 0.11091117 -0.12205367 -0.04388468 0.018125808 0.07614098 -0.17447369 0.023022566 0.21330442 0.061085526 0.25907513 -0.07051569 0.1689794 -0.21652846 0.14754316 -0.016117897 0.042405903 -0.11336607 -0.065672606 -0.115774564 0.29753548 -0.09402477 0.013189623 -0.051450804 -0.3465425 -0.21530563 0.17798184 0.0015452242 -0.009540061 0.12045546 -0.003221343 -0.019405326 -0.06401481 0.055657823 0.08573453 0.28348872 0.13439004 -0.08577765 0.036210723 0.18734676 -0.2860522 0.065112725
2386 0.08166101 0.2870709 0.09356441 -0.16039124 0.11304547 -0.058122687 -0.062285423 0.010908556 -0.27333963 -0.10490911 -0.1317107 -0.04393529 0.124794 0.19839355 0.06563829 -0.07597153 -0.136642 -0.18485306 0.11587902 -0.0028343755 0.049009155 -0.23707284 0.15067601 -0.024926279 -0.008926172 -0.1729348 0.09408263 -0.08646248 -0.008028227 -0.061011355 0.034615427 0.30036584 0.10219756 0.14847927 0.2771407 -0.11920729 -0.032066282 0.2322925 -0.2770641 -0.18116121 0.0067562233 -0.25819564 0.19530489 -0.03946319 0.03592499 -0.3505383 0.069210835 -0.2874351 0.13471745 0.012287645 -0.097589545 -0.08188719 -0.05633749 -0.037783347 0.13127142 0.17820555 -0.12050904 -0.026073541 0.24708222 -0.2506176 0.12798627 0.098383985 -0.1651993 -0.036559634
620 0.29826418 0.11849614 -0.011772649 -0.25883922 0.0012063009 -0.06714908 0.105662666 0.19942139 -0.035856415 0.029200424 -0.02940974 -0.123650834 -0.09686668 0.34723476 0.076964594 -0.09374959 -0.22832227 -0.010129702 0.050539844 0.004175201 -0.022587638 -0.056834247 -0.018579755 -0.19230129 0.22309889 -0.12599587 -0.1664919 -0.119779244 -0.38518336 0.12381374 0.27739573 0.19145931 -0.0044463994 -0.17745344 -0.18523404 0.2948868 -0.11828773 0.045308765 -0.06653917 0.22260895 0.09439123 -0.13531546 0.18585296 -0.041779626 -0.062425457 0.37739974 -0.07297102 -0.3721542 0.22293514 -0.112838805 0.036551643 0.054333515 0.30883527 -0.074813865 0.3193017 -0.075558305 0.093995854 0.16335836 0.08007859 0.00048129514 -0.030171743 0.07986658 0.09021352 -0.15190093
2486 0.2617737 0.15527433 -0.0052893297 -0.15324414 0.07975727 -0.19053857 -0.04555683 0.07789993 0.06561848 -0.0728282 0.0033244488 -0.23214929 0.13459802 -0.06263791 0.122522704 -0.19198403 -0.2625058 -0.24449033 0.31471115 -0.01467533 -0.023906045 0.09590341 -0.044354547 0.0064451247 0.052149102 -0.42300686 0.015115664 -0.111036114 -0.12927969 0.13769485 0.2831017 -0.020358087 -0.021246258 -0.0696738 -0.07701665 0.15247059 0.25557595 -0.0037678927 -0.24701571 -0.04336772 -0.05062306 0.06348651 0.14866088 0.0864517 0.060382586 -0.0035201937 -0.04341063 -0.1546829 0.24069367 0.028705142 0.049780097 -0.20530543 0.22172724 0.05722601 0.020991748 0.19701183 -0.019260619 -0.07353919 0.08828814 0.09140608 0.16145852 0.26350632 0.026231265 0.13458775
683 -0.31342667 -0.048807524 0.2050429 -0.18261729 -0.1740652 -0.55319756 -0.23429176 0.29121324 -0.00531438 0.22639108 -0.008174076 -0.21815576 -0.013353944 -0.20509854 -0.07828882 0.102062315 0.15925875 0.044726994 -0.2137256 -0.022980815 -0.37117192 0.17340918 0.26917616 0.38484964 0.09471944 -0.018206669 -0.16934367 0.008838948 -0.18968402 -0.14169304 0.22422592 0.043134768 0.10640236 -0.046477184 0.23122644 -0.19439611 -0.28748807 0.08843002 0.030314988 -0.004908258 -0.0383727 -0.11322099 0.35789326 -0.13409576 0.07281951 0.29914176 -0.194311 -0.5030594 0.24583298 -0.032614693 0.01862478 -0.015931066 -0.058058925 0.046289764 0.018074974 -0.12683599 -0.3206627 -0.02587323 0.22838815 -0.44023538 0.36802763 0.26131895 0.25174063 0.023168067
1883 -0.090131156 0.27650586 0.2207793 -0.08128177 0.03871877 -0.05070331 -0.1516149 -0.15878801 0.065019436 -0.20545246 0.03152061 0.105192766 0.0059710913 -0.09688145 0.07484449 0.20055942 0.018998023 -0.21267037 0.15662274 0.06668736 -0.10985768 -0.06539035 0.040348433 -0.28984147 0.0017839156 -0.11776653 -0.010267559 0.1507211 -0.016641725 -0.015393822 0.24772818 0.21700504 0.06647584 -0.09168316 0.2522761 0.016118178 0.21329246 -0.16941628 0.014302058 -0.033190783 0.12845455 -0.13577928 0.47894707 -0.032409538 0.13886301 0.031060612 -0.11873995 -0.17605846 0.22515514 -0.11376541 -0.08136337 -0.08570499 0.039698727 -0.10372471 -0.18455192 -0.027524585 -0.078285985 0.22749624 0.23758706 0.023576183 0.035904072 0.13859077 -0.074034296 0.05265993
619 0.046519145 -0.026868226 0.069835454 -0.1601857 -0.049242016 -0.4660372 -0.02432587 0.21224293 0.26350874 0.32814157 -0.014804284 -0.03448796 0.0036726038 0.30569333 0.11171417 -0.13416351 -0.100555606 -0.1999988 0.23491476 0.18902045 0.28103894 0.21954937 -0.17046946 0.14492048 -0.046837743 -0.26925755 -0.023213228 -0.2216309 -0.07219926 0.07487526 0.28380585 0.09168403 -0.12636498 -0.02020451 -0.20902619 -0.2165984 -0.21949153 -0.09725999 -0.182019 -0.3329478 0.08375414 -0.1403723 0.2714478 0.02490243 0.21588764 -0.043598462 -0.11662499 -0.23295747 0.5663746 0.30188242 -0.0054624206 0.30456734 0.14384882 -0.14020805 0.0831022 -0.38416612 -0.03382345 -0.12620519 0.0411791 0.005241706 0.32174554 -0.22213835 0.28112978 -0.05462538
2344 -0.00979326 0.27149498 0.02479091 -0.1107579 0.14029972 -0.2540195 -0.019939994 -0.1722776 0.0046832864 -0.05183843 -0.056029133 0.20470925 0.15451758 0.13325611 0.09974984 0.010710777 -0.16973029 -0.19555359 0.17305788 -0.051888943 -0.11443804 0.016109915 0.14073569 -0.3509761 0.05612027 -0.20878267 -0.12515414 0.15259764 -0.073120914 0.0959699 0.15283212 0.008587699 -0.14956678 -0.17128865 0.14615507 -0.051205926 0.25853395 -0.03870586 -0.28139102 0.084941976 0.14092697 -0.0019316535 0.07923475 -0.047703553 0.029755218 -0.015413426 -0.15000004 -0.25141683 0.23574683 0.017140653 0.012665377 0.19112185 -0.05137223 -0.023581881 0.02263038 -0.06711764 -0.27912113 0.025602391 0.17793489 0.0033525708 -0.011292178 -0.10106654 0.13830273 0.18112108
700 0.13415584 0.16314487 0.16826971 -0.16608398 -0.05559313 -0.01495076 0.090011194 -0.07320048 -0.16495022 0.091177404 0.22440407 -0.034297414 -0.14528064 0.08460956 0.2092257 -0.10724712 -0.099278875 0.015209771 -0.12885962 -0.0042552953 -0.07495454 -0.07206105 -0.40390345 0.022777904 0.09538511 -0.2060573 -0.7402042 -0.4782437 -0.18614644 -0.22500454 -0.1331169 0.025898263 0.10544246 -0.32546094 -0.039569743 0.033149954 -0.34025028 0.09249988 -0.102169424 -0.008406222 0.0067770802 -0.44809872 0.32170036 0.064253 0.03434922 0.09574345 0.1630527 -0.3918428 -0.046296664 0.15964484 0.032391917 0.3749584 0.093857095 0.21332757 -0.22164626 -0.24986386 -0.056428898 0.16931492 0.08241499 0.31608185 0.27416927 0.0736304 -0.0357357 -0.06662981
2010 -0.22218464 0.1901804 0.20034811 -0.11042112 0.10197947 -0.16247621 -0.042371433 -0.12773508 0.016569616 -0.16710006 -0.048109442 -0.12580091 0.119357154 0.085612245 0.13518828 -0.042990964 0.029592412 -0.2766503 0.102781184 -0.021030555 -0.22449662 -0.07056507 -0.006663105 -0.15779433 -0.063017905 -0.13301298 -0.20385088 -0.02036599 0.0016006998 -0.034627993 0.038749363 0.091313526 -0.0011552471 -0.12874362 0.10100204 0.06587769 0.05027551 -0.08188512 -0.12764935 -0.08297608 0.08954222 -0.286246 0.33036333 -0.084287 0.035966218 -0.028892996 -0.05608258 -0.272787 -0.01789141 -0.05265363 -0.0476198 -0.14088584 0.20926616 0.14365016 0.1769075 0.067969576 -0.17543593 0.16229528 0.1570258 -0.061544746 0.19396628 -0.20398092 0.10106441 -0.07937954
615 0.32570058 0.31912577 0.2761668 -0.08574757 0.08634282 -0.26083437 -0.01855661 -0.020874782 -0.02496176 -0.026500626 -0.14635372 -0.18178962 -0.18542539 -0.05956174 0.28812283 0.11617985 -0.09417736 0.01871296 0.15024759 0.30269516 0.2419124 0.09373092 -0.07117121 0.07316827 -0.097482905 -0.08178146 -0.11410656 -0.031082364 -0.18274052 -0.15883276 0.25592527 0.25856826 0.008369345 -0.07694665 -0.043042522 -0.17482696 -0.027267905 0.023498354 -0.14359897 -0.17874697 -0.204937 -0.18468314 0.21830459 0.10017077 -0.20893441 0.20451497 -0.014319788 -0.15001382 0.19678445 -0.2650197 -0.1746029 -0.051323466 0.059006024 0.06505955 0.11637911 0.07837296 -0.029164512 0.066427656 0.03438944 0.090646036 0.08485927 -0.10192263 0.09591047 -0.1382928
1120 0.14485641 0.08664154 0.02785198 -0.17018315 0.019413615 -0.17801139 0.010348055 -0.27963015 0.20784116 -0.1532768 -0.10852973 -0.19367419 -0.06794945 -0.16307727 0.38531956 -0.05538501 -0.36289024 -0.13342284 0.05091935 0.07704661 -0.0734441 0.068752624 -0.0007462066 0.24498297 -0.0063127587 -0.05446712 -0.3084814 -0.096934244 -0.2653471 0.08740097 0.2396217 0.22909847 -0.16563874 0.016565267 0.092572965 -0.16494903 0.21855713 0.25353506 -0.17967108 -0.1614074 -0.11328931 -0.080505595 0.15105616 0.22499855 0.16715708 -0.19118053 -0.26633722 -0.12195603 0.07342843 -0.4304483 0.02507684 -0.16250308 0.119826235 -0.13205485 -0.07674111 0.19719486 -0.060088377 -0.09483572 -0.032382578 -0.0031123334 0.18343666 -0.25701445 0.040738158 0.14601251
713 0.056939468 0.22980578 0.14555822 0.021895776 0.08964413 0.12450761 0.079010256 -0.05474104 -0.055921312 -0.025284743 -0.107164204 -0.01115656 -0.0616147 0.21069598 0.282041 -0.03431335 -0.07000275 0.044577353 0.08620374 0.22907683 -0.22397472 0.23418681 -0.06470461 0.12357228 -0.04323106 -0.24213834 -0.11922644 0.32436955 -0.26421773 0.26172376 0.20780979 -0.0045462972 -0.0109580485 0.19280219 0.37032843 -0.123809874 0.01209005 -0.09385996 -0.20338492 -0.01754242 0.4528623 -0.2571851 0.34452695 -0.3020383 0.048883725 0.38576055 -0.25631967 -0.22888386 0.16251835 -0.074950345 -0.4216145 0.17045128 0.15708439 -0.15720022 -0.096726015 0.031035796 0.14236523 0.26013383 -0.041336846 0.087019764 0.19754665 -0.09771647 -0.27974916 0.22975296
2220 0.15587568 0.87840515 0.3252317 0.112442344 0.08941132 0.11100409 -0.26877916 -0.13739485 0.5239588 -0.298882 0.065227814 -0.29226568 -0.055555835 0.22251755 0.33223212 -0.2039852 -0.564734 -0.41560304 -0.04174266 0.14237729 -0.69329816 0.4721576 -0.10550267 -0.18347302 -0.06439038 -0.16464815 -0.029567102 0.35826042 0.20276418 0.3283101 0.3711837 0.053135093 0.17580415 0.06810204 0.33467913 -0.2751141 -0.1696191 0.37865523 -0.103564635 0.07955018 0.628765 -0.75279766 0.00842856 -0.31931514 0.43141648 0.39661875 0.19010602 -0.033626255 0.039185982 -0.17998049 -0.51545733 -0.093693346 -0.050086245 -0.36447725 -0.07523796 -0.23307897 0.10491898 -0.13701421 -0.13724065 -0.28675434 0.016448004 0.13624363 -0.38284758 0.25951385
222 -0.054033563 0.08405208 -0.06680131 -0.4427011 0.2585559 -0.51859844 -0.056273855 -0.046331532 -0.2478036 0.52584296 -0.3050214 -0.595897 -0.12804757 0.14352192 0.12908271 -0.33543852 -0.09141109 -0.4626707 0.06942441 0.2289849 0.15489577 -0.15250698 0.027102802 -0.047275025 -0.44377816 0.061310686 -0.14593545 -0.35308966 -0.13964793 -0.17590265 0.1433179 0.23850237 -0.2880356 -0.5094062 0.5414376 -0.021741472 0.44860694 -0.26482388 -0.1514623 -0.11043467 0.5045297 0.2557027 0.29232672 -0.23711362 -0.13859966 0.09948018 0.15381081 -0.20784299 -0.1894414 -0.3625403 -0.51687974 0.30604813 0.14683335 0.25620857 0.25486597 -0.67336625 -0.80446583 0.02233005 0.21819589 0.09095694 0.32153055 0.5484969 -0.2884429 0.012309874
2090 0.009247711 0.38945693 0.4398574 -0.4609123 0.22547247 -0.53208095 -0.39955956 0.13535915 -0.09046535 0.14440812 0.047471363 -0.7256843 -0.1252302 0.50605005 0.15074408 -0.41944388 -0.0928302 -0.5154824 0.058568317 0.2852948 0.31865793 0.15118454 0.21077636 -0.31136364 0.003560381 -0.06949168 -0.083029985 -0.108941756 -0.26356456 -0.19913246 -0.10884206 -0.20865524 0.012742317 -0.12503634 -0.009945302 -0.24115434 0.29869884 -0.025819102 -0.0478795 -0.032391835 -0.09114703 0.09476367 -0.049642235 -0.32708248 -0.08267954 0.004203657 -0.041575253 0.22153524 -0.19883807 -0.3546098 -0.2923543 0.24570493 0.019854443 -0.0320824 -0.25296468 -0.2026184 -0.6721406 -0.12573032 0.23409227 0.28925654 0.17903456 0.11377094 -0.15521152 -0.164138
698 0.26004747 -0.1375774 0.1805795 -0.023240292 -0.11619515 -0.16399719 -0.063796535 -0.056881495 -0.16292474 -0.029669106 0.061925013 -0.08927306 0.0004900875 -0.01923965 -0.0662148 -0.28000832 -0.05707792 -0.24097858 -0.0067489496 -0.116003975 0.002478807 -0.07844654 -0.08851976 -0.037657276 0.059830997 -0.25649217 -0.20434351 -0.04381563 -0.23887162 0.018583404 0.19288987 0.07445076 -0.1419077 -0.041469976 0.2503475 0.1260578 -0.1713618 0.07412662 -0.09610322 0.027822752 0.032195948 -0.03741883 0.28646266 -0.059083555 -0.011578707 0.1706919 0.11508598 -0.7190041 -0.0030721587 0.22524394 -0.07151652 0.13593227 0.011165812 0.43969885 -0.25464186 -0.23626074 -0.057016645 -0.12110852 0.062233713 0.40438133 0.01583394 0.11645628 -0.009650898 0.05787301
2134 0.2783517 0.32435924 0.26840812 0.189191 0.16821663 0.057100613 -0.2108993 -0.11472777 -0.00236618 -0.074833035 0.12304907 -0.20715056 0.17435649 0.15171579 0.07736059 -0.16622594 -0.11526666 -0.5178634 -0.03735504 0.1407018 -0.013979709 -0.19002171 -0.2814143 -0.024247883 0.3984372 -0.06734417 -0.23032545 -0.13518357 0.053006653 0.31457755 0.38308674 0.21101022 -0.06460078 0.1894855 -0.07293061 0.07412693 0.095959745 0.11094099 -0.081759356 0.27254668 0.2275453 -0.23452458 0.25558874 0.014320886 -0.11098803 0.003369235 0.62782615 -0.41471842 0.20602228 -0.28270307 0.1590487 0.20989297 0.11207407 0.26677653 -0.17534678 -0.02360166 -0.1912354 -0.050478708 0.19709307 -0.039960306 -0.15255229 -0.12970588 -0.124585584 0.037485365
598 -0.011813529 0.025869142 0.29936662 -0.1659975 0.07320073 -0.17238463 0.12229068 -0.09435787 -0.14678627 0.045470815 -0.2222991 0.078659326 0.06845773 0.25354943 0.027772516 -0.008356773 -0.26187807 0.08092738 -0.034341637 0.2802973 0.025988713 -0.10633173 -0.13572809 -0.021940727 -0.12094633 -0.008361997 -0.06188387 -0.01382148 -0.08208486 -0.052090436 0.26752296 0.26885006 0.07440145 -0.122809485 0.09009661 0.053584043 -0.17450267 0.0144179 0.015024203 0.0044696773 0.19517644 -0.2158957 0.14227389 -0.24177517 -0.09313186 0.22314964 -0.09062406 -0.36293134 -0.025992548 -0.2282277 0.28303865 -0.033591285 0.31843644 0.031033328 -0.0390672 -0.03763048 0.11770246 0.2480345 0.1742865 0.01591308 0.04932652 0.08850754 -0.08148335 0.13306923
2127 0.21064074 0.17144759 0.14027627 -0.19251452 0.23455547 -0.091714144 -0.18646121 0.00051739573 -0.013733667 -0.19204904 -0.11307774 -0.045259193 -0.06840898 0.17882897 -0.11081959 -0.040202897 -0.17090963 -0.09185489 -0.037675403 0.14593063 -0.05220854 0.010630481 0.118129775 -0.09155212 0.092859216 0.04046201 -0.099513546 -0.09864144 -0.1877667 -0.06139961 0.119935095 0.26191968 -0.00075457385 0.11668222 -0.031551413 0.052391753 -0.16385998 -0.09289897 -0.2987839 -0.024578802 -0.015302009 -0.2630723 0.07894126 -0.0607828 -0.06603034 0.061107274 -0.012979796 -0.2023999 -0.04612621 0.08964876 -0.0153812915 -0.1934918 0.43425077 -0.02899721 0.08454577 0.13663405 -0.13405304 0.24449587 0.28636068 0.12729499 0.03579559 0.11355741 -0.03466363 0.06265949
636 0.14429025 0.17224376 0.23774076 -0.13448271 0.08672806 -0.053093627 -0.15811323 -0.082555704 0.36815253 0.25207376 0.16373935 -0.13715452 0.16897485 0.039048705 -0.02557442 -0.2106573 -0.13044208 -0.117576756 0.15984578 -0.07366663 -0.019595467 0.005121747 0.03886107 0.027920172 -0.06005833 -0.25176322 -0.09568183 -0.06188374 -0.03083788 -0.20831148 0.23419337 -0.0015625115 0.0071187047 -0.17849578 0.37314135 -0.06344745 0.059785806 0.28110343 -0.07990705 -0.05869088 0.12204478 -0.15312304 0.06042757 -0.103592135 -0.068367146 0.12663387 -0.10381109 -0.44206375 0.09070142 -0.063700296 0.06184258 -0.06197971 0.12171462 -0.015606401 0.16460371 -0.21043707 0.103166245 -0.057825882 -0.0030973477 -0.26732424 0.15732592 0.12481227 0.038315665 0.17538075
2133 0.036391854 -0.05543951 0.0016054768 0.057830814 0.14052033 -0.2916315 0.008058984 -0.041679468 0.16657875 -0.12590839 0.2659039 -0.0362152 0.2538663 0.014330417 0.22380799 0.022550495 -0.2728308 -0.34256375 -0.042841233 -0.37227595 -0.054073513 -0.30424505 -0.16851103 0.022982173 0.20989402 -0.023723044 -0.41787696 -0.1566037 -0.34369227 0.005132194 0.12889862 0.12537664 -0.038597904 -0.011478963 0.1285775 0.13359758 0.15509038 -0.016317734 -0.14405246 -0.03767953 -0.07706845 -0.36687985 0.1253438 0.15809627 -0.07817422 -0.051084142 0.23737319 -0.28317073 0.1857836 -0.25200558 0.018486228 0.2366825 0.43735483 0.026444118 -0.2712763 -0.049712293 -0.14317952 0.00040434755 0.33350366 0.0681324 -0.15538745 0.20202868 0.028403452 0.19087751
655 0.05574408 0.09099203 0.40036023 0.02118447 0.11756131 -0.09681318 0.065897435 -0.14848836 -0.0042342823 -0.16984329 -0.19223163 -0.121028654 0.022410838 0.2283586 -0.056497857 -0.101745725 -0.3357094 0.11960146 -0.1468059 0.24110408 0.15883896 -0.09868906 0.021081692 -0.28841266 -0.025155358 -0.11734848 -0.14452891 -0.13872673 -0.36463782 -0.022935687 0.09748409 0.13365704 0.196142 0.22433622 0.25128815 -0.13666213 -0.20940153 0.1725923 -0.2413833 -0.12808524 -0.062717386 -0.039010666 -0.013024729 -0.22049013 -0.16803302 -0.25973406 -0.061333027 -0.28156567 0.10402245 0.28913245 -0.3308113 0.04929643 0.1549274 0.20520395 0.03325224 0.052694745 0.015408999 0.021612803 0.3126826 -0.16865975 0.09881255 0.095387444 -0.08076585 0.081422895
1555 0.062166944 -0.044275526 0.11980971 -0.2203033 -0.019668087 -0.0989252 -0.13082203 -0.2615915 -0.08063472 -0.013835634 -0.058973935 0.050400704 -0.0066764345 -0.0063561425 0.036750734 -0.13059506 -0.23832597 -0.20577848 -0.050214767 -0.05542643 0.038360517 0.024533032 0.06048711 -0.12883624 0.12834316 -0.186209 -0.037055086 -0.06952351 -0.21147676 0.010109533 0.063052505 0.250224 -0.032382373 -0.0014224893 0.19546852 -0.018957991 0.22330585 0.1739689 -0.18534382 -0.009740115 0.004384014 -0.14239919 0.2949214 -0.15739718 0.16982993 -0.19450822 -0.104337014 -0.2033001 0.0016551845 0.063626796 -0.02380767 -0.027882088 0.05145238 -0.09903863 -0.010857584 -0.22272983 -0.08219061 0.088618875 0.17471217 -0.016626643 0.117374375 0.06777657 0.12885721 0.044424124
1193 -0.06818974 0.17866358 0.17839283 -0.29375938 0.08447793 0.02811546 -0.27181187 -0.05438914 -0.07631646 -0.18950099 -0.36497858 -0.13665228 0.02117191 0.16257885 0.15752906 0.11359946 -0.2990943 -0.052967764 -0.028012102 -0.10585286 -0.39599624 -0.08877809 0.09336652 -0.2931134 0.11419678 -0.053672314 0.031159744 -0.07996876 -0.028325647 -0.23674178 0.21432564 0.057147395 -0.009007772 0.16168246 0.14167058 -0.09995968 -0.24736488 -0.01268442 -0.115366414 -0.15183017 0.014610953 -0.1991708 0.056308314 -0.14687464 0.19656432 -0.27482468 -0.09421195 -0.25999746 -0.053528473 -0.035624884 -0.11287074 -0.040795553 0.24378803 0.16294746 0.018725632 0.048223477 -0.10632124 0.031531554 0.1097625 -0.1862471 0.11988605 -0.07540397 -0.07987597 0.29366022
1112 0.21772057 0.39354125 0.2651998 0.2592249 -0.041971818 -0.2666788 -0.20763238 0.25572225 0.14722137 0.48096392 -0.5023813 -0.25908488 -0.39042336 0.33625773 -0.14390032 -0.42173412 -0.13074543 -0.31755105 -0.14626592 -0.2837156 -0.24570653 0.2521914 0.45728895 -0.4001825 0.079046704 -0.13181089 -0.28103068 0.056314275 -0.48557982 -0.06369486 0.31326327 -0.11363823 0.099756256 -0.12418202 -0.3524294 0.2745141 -0.05020334 -0.06730153 -0.40169927 0.018779952 0.24708934 -0.1526392 0.3444223 -0.1065492 0.28282282 0.21310453 0.37656376 -0.1356823 0.033735454 -0.45556584 -0.11195817 0.087055005 -0.38834313 -0.025220884 -0.19557382 -0.4114298 -0.00790113 -0.004024095 -0.31621045 -0.24343687 0.12041219 0.016641462 -0.07805421 0.0025972712
647 -0.035863522 0.39704782 0.071008645 -0.030296803 -0.12355429 -0.059465896 -0.14435364 0.094667576 -0.10593072 -0.0836289 0.17997618 0.31125978 -0.38534385 0.09213073 0.09750406 -0.13101143 -0.21923621 0.045583174 -0.085936874 0.14766496 0.16656886 0.28095743 -0.17187455 -0.2741709 0.29355508 -0.094829716 0.14952303 -0.30316028 -0.23363686 0.07479583 0.05767372 0.3677914 -0.12137167 0.07637841 0.4253589 -0.12691647 0.09747772 -0.107959285 -0.20392634 0.15457486 -0.035000175 0.1628167 0.1728528 -0.3252415 0.01432456 -0.10773775 -0.20938526 -0.29065168 0.28844702 -0.28759342 0.21049389 0.22551169 0.016731715 0.25723842 -0.040123846 -0.32303923 0.14467043 0.24024484 0.11895967 -0.27299097 0.35801756 0.020238511 0.10667853 0.06649011
2403 0.0076240925 0.20263928 0.10149096 -0.0920199 0.1696831 0.002981832 -0.06147099 -0.023180112 0.17852111 -0.075278826 0.2582014 0.21347368 0.064178556 0.1585492 0.016515827 0.037406806 -0.22221169 -0.23740397 0.035703003 -0.13529982 0.079337746 -0.043061763 -0.28106147 -0.23863207 0.09328618 -0.22669709 -0.01817177 -0.08572735 -0.045179933 0.23453051 -0.11435625 0.29897022 -0.24095257 0.07729674 0.07018536 0.13539533 0.1305793 -0.27137798 -0.34166262 0.0012768294 0.041719597 -0.023432923 0.48146868 0.07602573 0.06693393 -0.24445948 -0.4023482 -0.2470254 0.23838663 -0.35167357 0.13406639 -0.050630182 -0.37753138 0.13206439 -0.25054204 -0.023953315 -0.035315394 0.22898139 -0.04023645 -0.2273088 0.43740785 0.25656807 -0.06463959 0.06060179
505 -0.19198895 0.25476485 1.206844 -0.09351931 0.2318062 -0.49190947 0.24981263 -0.18650356 -0.16991562 -0.4627916 -0.10938098 -0.25868547 0.18896155 -0.38323948 0.012853752 0.115845785 0.191951 -0.56700045 0.15566464 0.00556776 -0.15074961 -0.088658474 -0.6101185 0.010399239 -0.20260489 0.40623087 0.04896091 -0.1354479 -0.3112127 -0.09222742 0.8133032 0.3229836 -0.6009433 -0.30271554 -0.15821695 0.35851997 -0.6716783 -0.02462329 -0.2893824 0.17303531 0.60356915 0.16246486 0.28339145 0.1542933 0.47540936 0.045041442 -0.5383118 -0.2076816 -0.9036364 -0.18776153 0.39126536 -0.4400266 0.65575546 0.21998186 0.45973188 0.17603448 0.29069933 0.54045504 0.013828535 0.013474679 -0.28580487 0.32429034 -0.2873726 0.11280227
983 -0.16059735 0.42430487 1.4175469 0.4037855 0.35572645 -0.6182173 0.3370248 -0.40550026 -0.22486115 -0.394714 0.03729152 0.0013720324 0.63108593 -0.1722644 -0.04379883 -0.075673826 0.1420369 -0.4505872 0.09106445 0.3285671 0.35713485 -0.032156806 -0.6525968 0.04194136 -0.58799773 0.39640272 -0.01960138 -0.42395312 -0.32118297 0.26755744 0.7919891 0.49680647 -0.97965 0.07945285 -0.46456364 0.28596696 -0.6565207 0.22791508 0.25982085 0.13658701 0.45369497 0.1903299 0.2304683 0.006830856 0.51449865 0.0046477644 -0.1259942 -0.3999837 -0.47769877 -0.35707664 0.5398143 -0.47653058 0.77273315 0.16686733 -0.020707693 0.2681761 0.15077373 0.6303645 0.23939247 -0.23580399 -0.4762755 0.101133436 -0.40626812 0.0024536261
692 0.024824938 0.21862504 0.31539735 -0.11083068 0.38306332 -0.32383075 0.15354387 0.20145848 0.105444424 0.10154284 0.03274981 -0.010452776 0.0634801 0.002724152 -0.11986416 0.047607485 0.16401632 0.16216576 0.029428747 0.14880918 -0.19260152 -0.1595931 0.02776697 0.15983798 -0.13987882 -0.21664715 -0.1088289 0.09548391 -0.17927904 -0.13496698 0.0014077602 -0.17155762 -0.26276508 0.10536801 0.20893781 -0.19152583 0.08630167 -0.034152705 -0.11979265 -0.061176185 -0.10904677 -0.302136 0.3167932 -0.21551074 -0.030577013 0.00852406 -0.20132428 -0.565546 -0.09584499 0.12496636 0.24208575 0.16499294 -0.092414975 0.37329417 -0.027804056 -0.40053505 0.045069404 -0.0036399611 -0.067111775 -0.34120423 0.19692187 -0.23741095 0.15353113 -0.06960373
3069 -0.059502862 0.4089788 0.4448563 -0.09354283 0.3168869 -0.17798853 0.058648467 0.06991942 -0.031653415 0.058380883 0.06035761 -0.06301003 0.05279311 0.03806566 -0.29807705 0.034078542 -0.1585176 -0.10718922 0.09259751 -0.022892196 -0.20277634 -0.0037392958 0.39053902 0.075832665 0.07350277 -0.28150207 2.9426956e-05 -0.09174869 0.17881697 0.033980075 0.10793622 0.13412027 -0.37706158 0.32069466 0.11672413 -0.23427129 0.19158338 0.27019167 -0.17147076 -0.17305489 0.2629806 -0.19002922 0.12083095 0.18216863 0.19891968 -0.00861143 2.5920817e-05 -0.31344926 0.20472246 -0.11850382 -0.141675 -0.057891633 -0.23314476 -0.048424233 -0.124905206 -0.3413781 0.045584936 -0.24946742 0.04767557 -0.094593614 -0.02990707 0.2995856 -0.040255886 -0.00226443
665 0.118671395 0.18507066 0.118257694 -0.32590178 -0.015978886 -0.17628278 -0.16952527 -0.04996037 -0.021143502 -0.040734347 -0.011501279 -0.032612257 0.009111885 0.18386178 0.13703781 -0.035930432 -0.21472944 -0.049346287 0.070280425 0.123719886 -0.1213288 -0.06263084 0.053431325 0.13248342 -0.07145175 -0.056263473 0.024984593 -0.06394904 -0.27871606 0.21554443 0.20497388 0.015482105 0.1407489 -0.28003037 0.23198988 -0.18643521 0.024673296 0.065016314 -0.11410664 -0.08340981 0.04367083 -0.12074585 0.13187711 -0.17411539 0.14387952 0.08254061 -0.28013942 -0.24041775 0.09123023 -0.04138066 -0.09115274 0.07096304 -0.026357962 -0.06375051 0.03127114 0.0070048193 0.15452105 0.17617868 0.06234046 -0.1751687 -0.028578766 0.07695346 -0.16333556 0.1381341
2216 0.173874 0.25806513 0.041944366 -0.023226505 -0.02420184 -0.03963007 0.12695827 0.39056733 0.05417148 -0.08200327 0.04400489 -0.12242463 0.19167227 0.42411214 -0.14880496 0.18617174 -0.43028134 -0.037268277 0.25748286 0.17001292 -0.1930161 -0.21064694 -0.06568708 -0.08773272 -0.13976586 -0.08653972 0.051393118 -0.06002573 -0.13674301 0.404269 -0.20110568 -0.13997833 0.12702495 0.15126792 -0.20049399 -0.0155353295 -0.18055905 0.17304286 -0.7009269 -0.06373974 -0.08518965 -0.3314212 0.4501621 0.02375029 0.2616008 -0.54587007 -0.35414386 -0.52328086 -0.06421861 -0.016790379 -0.09450067 -0.22419958 -0.40474916 0.056167763 -0.023685029 -0.34759146 -0.19496663 0.39735374 0.04614296 -0.13498859 0.11853673 0.43671215 -0.3310583 0.44621938
630 0.16840608 0.15835175 0.46992177 -0.4814161 0.36796492 -0.2570021 -0.3565026 -0.47190255 0.22948246 0.50158924 -0.013545289 -0.5067494 -0.2428259 0.11203339 0.09604377 0.41234306 -0.30075943 -0.36801392 -0.26113695 -0.18960443 -0.4982959 -0.19060846 0.12557355 -0.12623626 -0.21885483 -0.34948543 0.18019174 -0.111779965 -0.069577396 0.062489696 -0.2999259 0.15408365 -0.5024799 -0.118257575 0.72055894 0.12892517 0.021630397 0.06869183 0.30229932 0.3098294 -0.21117476 -0.6113741 -0.11346138 0.25448346 -0.06381433 0.18560027 -0.4800089 -0.22944492 0.1948952 -0.1946063 -0.043083042 0.1497563 -0.22971891 0.064069174 0.2770687 0.015575369 0.47317913 -0.24793486 -0.286624 -0.11361358 -0.15649974 -0.08770805 -0.024422634 0.42215097
1762 0.17784768 0.07618164 0.05647653 -0.25479808 -0.010898639 -0.28451565 -0.001568174 -0.53866714 -0.11503171 0.12170462 0.15328658 -0.15788198 0.101009 -0.06269903 0.059233364 0.03187313 -0.26579958 -0.41777322 0.09521214 0.18476483 -0.16373393 -0.1639947 0.25589824 -0.22235124 0.16295491 -0.19120786 -0.13647021 0.06225878 -0.015619218 0.18133225 -0.17739947 0.046096496 -0.25841781 -0.1155556 0.1411244 0.015838819 -0.061356094 0.12338191 -0.10401486 0.13778077 -0.056699682 -0.27135044 0.265661 0.021435304 -0.075857095 0.044412706 -0.031503715 -0.2578575 0.1548155 -0.041010335 0.1041437 0.05184444 0.16996685 -0.18992436 -0.07997866 -0.08502567 -0.031107426 -0.084457874 -0.26097462 -0.00045771396 0.3103591 -0.06117178 0.025657611 0.25807852
614 0.13913767 0.006942683 0.1730877 -0.20593466 0.08492628 -0.092263475 -0.08797142 0.062508225 -0.009287129 0.040781766 0.013761618 -0.0730885 -0.078799345 0.052013688 -0.022269307 -0.11513586 -0.22278796 -0.043774758 0.058942515 0.08444822 -0.11603283 -0.082018055 0.02811058 0.08100362 0.027961848 -0.113138914 -0.017116733 -0.009638348 -0.40863183 -0.015426685 0.22670412 0.19564094 0.039861724 -0.024046285 -0.060105793 0.011532507 0.07686402 0.03854442 -0.22762345 0.050824944 -0.067776315 -0.07193306 0.13636379 -0.014314788 -0.07439157 0.11466924 -0.14143246 -0.3934631 0.112428 -0.11047842 0.06924001 -0.019848185 0.09652035 0.07556685 0.07877127 0.069286145 0.04760168 0.11630376 -0.058205094 0.05913356 0.09264322 0.065309 -0.015667463 -0.17525291
1807 0.3814464 0.15061083 -0.37814236 -0.3382734 0.48852408 -0.6431265 0.14321648 -0.3594697 0.27603814 0.3243653 -0.59902966 -0.46258587 -0.14331755 -0.11840419 0.040847816 0.15578915 -0.21653481 -0.42711797 0.1311707 0.6255922 -0.1626459 -0.04236327 -0.32428718 -0.43170753 0.2092488 0.06838435 -0.029545313 0.18608002 -0.43871394 0.54756993 0.2560987 0.25677472 -0.19047745 -0.40281558 -0.35589197 0.06790651 0.17635386 0.39065456 -0.26151806 0.07020853 -0.046549845 -0.09856734 0.13254704 -0.71642625 0.20342584 -0.005554961 0.06886592 -0.0812488 -0.28929463 -0.5851998 -0.36044958 -0.0024190661 0.124728136 -0.058658946 -0.09753492 -0.34349445 -0.57583237 -0.10973715 -0.21835263 -0.28874615 0.2762801 0.106934845 -0.004994012 -0.3517421
657 -0.06522634 0.15562627 0.18504716 -0.1890682 0.06489821 -0.23063515 -0.066907756 0.09730282 0.025465336 0.17248681 0.084836274 -0.102436446 -0.060328312 -0.010170118 0.041342314 0.064413026 -0.0016063984 0.0015497922 -0.071248025 0.044151697 -0.22900093 -0.02096735 0.115947865 0.17515963 -0.0504264 -0.30818334 -0.04123441 -0.05821291 -0.19610392 -0.28953263 0.1434692 0.058689147 -0.01525092 -0.0012204506 0.13042286 -0.012430732 -0.15173611 0.03475035 0.041085877 -0.1337575 -0.020104455 -0.0679617 0.19534546 -0.11653904 0.003149108 0.04955092 -0.07395326 -0.33793384 0.15772548 -0.17738004 0.053423487 0.09316063 0.010240858 -0.03973815 -0.044299744 -0.15433873 -0.02257285 0.0016886677 0.009838679 -0.20933627 0.25339994 0.15827346 0.0050805435 0.09954106
3607 0.05300584 0.22530353 0.13466363 -0.19332796 0.3259009 -0.061302785 0.059543937 -0.16032468 -0.18329202 0.061834227 0.10642318 0.04385861 -0.2069632 0.5550246 -0.03857047 -0.15949251 0.02624853 -0.04243057 -0.14583825 0.5059421 -0.46767512 -0.09431356 -0.047351837 0.08867263 0.25138563 -0.2852408 0.0784211 0.0050632576 -0.108079866 -0.17299679 0.25761497 -0.04711985 -0.3095715 0.11338639 -0.05047269 0.20189475 0.009431288 -0.22957416 0.119633354 -0.27221712 0.26204273 0.08159647 0.5699301 -0.03722395 -0.1547864 0.01450833 0.22057444 -0.052215237 0.10666361 -0.2019131 -0.019032855 0.031528402 0.047682587 -0.22742248 0.21467654 0.06626626 -0.10053598 -0.19784859 -0.017344879 -0.4907194 -0.051016133 0.13110371 0.103261635 0.60093695
1888 -0.33195674 0.080761336 0.48134035 -0.34599295 0.20461181 -0.25151405 -0.1511721 -0.105400465 0.15197922 0.12367428 -0.09495618 -0.025801329 -0.044462953 -0.01737199 0.087444685 -0.08960017 -0.25597253 -0.085966185 0.3697465 -0.03574589 0.24095054 0.118810564 0.15057944 -0.1925214 -0.08861466 -0.49073574 -0.062007207 -0.20602627 -0.046260253 0.21341367 -0.1627882 0.19723567 0.35413924 -0.088719204 -0.016668523 -0.18074355 -0.38907036 -0.10401121 -0.2345745 -0.15069602 0.12337433 -0.2470657 0.27700782 0.0036914914 -0.10949162 -0.061223593 -0.08695085 -0.14052448 0.074935496 0.00064947625 -0.040597174 -0.037174515 -0.045620367 0.04667252 -0.10188264 -0.15338539 -0.38521352 -0.07967861 0.1501103 -0.32309544 -0.11578816 -0.17325754 -0.030302878 0.09785029
664 0.14548396 -0.05711736 0.1522879 -0.49846533 0.19614674 0.1341643 -0.27622914 0.2128622 -0.13423735 0.08411533 -0.15469709 0.04894161 -0.062166113 -0.07070116 0.07602515 -0.015010131 -0.22147782 -0.060953017 -0.018784927 0.22150317 -0.10116589 0.023298444 0.08031451 -0.024854604 0.088213235 0.03678974 -0.26169026 -0.026389617 -0.33765462 -0.16032243 0.26227763 -0.25676423 -0.0739394 0.044158038 0.38943857 -0.057267252 0.043943565 0.15541515 -0.09786345 -0.113503896 0.13841076 -0.06492157 0.043079756 -0.15735704 0.21958387 -0.097863965 -0.21623164 -0.3885189 0.04184968 0.04569984 0.16417946 0.007927545 0.22337711 -0.083489075 0.13287732 -0.1434014 -0.13182724 0.23029107 -0.026437748 0.26797983 -0.017078139 0.1862289 0.040689245 0.074371964
1901 -0.03978246 0.26744977 0.26527834 -0.20428693 0.21474154 -0.14214484 -0.27419153 0.013087307 -0.12048145 -0.12138591 -0.113448136 -0.037634864 0.042935714 0.15818939 0.07110297 -0.12742527 -0.033609193 -0.1442773 0.040267024 0.09438872 -0.00261213 0.10056546 0.08497258 0.025248278 -0.043006793 0.047116704 0.00091788353 -0.09069332 -0.3350093 -0.14947867 0.032186445 0.09915787 -0.14206524 0.14607261 0.048362043 0.19144778 0.09270174 0.13907114 -0.20220287 -0.034409862 0.001964062 -0.14710476 0.20859504 0.039059144 -0.030026494 0.033000853 0.031633053 -0.14026034 -0.011665498 -0.041406177 -0.02431755 -0.14975466 -0.044728488 0.009211179 0.23261574 -0.030842047 -0.18404233 0.19069992 0.23192619 0.012826828 0.0038179893 -0.037872594 0.052342433 0.10926316
617 -0.0069416384 0.08974181 0.21763143 -0.28068933 0.0026041481 -0.29276416 0.09549795 -0.07577576 -0.06344579 0.15740582 -0.013440396 -0.26237625 -0.15842453 -0.0070238416 0.11882258 -0.22847377 -0.12689702 -0.13130777 0.07081174 0.084006734 0.19528021 -0.11983485 0.20113216 -0.017427757 -0.03733089 -0.25332972 -0.066065095 0.08501081 -0.21658194 -0.26233009 0.23842467 -0.06634001 -0.0063292957 -0.17093015 0.07709025 -0.034595035 0.2569696 0.013103261 0.07221595 -0.06738006 -0.17560242 -0.15645853 0.24031416 0.06391201 -0.10202626 -3.6463593e-05 -0.013617624 -0.23314597 0.07458147 -0.2290272 0.047691103 0.07552275 -0.07390257 0.23227282 0.043645654 -0.16078456 0.09139188 0.009809473 -0.026000926 0.03532289 0.3590994 0.05926859 0.019280873 0.09643162
1148 -0.21733224 -0.29185224 0.066374585 -0.26396385 0.07752236 -0.29898885 -0.7080803 0.06229872 -0.23647209 0.11871349 0.11030932 -0.0026830449 0.34516072 -0.052181378 -0.08130532 0.13982452 -0.19725052 0.029604794 0.18048522 -0.024636144 -0.072048746 -0.2853164 0.0017651693 0.14785348 -0.027706817 0.016437959 -0.20767154 -0.046722364 -0.51687217 -0.03783697 0.17803532 0.29983592 -0.08128298 -0.13239604 0.14558645 0.18880507 0.21225384 0.08538779 0.08585666 0.18257909 -0.14781523 -0.33031183 0.3539455 -0.26983207 -0.2629022 0.09344297 0.3558861 -0.26000157 0.16315429 -0.12399902 0.18206027 0.12272257 -0.028983554 -0.03326154 -0.058260303 -0.12951407 -0.16936694 -0.59898126 0.17473072 0.053638306 0.026909452 0.033146948 -0.023871666 0.39767897
600 0.062289745 -0.018541727 0.19579607 -0.20162371 0.22561598 -0.20633465 0.07506459 -0.07028037 -0.0011357786 -0.18484764 -0.11904405 -0.06498502 -0.14150952 0.1748673 -0.031676594 -0.015819637 -0.23450153 -0.14706632 0.05217596 0.05674219 -0.13357356 -0.0055109505 -0.009095108 0.07167584 -0.0071876626 -0.026469592 -0.08278227 -0.027624268 -0.31860304 -0.03179184 0.3127356 0.11357943 0.007092511 -0.18562986 0.026133612 -0.11914916 -0.1764626 0.021611383 -0.094863206 -0.041053146 0.0069270963 -0.05489776 0.076337084 -0.08029174 -0.08662053 0.10428398 -0.03577982 -0.22495706 0.02298775 -0.23625985 0.0006841947 -0.080172606 0.21165945 0.014696293 0.083805144 0.033005517 0.07659057 0.2801377 0.013569183 0.1272535 0.16010834 0.094742835 -0.052762587 0.0025767048
2158 -0.13114765 0.12731461 0.2802792 -0.08353164 0.3819586 -0.29723054 -0.3562775 -0.19044958 0.06408227 0.16268896 0.21973257 0.045302983 0.14687462 0.032725144 0.05786117 -0.012391396 0.00067147135 -0.18677357 0.015686752 0.1470124 -0.06788436 -0.12378101 0.18417165 -0.12338118 0.033119824 -0.09120457 0.0004056032 0.31644112 -0.2685119 0.19666351 0.092018284 0.2310482 -0.07222481 -0.12988701 0.086590625 -0.12375614 0.19113177 -0.14949225 -0.10963702 0.038234163 -0.028180327 -0.18189256 0.19766766 0.18288825 0.15782802 0.041905753 0.027295368 -0.11674263 0.0059257173 0.09978464 0.08523247 0.3299583 0.26741403 0.10623269 0.037861753 0.008938894 -0.04687027 -0.02354329 0.06533258 -0.0038664609 0.26588547 -0.03579903 0.2973667 0.31922638
232 0.07718483 0.019351067 -0.0032319338 0.10945473 -0.03931154 -0.24105227 -0.3397867 -0.014552166 0.04967934 -0.42889407 -0.41226768 -0.5118112 0.13629702 0.30172455 -0.33533588 0.07567339 -0.41530052 0.25857466 -0.7376366 -0.23026389 0.38280177 -0.116332814 -0.29408604 0.29470596 -0.34225485 -0.3467342 0.14043781 0.060457826 0.0753857 -0.3868725 0.632375 -0.470329 -0.37912574 -0.37233377 0.7095274 -0.024554577 0.3566357 -0.17862234 -0.16631271 0.5173068 0.37126362 -0.3115097 0.5593694 0.028426405 0.06216953 0.13737488 -0.09418847 -0.7951939 0.05314288 -0.20913069 -0.3726215 0.07122654 0.08607814 -0.16358131 -0.22200873 -0.6064322 -0.5816288 0.047109738 0.5651112 -0.22831358 0.22189936 0.14572822 0.21333867 0.29837582
967 0.19038115 -0.1663918 0.14688802 0.5839684 0.23625955 -0.31825337 -0.690753 -0.09023544 -0.10594708 -0.22772963 -0.6114122 -0.5452415 0.2737536 0.335317 -0.12592712 -0.044880886 -0.64592737 -0.50852025 -0.65304023 0.17980796 0.053785294 0.0387383 -0.66033185 -0.26821715 -0.21623659 -0.25420678 0.46121556 0.085033506 -0.3930176 -0.32235044 0.35169077 -0.51139146 -0.1326428 -0.419556 1.0591933 0.41343617 -0.11170556 0.25031587 -0.010188014 0.9788751 0.19416785 -0.49214277 0.65078235 -0.71239966 0.32683498 0.12575863 -0.9547934 -0.56160814 0.5934497 0.08239101 -0.5516008 -0.054571655 0.041999847 -0.15278223 -1.2267278 -0.72658694 -0.76940674 0.051073767 -0.19336833 0.016826108 -0.5336717 0.27388865 0.21091019 -0.43404418
633 0.115322016 0.032602947 0.13351758 -0.022276295 0.13701567 -0.20310739 -0.10306136 -0.02494897 -0.09060263 0.0010153629 -0.17454454 -0.058685116 -0.12000776 -0.048900582 0.026352517 -0.14294827 -0.20507719 -0.21626437 -0.01893664 0.17032528 -0.10313137 0.053156015 -0.037281174 0.21905467 0.0734391 -0.20406051 -0.03177756 -0.18617927 -0.3477133 -0.0758939 0.14601834 0.124808535 -0.032739244 -0.02478695 0.053198073 -0.012224781 0.010230878 0.0054770275 -0.18438663 -0.03974099 0.0675325 0.014069707 -0.045585837 -0.09215964 -0.11283463 0.05993931 -0.053018067 -0.41344312 0.11161308 -0.061176702 -0.05124572 -0.05973506 -0.019628977 0.019604877 -0.12694329 0.17582291 -0.036371488 0.014695003 0.053368483 0.06918918 0.16828008 0.04221395 -0.12113413 -0.029870098
1261 0.037313554 0.1003861 0.21941411 -0.05026862 0.30083084 -0.2583174 -0.13082948 -0.38519302 0.18423384 0.02541229 -0.0572709 -0.022982888 -0.114336155 0.14008687 -0.112799786 -0.0014339507 0.043293595 -0.072740875 0.09824002 0.2543413 -0.016237034 -0.023788832 0.14901179 0.22035407 0.010902005 -0.2704106 -0.027158754 -0.079349495 0.044757027 -0.10154616 0.22742389 0.23081227 -0.16983129 0.07681253 -0.0040251333 0.08017982 -0.0125988275 -0.051304884 -0.2845599 -0.17782344 0.012692646 -0.2544098 0.120518334 0.09193337 -0.008068318 0.13047396 0.24691911 -0.13208194 0.18731436 -0.0075019994 0.07998628 -0.073289946 0.09732757 -0.14049588 0.35198092 -0.18652794 -0.19641532 0.06873996 0.08639626 -0.16050367 0.1945763 0.037883714 0.13812827 0.1298497
3071 -0.1688615 0.23003563 0.13444732 -0.3332317 0.11134417 -0.003401956 0.07282977 0.08075117 -0.1744168 0.14756572 -0.058178917 0.06679712 -0.028418398 0.08395113 -0.26641962 -0.20193227 -0.16090564 -0.24911521 -0.0975805 0.012765034 -0.24355601 -0.13181421 0.12600368 -0.15098731 0.14923339 -0.4091778 -0.12346639 -0.1559167 -0.15659432 -0.08233842 0.2983498 0.118537255 0.13451286 0.19771594 -0.03968183 -0.044932716 0.047147635 0.047192644 -0.13061783 -0.1342013 0.035663627 -0.05170396 0.19048405 0.060579903 -0.16968971 -0.010930131 0.063558 -0.16462164 0.21306157 -0.18788646 0.1480509 -0.019330885 -0.12789546 -0.34910926 0.07524199 0.038865685 -0.09995324 -0.023749078 0.18688475 0.06993664 0.01854873 0.24888696 0.22483929 0.05682526
635 0.160574 0.022973988 0.13753258 -0.1339081 0.12140974 -0.086345434 -0.05288431 0.109327935 -0.104125164 -0.025786927 0.05968024 -0.078812495 -0.04306758 0.1573976 -0.05232061 -0.002606541 -0.24064188 -0.0052376417 0.14838648 0.19967656 -0.1182751 -0.12488439 0.051405236 -0.036262766 -0.05556274 -0.2732952 -0.08409072 -0.1446884 -0.35580912 0.018272836 0.115247406 0.1532598 -0.08360748 0.09708475 0.05647413 -0.07553018 -0.121851966 0.06491519 -0.14908873 -0.07292313 -0.12932649 0.025222188 0.12505499 0.07361098 -0.13040419 0.06594585 -0.08156299 -0.3713143 0.026798647 0.006450122 0.032231 0.020876748 0.04380084 0.0076465197 0.05669011 0.034634825 -0.03870604 0.006204803 0.07117124 0.020935046 0.19263305 0.108348146 -0.11822438 -0.026697213
1339 0.21765496 0.34393826 0.06842701 -0.020428888 0.1981618 -0.12849233 -0.24025987 -0.2759016 -0.18864197 -0.68323743 -0.06852445 -0.092533596 0.39638838 0.18125229 0.032252245 0.4423708 -0.077643484 -0.046968147 0.033775646 0.042384014 0.11157938 0.005082903 -0.03441644 0.13866055 -0.11513324 -0.37086 -0.6077254 -0.2931834 0.002730548 0.036858708 0.07009421 0.2827419 0.2065651 0.041965596 0.09795177 -0.049479898 0.06748066 0.12768394 -0.28999573 -0.20499721 0.25895268 -0.16169493 0.17481935 0.109498 -0.18567544 -0.12266526 0.11677565 -0.30992046 -0.045370102 -0.28934112 -0.101586826 0.18425633 -0.040652238 -0.058441054 0.14767803 -0.13111034 -0.124066 -0.033354674 -0.18255973 0.27522948 0.056209333 -0.11625691 0.05971369 -0.22760807
593 0.15985365 0.049388416 0.15123245 -0.15211022 0.14543596 -0.1519433 -0.028657474 -0.027347 -0.084802955 0.0049923905 -0.026690315 -0.043372717 -0.1814725 0.09970241 -0.029108 -0.019172313 -0.038844496 -0.06397753 0.068142146 0.105865486 -0.14696106 0.016364856 0.055391263 0.119602665 0.001376026 -0.14754352 -0.054132454 -0.1748004 -0.4067361 -0.018791093 0.2343904 0.07602172 -0.048994828 0.045725573 0.0593192 -0.062211514 -0.046324715 -0.053775433 -0.19699821 -0.054856487 0.045479134 0.0491378 0.13988394 0.040423196 -0.114767425 -0.09824066 -0.20213272 -0.34508547 0.09619338 -0.15718749 0.032513432 0.07793676 -0.0871766 -0.1153259 -0.14590321 0.13068691 -0.11362609 0.0054228217 -0.00738252 -0.035750467 0.21633379 0.05497875 -0.08880923 -0.11956449
2095 -0.05479485 0.3682823 -0.053920496 -0.26669094 -0.15838955 -0.277476 -0.19509944 0.013224059 -0.42420086 -0.07351748 -0.24489336 -0.21161063 -0.033627518 -0.15194562 0.0633563 -0.35101473 -0.17340422 0.0009166565 0.09989277 -0.20370924 -0.16574147 0.0949901 0.05714894 0.20575537 0.16208702 -0.53446615 0.21831878 -0.29386634 -0.22533385 -0.11081444 0.037445188 -0.01918081 0.023153247 -0.22768816 0.08696119 -0.020335121 0.06990481 -0.23356602 0.018058723 -0.06809692 -0.1616788 -0.1720126 0.14402428 0.07677055 -0.021434141 -0.023614831 0.011150759 -0.25152934 -0.04876844 -0.16689146 -0.25814307 0.064179376 0.20094419 -0.10612765 -0.033338197 0.15019344 -0.07515175 -0.19949105 0.06859339 -0.05544319 0.38539985 -0.17772324 0.029283315 -0.07936983
2947 0.089246765 0.24736097 0.05311665 -0.19369073 0.08002357 -0.1838534 -0.110442646 0.1825629 -0.09471725 -0.11346236 -0.19028659 -0.12168616 -0.009955484 0.1755246 0.3688496 0.18745556 -0.22518234 -0.19244026 0.008868927 0.32263413 -0.10092186 -0.34173974 0.05481695 0.20089412 0.13026577 -0.20638329 -0.28884605 -0.17375596 0.14336711 -0.6014604 -0.08170226 0.27522513 -0.2521754 -0.3359254 -0.13216773 -0.040810645 -0.2221958 -0.10987182 -0.063349575 0.10686889 0.28361714 -0.35314682 0.048524026 -0.21104048 -0.21963586 -0.010360941 -0.433932 0.09637046 0.2943149 -0.017964937 -0.06801933 0.014414435 0.37973848 -0.058210745 -0.05256475 0.018131504 -0.096794 -0.122922875 0.02824563 0.015479314 0.2666664 0.16650972 -0.058972362 0.07313228
743 0.07127536 0.15640001 0.2528489 -0.14727171 0.3810168 0.5386101 0.1615108 -0.15577003 0.38341713 0.1539057 0.1797052 0.46371895 0.10565514 0.14390923 -0.018996265 -0.37014562 -0.21951503 0.1226747 -0.14959686 0.6333333 -0.18375918 0.0044291136 0.47407007 -0.10609674 0.49019504 -0.5006431 -0.4997983 -0.4438485 -0.26392674 -0.12562339 0.41706687 -0.5412943 -0.46497208 -0.009614374 0.061634336 0.36471227 0.12149545 -0.18940298 0.06598705 -0.1473538 0.23811743 -0.025514655 0.3039509 -0.033142284 -0.23501569 0.22495537 -0.31321433 -0.4641258 -0.12333938 -0.0058279447 0.24944617 0.18999785 -0.0014108235 0.37845805 0.35068452 -0.09468178 -0.29347336 -0.23865923 -0.21151404 0.08138935 -0.14979628 0.40449917 -0.020399533 0.28405342
3365 0.16258006 0.16744381 0.042101346 -0.08744045 0.22869545 0.15475793 -0.12488144 0.0052528037 0.032681756 -0.13102843 0.088304125 0.13306591 -0.15513283 -0.05796092 -0.14270973 -0.22323106 -0.22978373 -0.17225735 0.17846003 0.13248397 -0.14548427 -0.013314246 0.2396867 -0.09450906 0.13342574 -0.33609718 -0.08661842 -0.26229984 -0.1507046 0.22143659 0.15874721 0.17745577 -0.17559572 -0.09082142 -0.056006413 0.23863742 0.10196687 0.005417097 -0.22805414 -0.057403214 0.081630036 -0.062985905 0.12710083 0.058299217 -0.06591967 -0.08168078 -0.16199492 -0.52652603 0.031123491 0.20814617 0.17650779 -0.020350644 0.035539314 -0.052137855 0.19463149 0.0279424 -0.23188855 0.10989545 -0.104683265 0.03555131 -0.054935325 0.16524687 0.07659919 -0.03413286
618 -0.083020724 0.29816774 0.16985428 -0.029222257 0.17443179 -0.21963437 -0.12834851 -0.05795554 -0.13126172 0.18744187 -0.091289066 -0.18844792 -0.22205758 -0.017321033 0.0982959 0.100464605 -0.14641114 -0.35144094 0.07056868 0.23482302 0.13594483 -0.08169948 -0.078874454 -0.07248323 0.013216371 -0.12047363 -0.12190091 -0.1642051 -0.18265489 -0.21026626 0.38819528 -0.045520447 0.07114452 -0.10513636 0.043261703 -0.13783732 -0.10225306 0.000250331 -0.18772435 -0.034416404 -0.19399135 -0.13338444 0.2193584 -0.07443843 0.07982533 0.02624584 0.102583684 -0.20300934 -0.09562511 -0.19669496 0.014055442 0.27300638 -0.11660281 -0.112814575 0.08901841 -0.17981598 -0.089544736 0.056474343 -0.14058039 -0.25080502 0.25356552 -0.10562105 -0.11342012 0.16805753
1799 0.029771836 0.20478803 0.10943241 -0.14117658 0.16950014 -0.074094124 -0.48016793 -0.33730426 0.09904386 -0.056028664 0.07140868 -0.4001638 -0.06170166 0.0063558863 -0.016623395 -0.057818696 -0.0123666115 -0.20100737 0.23263623 -0.08076225 -0.01605182 0.11169315 0.2149619 -0.062144075 0.060330354 -0.323258 -0.3845446 -0.118075475 -0.1148656 -0.27928925 0.13719253 0.20136523 -0.1092701 0.12977536 0.14089668 -0.351668 -0.03557994 0.18967263 -0.16946328 -0.135707 -0.14602607 -0.010534173 0.22437198 0.12237538 0.2456017 0.03981066 -0.087513655 -0.11096434 0.043693636 -0.12562041 0.08181711 0.0775826 -0.012735946 -0.35692045 0.10986392 -0.062820375 -0.13639186 -0.20352858 -0.25893247 -0.2837095 0.19077867 -0.05883518 -0.081590295 0.18281803
684 -0.36049235 0.18404914 0.59696966 -0.023008225 -0.05732085 0.027741008 -0.1564035 0.18106848 -0.2593509 0.04397004 -0.07829599 0.18873288 0.19843572 0.20450072 -0.2267339 0.007822664 -0.46967557 0.011768523 -0.33777627 0.15835252 0.045831654 0.207401 -0.153303 0.21944278 0.33418173 0.2596117 -0.30446997 -0.4064744 -0.21663378 -0.041403495 0.14729454 0.027566997 -0.21857521 -0.14873263 -0.15912952 -0.08900919 0.056622665 0.16340378 -0.07186197 -0.40458578 -0.14440963 -0.019626962 0.2152907 0.1700796 -0.11523727 0.087870024 -0.119910374 -0.4132682 0.212987 0.24076065 -0.09003236 0.40388006 -0.19487847 -0.0647064 -0.0071064834 -0.13242386 0.102096334 0.015561191 0.009195365 0.18993819 0.3293057 0.25622448 0.11132041 0.020340014
3194 -0.105588295 0.3191151 0.18868318 -0.07159039 0.043375734 -0.3398326 -0.15973759 -0.033865526 0.0011354216 0.03667743 -0.11929176 -0.29849705 0.12537684 0.23278807 -0.00063021516 0.034273766 0.0044732327 -0.06888943 0.14142303 0.12286485 -0.07121172 0.1389859 0.25664908 0.30004162 -0.118926525 -0.17485778 0.10357163 -0.1023565 0.008794821 -0.17522314 0.19272915 0.13106886 -0.02343496 -0.061740927 -0.035815515 0.1352983 0.0124830585 -0.10542198 -0.17290379 -0.33070484 -0.09739343 -0.20734458 0.2575746 0.13984393 0.20093766 -0.032339256 -0.04229004 -0.18823029 -0.08174792 0.10057396 0.15147495 0.028568452 -0.016438155 -0.050455533 -0.19742323 -0.14913557 -0.12944977 0.14302051 0.162244 -0.19626527 0.25318047 -0.10512555 0.0070485245 0.00032762354
621 0.2337778 0.071041524 0.16287914 0.096617274 -0.03399824 -0.25136828 0.10441712 0.059864476 -0.16924006 -0.056607746 0.0638925 -0.0582424 -0.23027828 -0.018504363 -0.14365335 -0.04331365 -0.09997281 -0.3162601 -0.04848776 0.22576581 -0.054244112 -0.4291623 0.109715514 0.00024759764 0.13647406 -0.22878252 -0.3530998 -0.0046270667 -0.2319691 -0.10809663 0.23290794 0.2526587 0.13579196 0.11351765 0.21686271 -0.027037445 -0.09722598 0.017776946 -0.21545084 0.12549359 0.16690977 -0.047402997 0.056062672 -0.11670483 0.01963038 0.069586605 -0.036344405 -0.35692456 0.2642965 0.06326963 -0.08468844 0.10905074 0.012384411 -0.035381667 0.073370874 0.1268593 -0.029693032 0.1353673 -0.06255249 0.07821944 0.13822252 0.12500618 0.140087 -0.17336321
3211 0.0104365535 0.28472385 -0.10242778 -0.019277925 0.1310675 -0.16510685 0.011522785 0.03702409 -0.11041241 -0.42111027 0.13482332 0.0019109473 0.1314355 0.0017263028 -0.0014228134 0.050171994 -0.32559058 -0.16590202 0.27814543 0.23039351 0.09520209 -0.100719035 0.32810947 0.049552247 0.26378074 -0.15367028 -0.19922116 -0.33610228 -0.1738252 0.08560861 0.22187771 0.30532297 -0.06613316 0.05533474 0.0033018375 -0.117097706 0.058882046 0.060503718 -0.33958235 0.012983473 0.15235718 0.045342684 0.028562548 0.14221244 -0.28232256 -0.015378342 0.16591163 -0.46525413 0.15970343 -0.15624681 0.049637616 0.071583316 -0.115597956 -0.06695958 -0.0006802538 0.3274055 -0.17557508 -0.05302471 0.0011964279 0.23561253 0.2912701 0.03760327 0.21651451 -0.27572197
1376 -0.055490285 0.36345482 0.08978637 0.093517624 0.28596106 -0.2184388 0.07588208 0.036454845 0.10545202 0.039530694 0.16765013 -0.15766518 0.1688644 0.18392688 0.118010014 -0.053061504 -0.35605833 0.05099062 0.0028824778 -0.2271832 -0.21898451 -0.11083572 0.051098056 0.06802317 0.1550711 0.055765737 -0.38608328 -0.16199097 -0.19211125 0.012456629 0.19988906 0.30093288 -0.11856539 -0.19771157 0.027377248 0.15465707 0.12353782 -0.16991985 -0.13499752 -0.022095483 -0.100864485 -0.18218061 0.15894693 0.14179225 0.27555093 -0.010777369 -0.17724594 -0.30439177 -0.121101394 -0.15015447 -0.039111637 0.19630001 0.43771833 0.065738246 -0.09037534 0.28811607 -0.064305715 0.3401742 0.093184106 0.10592027 -0.17293194 -0.2909049 0.12854864 -0.052237794
14 0.14934698 0.42501107 0.1250298 0.4474846 0.27000925 -0.4097953 0.29481316 0.19528472 -0.2414504 -0.52489465 -0.47133106 -0.46134168 -0.4557933 -0.302976 0.6189616 -0.45035735 0.48093212 0.5598488 0.010032523 0.1245698 0.06902639 -0.652282 -0.15799797 -0.25926742 0.8464479 -0.04291401 -0.1682298 0.180556 0.0458622 -0.1714657 0.83308387 0.23286846 0.30955276 -0.018488074 0.63732404 0.20745267 -0.6235068 -0.19533324 0.020906838 0.4348276 -0.16450354 0.01774277 0.21711256 -0.34910405 0.7020365 -0.3854456 0.21262328 -0.5363003 0.49663326 -0.030972779 0.80819935 0.22928828 0.32409766 -0.21914443 0.33265385 -0.19237968 -0.97451425 0.040603038 -0.61857307 0.34767535 0.12643339 0.14756785 -0.24392441 0.663063
881 0.42368513 0.60255855 0.49560905 0.24796633 0.507453 -0.091624334 -0.17904305 -0.10889668 -0.10067006 -0.10416781 -0.10227005 -0.23134907 -0.023197522 -0.12336048 0.7047667 -0.27894944 0.82200426 0.11884865 0.039984 0.06215458 0.10028518 -0.41903594 -0.13346578 -0.28954086 0.47619483 0.21666248 0.08392454 0.43102422 -0.40123877 0.116797365 0.40269175 0.26130462 -0.03241956 0.26710185 0.08647847 -0.54317385 -0.2425146 -0.21077779 0.35035634 0.41766673 -0.3859894 -0.23316413 0.21564512 -0.54620534 0.014000288 0.09877973 -0.2414275 -0.3738503 0.5998962 0.4637944 0.20248376 0.44305885 0.21007979 -0.107745856 0.2371766 -0.091185465 -0.5775873 -0.08185306 -0.36319864 0.143239 0.23784159 -0.06177785 0.22149819 0.37568724
2978 0.13563196 0.17706206 -0.1392609 -0.1833418 0.08797901 -0.14080328 -0.23042408 -0.16912611 0.0279602 -0.25783595 -0.21044132 -0.13188049 -0.1905957 0.084977396 -0.042182304 -0.103804775 -0.38807565 -0.32766792 0.22664662 -0.08940197 -0.0038627202 0.20507194 0.11269452 0.3947912 0.10468249 -0.23809616 -0.09594192 -0.45519125 -0.23036386 0.022322232 0.035590433 0.17542274 -0.23387578 0.09720817 0.11606333 -0.2622208 -0.13057606 0.04786961 -0.24449877 -0.21876416 0.22003458 -0.057786196 -0.15896723 0.15334564 -0.067546815 0.08577285 0.13372652 -0.3517607 0.099301316 -0.19662446 0.16661362 -0.0050587794 0.07541008 -0.22660181 -0.06968768 0.159726 -0.08100896 -0.24446185 0.19726875 0.118384406 0.30621776 0.04473072 -0.07368366 -0.20113702
319 -0.9491621 -0.32344195 1.6226562 -0.5126168 0.48338258 -0.9636165 0.24992895 -0.46476203 0.0637611 -0.068352625 -0.9130229 0.95104396 -1.0205079 -0.45877317 0.0060682865 -0.44310758 -0.3794382 0.08022493 1.5389382 -1.205974 0.61636186 0.50339305 -0.15080068 -0.5254394 -0.58156717 -1.8566601 -0.050342992 -0.5291156 0.22775489 -0.073097885 -1.0841284 -0.17649403 0.7251017 -0.0038420248 0.09850214 -0.6063562 -1.4842072 -0.41573238 -1.0539668 1.0958863 0.920531 -0.49235582 0.6037628 -0.48680243 -0.91321933 1.6204152 -0.38827595 -0.08009932 1.037822 -0.13640666 -0.67680025 -0.13162538 0.12828515 0.113647215 -0.44667295 -0.3423997 -0.24039963 -0.35578796 -0.12517601 -0.37725797 -0.39165553 -0.38592306 -0.69922733 0.68763596
695 -0.44022685 -0.021677965 0.5204674 -0.3382059 0.34806785 -0.10887442 0.08793077 -0.112808526 -0.13932322 -0.20316264 -0.073891215 -0.040899098 -0.34808496 -0.3016282 -0.05602692 -0.19780757 -0.16785099 0.01424214 0.22372353 -0.0751904 -0.090330444 -0.117655516 -0.057413448 -0.46375194 0.05701857 -0.29489142 -0.28694165 0.17962131 0.07214738 -0.029806294 0.05256455 -0.07043621 -0.15237002 -0.05967197 0.32537887 -0.09111833 -0.09019556 0.026365548 -0.35322207 0.13726956 -0.13100302 0.1419163 0.1662305 0.02232558 -0.11118224 0.39046058 -0.33411685 -0.3065019 0.29635495 0.08041571 -0.1687623 0.2707331 -0.11539529 0.0074414583 -0.0113826785 -0.29448953 0.0012868505 0.30623168 0.40150777 -0.17134899 -0.12373259 0.14234826 -0.08421307 -0.1126408
693 0.07909193 0.0050426624 0.3927238 0.023645025 0.13843812 -0.11380612 -0.028543735 -0.18132809 0.038141474 -0.15499075 -0.24998234 -0.18046534 0.0439269 0.21878791 -0.021055862 -0.02787466 -0.27772245 0.14936522 -0.06593631 0.24365643 0.18060869 -0.031146806 0.01949771 -0.27881348 -0.041924316 -0.1904301 -0.21648559 -0.1040444 -0.3535118 -0.046376806 0.09439397 0.065322824 0.106949925 0.18739925 0.24735862 -0.10320651 -0.19947867 0.16772358 -0.21743551 -0.1266396 -0.10353754 -0.057070885 -0.010043349 -0.17238747 -0.1436126 -0.28059798 -0.06981726 -0.31958067 0.0716423 0.31285372 -0.28879187 0.13076457 0.17789292 0.26003048 0.002920435 0.06259215 -0.005607274 0.015410129 0.33529362 -0.16519712 0.02566814 0.035565216 -0.053857755 0.08501399
3185 -0.050300926 0.21969743 0.20921558 -0.20030643 0.1630487 -0.22710298 -0.07765373 -0.12016782 -0.037503827 -0.0750642 -0.18077491 -0.1858805 -0.024503345 -0.1870499 -0.07052257 -0.031792976 -0.22776745 -0.08173952 -0.09835998 0.07077588 -0.28230983 0.0482005 0.100034654 -0.23563147 0.15645066 -0.08971946 0.005632037 -0.20685157 -0.19144869 -0.040754225 -0.12476313 0.21118654 -0.0014427478 -0.02145561 0.14196175 -0.06375032 0.026666058 -0.12017561 -0.2961191 0.010948526 0.02654759 -0.0659877 0.20206366 -0.15336943 0.07423006 0.02446234 0.025706042 -0.09278307 0.081575185 -0.0739843 -0.025858548 0.035426363 -0.00059476984 0.13450062 -0.12416808 -0.15313113 -0.1264508 0.08805191 0.16060081 0.0091632465 0.07002198 -0.072566 0.22938558 -0.018747862
670 0.23860411 0.11773628 0.40103793 0.33033824 0.0038642604 -0.20962197 0.065720886 -0.10236206 0.2113846 -0.13871041 0.050011966 -0.1355839 0.52014595 0.23199993 -0.02520638 -0.22016273 -0.035299283 -0.20730074 0.082516424 -0.0160855 0.11841902 0.13638999 -0.27832463 -0.2070754 -0.066389844 0.08951205 -0.49222475 -0.01610252 -0.13546024 -0.051248394 0.30806175 0.36484894 0.25402835 -0.1300818 0.35373238 0.118366614 0.26408723 -0.2765291 0.0788798 0.16751064 0.07557406 -0.019850167 0.100488275 -0.34000152 0.11297577 -0.051997192 -0.15220778 -0.43191367 0.04572335 -0.30359417 0.0264792 0.19400911 -0.20647392 0.014199322 -0.08744896 -0.107452266 0.10233067 0.18371627 0.2685584 0.1843719 0.14983028 0.014826486 -0.065891825 0.01613715
3218 0.042905096 0.27728534 0.21060735 0.051418073 0.038835358 -0.2202208 0.02612268 -0.20566274 -0.03515956 -0.0059377532 0.008186583 0.21486533 0.24302042 0.092801906 -0.08768419 -0.09471788 -0.013940106 -0.06992665 -0.01690485 0.07503796 -0.13127589 0.1253641 -0.036111888 -0.34076068 0.15634085 -0.22190604 -0.052207813 -0.21842396 -0.019676063 -0.026903363 0.05937168 0.01857806 -0.17856756 -0.17482491 0.19872668 -0.08400437 0.23165174 -0.1173499 -0.003462641 0.038302425 0.21938246 -0.09546777 0.35754907 -0.11250537 0.13170074 -0.101094715 -0.020518357 -0.2091003 0.15144369 -0.024674935 -0.15921655 0.082023405 -0.1117454 -0.1520227 -0.115752414 -0.07083268 -0.07428536 0.14521779 0.17180598 0.22728184 0.18644594 0.065827854 0.01250968 0.17479222
592 0.055336244 0.22491488 0.1295476 -0.18534581 0.04776186 -0.25138214 -0.18261553 -0.1931797 0.08148696 0.17808607 -0.0774188 -0.09671975 -0.12807666 -0.039334252 0.08407113 0.06053633 -0.23479812 -0.09416529 0.037607577 0.15584897 0.06442134 -0.038583275 -0.122824356 0.15220223 -0.11462434 -0.27855602 -0.15243682 -0.08332611 -0.22232588 -0.12685242 0.3118507 -0.015342184 -0.057450943 -0.0019588252 -0.0933953 -0.04003624 -0.0030985808 -0.10380273 -0.11336177 -0.27483743 -0.05384956 -0.027683351 0.217027 -0.11664394 -0.06129614 0.14021777 -0.031273216 -0.1368136 0.11086489 -0.1258489 -0.02582389 0.013790046 -0.053867523 -0.053066153 -0.079893626 -0.014672564 0.018339364 0.008127317 0.010027492 0.04614482 0.15948544 0.073549986 -0.04809109 0.024887359
1836 0.13250403 0.25060818 -0.04855901 -0.15744193 0.052927397 -0.2644556 -0.13170998 0.22805065 -0.238521 0.10242557 -0.12836316 0.1494444 -0.010559512 0.26110172 0.18956888 0.23294371 -0.017061977 -0.3008992 0.23197484 -0.022402676 0.037155278 0.33038983 0.31830224 -0.26929346 -0.108180754 -0.40162224 -0.119851165 -0.0440631 -0.15463959 -0.3050712 0.020051371 0.26283032 -0.44483194 -0.21206377 -0.029365636 0.011266625 0.061596587 0.1121803 0.05803879 -0.000910348 -0.016418489 -0.18447687 0.18239813 0.016391153 0.032779302 -0.13409242 0.0033852607 -0.1760378 0.3030198 -0.11663109 0.171172 0.0659084 0.05337106 0.05604345 0.06410662 -0.29592735 -0.18544362 0.010423049 -0.097532645 0.08863646 0.13147178 -0.11579099 -0.18091753 -0.0022299283
709 -0.24827775 0.90032476 0.42604557 -0.15127766 -0.050241146 -0.3866872 -0.006457333 0.030729212 0.2822004 -0.014377489 -0.22527812 -0.22556376 -0.44753915 0.5569224 0.33897364 -0.20575924 -0.07290881 -0.30296752 -0.079356655 0.1090119 0.16248184 0.35122606 -0.011720892 -0.35875008 0.24567546 0.109136365 0.08021872 -0.10668644 -0.2516129 -0.18048987 0.12468385 -0.21204457 -0.014001624 -0.12654208 -0.11997509 -0.48622975 -0.057683207 0.09669291 0.13973747 0.26332533 0.2736614 0.18922049 -0.16275346 0.045661848 -0.042532824 -0.08168758 -0.13306955 -0.3378717 -0.039022706 0.0019644224 -0.075700656 0.26066688 0.053648204 -0.37202123 0.06111162 -0.30630568 -0.2798325 -0.05482557 -0.01435293 0.5058333 0.1346249 0.5164137 -0.021189865 0.2732994
1641 -0.32681665 0.38313672 0.28636363 -0.2792367 0.226594 -0.32755953 0.0026829778 -0.051805016 -0.2950861 0.72453284 -0.61416465 -0.43767583 0.0037529897 0.6594132 0.16006531 -0.17038332 -0.02165093 -0.34047613 0.006607904 0.2138888 0.018082047 -0.08010137 0.11687279 -0.4287555 -0.53753453 -0.050002612 -0.13455878 -0.3045449 -0.0016050402 0.16102098 0.12090594 0.35584736 -0.33536956 -0.24954355 0.29464316 -0.1668295 0.30452687 -0.292683 -0.26780435 -0.24126123 0.10267737 0.3201681 -0.047701072 0.19828856 -0.034706023 0.15196377 0.12973738 -0.3426226 0.1653447 -0.021555487 -0.35860586 0.3234605 0.22487853 0.026224513 0.12898248 -0.4191407 -0.7675644 0.054087665 -0.3296008 -0.087190025 0.10622613 0.64389694 -0.5484423 -0.018862406
712 0.51059556 0.32484245 0.5047165 0.09911146 0.01623682 -0.15407546 -0.12586771 0.35864425 -0.06338265 0.1593495 -0.45376256 0.03747147 -0.2542325 0.050175115 -0.068438426 -0.36734015 -0.11593428 0.20177166 -0.07436015 -0.08146169 -0.00835731 -0.085419536 0.25980416 0.034304697 -0.21969996 0.14492895 -0.45473614 0.05952495 -0.24976979 -0.25633502 0.036571283 -0.1541465 0.07551279 -0.22841337 -0.006502016 0.14422496 0.13331439 0.16753425 0.031176344 -0.004819926 0.17019646 -0.08667248 0.42902848 -0.16494697 0.12386934 -0.012388837 -0.25140864 -0.13491397 0.29372817 -0.48634097 -0.1746708 0.21174608 -0.15460831 0.05077593 -0.19722623 -0.3255513 -0.049015872 0.029882437 0.08858632 0.07417369 0.077662215 -0.16581294 0.008815193 0.056295477
3228 0.33269477 0.2619385 0.09200987 -0.48337922 0.30367634 -0.19599685 -0.31998536 0.07083401 -0.23893563 0.013172747 -0.6640619 -0.14420603 -0.22286382 -0.36570388 -0.1253558 0.3530414 0.05418597 0.113200836 0.2942194 0.028280031 0.08010709 -0.09093605 0.21927138 -0.33773482 -0.0037692878 -0.31093544 -0.14743942 -0.02537688 0.050896302 -0.071946405 0.39896783 -0.302822 -0.37352353 -0.06639288 0.08411047 0.059063025 0.35755706 0.19675322 0.053522162 0.13053711 0.09251181 -0.10985777 0.25666896 -0.03975422 0.15332839 -0.029200265 -0.14943203 -0.20159881 0.21218477 -0.14686948 0.0047614747 -0.0839941 0.085394755 -0.35356268 -0.37568763 -0.07981325 -0.05692608 -0.011952874 0.24614666 0.12351868 -0.15874803 0.1314702 -0.087010905 -0.074141994
1526 -0.08982202 0.057890255 0.22829573 -0.17952809 0.07641576 -0.08390155 -0.35524836 -0.014341409 0.13894 -0.18638204 -0.000736668 -0.07648358 0.014588304 0.05139355 0.053706177 -0.4122155 0.36816803 0.019701704 -0.14303239 0.105097294 -0.055308033 -0.09923776 0.16096911 0.1466478 -0.14182267 -0.3193658 -0.3173379 -0.14804663 0.057074144 -0.17393874 0.05516793 -0.043450497 0.11290413 -0.32435673 -0.040370073 0.21247613 0.05927443 0.124513604 -0.37623563 -0.3700149 -0.30235013 0.20308752 0.39627194 0.014728385 0.06951533 0.12897216 -0.32180113 -0.069479056 0.25787324 -0.20937039 -0.008247572 -0.044377487 -0.077365756 -0.031017125 -0.34105447 0.19431648 -0.17302562 -0.076362066 0.113344304 -0.15303855 0.6210573 0.21460955 0.24804422 0.26734215
3003 0.19028573 0.40082267 -0.024749266 -0.19064434 -0.27190995 0.09386918 -0.05933875 -0.35566828 0.0031061557 -0.17424431 -0.09995696 0.1935666 -0.012984131 0.23408455 0.28655145 -0.14221615 -0.030954102 -0.01398642 0.26715922 0.009457948 -0.2792504 0.030155221 -0.07808339 0.2495808 -0.012570635 -0.1482577 0.06938793 -0.016065069 -0.3832662 0.21756528 0.38691932 0.20639582 0.056292627 -0.038707387 0.34472454 -0.30579248 0.1870907 -0.122430675 -0.1547981 0.10605031 0.13415512 -0.14299951 0.49714115 -0.24848776 0.09333994 0.2675782 -0.21230122 -0.06179529 0.19448765 -0.15182033 -0.014565345 -0.1803513 -0.021518813 -0.21861127 -0.19460738 -0.0706614 -0.12403335 0.052857462 0.3260684 -0.19998477 -0.30364162 0.096255094 -0.13139929 0.17653881
1062 -0.04063386 0.35326716 0.034027223 -0.051241 -0.23988876 -0.062591866 -0.049325798 -0.26370257 -0.052735165 -0.16624187 -0.04564525 -0.66813844 0.021237815 0.04228991 0.046967674 0.16197462 -0.119037926 -0.35927415 0.13890764 0.43089283 0.09546483 -0.12023081 0.28806302 -0.4185187 -0.054608263 -0.31217724 0.18124004 -0.09737449 -0.022815647 -0.10301822 0.6173975 -0.29242563 0.23707986 -0.10845224 -0.13841963 -0.114017755 0.35145867 -0.56828755 0.20829546 -0.20771818 0.12053165 -0.0003652962 0.5642998 -0.0035250855 0.33337 0.2219017 0.0067954636 -0.22088285 0.013476985 -0.16490477 -0.084246 0.034614503 0.11168504 0.41762677 0.057047654 -0.15035461 -0.19800748 0.08541015 0.27899328 0.02424507 0.55187756 -0.27153516 0.039075222 0.2828176
1851 0.13395356 0.14528202 -0.08108281 0.24893479 0.2877715 -0.11360864 -0.031568713 -0.22885579 0.008902231 0.17960496 -0.016081467 0.03647179 -0.11771468 0.3316 0.11917689 0.2811574 -0.48675922 -0.33677277 -0.05929748 -0.39375407 -0.015451202 0.16864061 -0.24561152 0.16110766 -0.36629725 -0.43666887 -0.030244688 -0.31666782 -0.41238126 -0.075021535 0.09309225 -0.076327026 -0.1126401 0.026954243 -0.071199894 -0.114203505 0.23941538 -0.56932896 -0.3408508 -0.08230179 0.3492595 -0.5013 0.21185048 -0.1953966 -0.19752431 -0.28753328 0.31087396 -0.5271183 -0.47445047 0.009752084 0.44881186 0.26046124 -0.3643888 -0.2330503 0.07180033 -0.31278175 -0.035621196 0.046150524 0.06657141 -0.16300786 0.6029222 0.049068853 0.086113624 0.13645793
659 0.05577595 0.14881206 0.21892318 -0.22996898 0.230005 -0.32346505 0.040139414 -0.20940712 -0.009769957 0.20855132 0.02056265 -0.04112713 -0.035842754 0.24144241 0.21337132 -0.038305152 -0.1331055 0.06632141 0.19739555 0.068082646 0.02225225 0.05262134 -0.07484146 0.03893131 -0.05031477 -0.26858088 0.012218778 -0.11972362 -0.20592642 -0.0037909201 0.12841468 0.08902391 0.119184785 0.041162495 0.19459307 0.06521959 0.027043546 -0.08846848 0.23773196 -0.07233646 -0.08795302 -0.012373707 0.18151364 -0.079005145 0.07626557 -0.051581074 -0.070905425 -0.28921223 -0.06619806 0.0007799404 0.23356795 0.103664525 -0.20554246 -0.19660352 -0.0035451232 -0.18560761 0.034396954 0.32666916 0.28301975 0.08067167 0.05084725 0.18508251 -0.13548589 -0.03805312
3037 -0.008427575 0.40530428 0.04976621 -0.34339377 -0.039137095 -0.06399027 -0.34690726 -0.5048413 -0.16103193 0.1033644 0.11107443 -0.23460881 -0.055649336 0.42657346 0.31217527 0.14268836 -0.18084405 -0.15523094 0.091804594 0.17638692 -0.25675216 -0.2842819 -0.081216715 0.118641384 -0.24905904 -0.13435684 0.13726088 0.2077126 0.08300903 0.027304236 0.15423965 -0.09325744 0.062366314 0.096714236 0.30166766 -0.02702371 0.32916272 -0.049872402 -0.1720591 0.02997261 -0.20851287 -0.22157334 0.49437875 -0.09751464 0.2251646 0.17618324 -0.097639196 -0.11281282 0.05825335 -0.10698882 -0.23832648 -0.027449934 -0.2035747 -0.2533732 -0.057212356 -0.07643227 0.1684756 0.180216 -0.1609489 -0.03491506 0.13688356 -0.037135936 -0.25806853 0.56149405
596 0.07863685 0.0326985 0.17122738 -0.16086844 0.16044223 -0.11049062 -0.1645625 0.010349016 -0.0212334 -0.00024391082 -0.00315227 0.0013905494 -0.060456112 0.057317514 -0.03008345 -0.11502716 -0.21545467 0.0041048597 0.11903366 0.10906134 -0.08620611 -0.007636788 0.007151893 0.11072191 -0.0087926015 -0.18971834 -0.0053249 -0.11299637 -0.30147067 -0.053273514 0.28284517 0.12060427 0.009668706 -0.0471542 0.033308968 0.087400585 0.016951986 0.026784742 -0.14634901 -0.14674675 -0.003425594 -0.018868316 0.027420407 0.019674107 -0.11175613 -0.049056552 -0.042757317 -0.35317594 0.13800937 -0.047393154 0.07071995 0.036975242 0.025587302 -0.094082996 -0.04063451 0.05231171 -0.081334785 0.058789473 0.01590419 0.14260955 0.15503953 0.08244007 -0.16376324 -0.103510745
2596 -0.22493958 0.037544742 0.11833263 -0.26435432 0.2841156 -0.060629252 -0.1660754 0.09881968 -0.1359974 -0.057642095 -0.113152206 0.1130897 -0.012959375 0.13768409 0.09941698 -0.04623806 -0.02337596 -0.21463573 -0.08563558 -0.06437695 -0.16237894 -0.22561598 -0.15981422 -0.001393554 0.036577757 -0.07467244 -0.16335025 -0.21709712 -0.19505832 -0.120219715 -0.020232584 0.15023118 0.12334072 -0.03150362 0.28078532 0.14961146 0.077784784 0.07942271 -0.15942097 -0.078471065 0.1013381 -0.32276353 0.3226184 -0.053867962 -0.06556472 -0.09589163 0.03313435 -0.24944879 0.03535127 -0.1422097 0.068207264 -0.09818037 0.17007072 -0.047445673 0.03082644 0.035762407 -0.16957937 0.07957938 0.024013875 0.26656842 0.025042431 -0.10761059 0.017868953 0.07192536
1727 0.09058651 0.16626789 0.21132587 -0.2751312 0.19886568 -0.15258887 -0.218969 -0.11483045 -0.27988032 -0.18007088 0.1283491 0.07227844 0.18261988 0.15249106 0.13107294 0.03377522 -0.08913969 -0.1564638 0.25960058 -0.057859547 0.0583392 0.07406915 0.06905538 -0.07776195 -0.008246464 -0.03923363 0.13512707 0.14826052 -0.084681936 0.3007416 0.31641346 0.12125962 0.1667599 -0.12891467 0.20534992 0.019824397 0.07615726 0.06199097 0.0030484684 -0.3377665 0.2557006 -0.2692612 0.49543777 -0.048372816 0.09277954 0.011986203 -0.18963023 -0.043822058 -0.04997365 0.061030857 -0.0048030135 -0.11260972 0.28182542 -0.16202176 -0.14080621 -0.028011767 0.10841458 0.106804326 0.03281742 -0.05756477 0.2425871 0.18782662 0.03820888 0.10646631
2254 0.28846714 -0.017211638 0.13330291 -0.044390507 0.20394136 0.050537642 -0.25278652 -0.19164495 -0.17391792 -0.06758858 -0.34248427 -0.2167632 -0.097196855 -0.046924792 0.28523913 -0.19309233 -0.07851446 -0.19153845 0.13424249 -0.09510659 -0.092511505 -0.2279422 -0.12783837 -0.054513577 0.018789941 -0.24557365 0.09599114 -0.11665676 -0.47033975 0.088694714 0.23426493 0.08458041 -0.15253748 0.118723795 -0.00056208577 -0.13776755 0.09841625 0.1585774 -0.09662903 -0.1417643 -0.17028734 -0.16076519 0.3733179 -0.12520584 0.027939852 0.07002801 -0.123508655 0.054685935 0.14992881 -0.05277556 -0.14022462 0.015300137 0.04728236 -0.1815816 -0.13181797 0.028578673 -0.314718 0.110316835 -0.11465461 -0.025278594 0.029160094 -0.14846209 -0.022310926 0.08444181
2305 0.13989538 0.10480877 0.21014681 -0.07096425 0.1211267 -0.30123118 -0.36410964 -0.107455246 -0.17390871 0.057442695 -0.0802721 -0.03916485 0.060602568 0.37305814 -0.090667926 -0.042067036 0.10159648 0.07813641 -0.01327724 0.15315872 -0.04132002 -0.08412107 0.40866378 -0.14217506 0.21173082 -0.14777231 -0.24403577 0.08406247 -0.18934444 -0.10798477 0.26567492 -0.01777514 -0.31566522 -0.14851886 -0.11399687 0.07199794 0.012357463 -0.18598567 -0.0032230706 0.034607098 0.15178488 0.09267135 0.43155837 0.06885618 0.010107504 0.26264715 -0.01537182 -0.12757877 0.42065388 0.14150237 0.04282561 -0.05367271 -0.069996126 -0.14759107 -0.08619715 -0.08378101 -0.28631702 -0.15354131 0.16638747 -0.08693509 -0.107904956 -0.094231814 -0.061216045 0.19989076
1825 -0.05072922 0.1978335 0.21779227 -0.10573719 0.40908468 0.15038978 0.09875724 0.21828675 -0.12179665 0.20404796 -0.17849809 0.0899209 -0.10343751 -0.15753034 0.2616333 0.44950244 -0.30731076 0.015136324 -0.01915689 -0.105517976 -0.12096857 0.07524559 0.14268525 0.08189928 -0.44859064 -0.096069455 0.059882637 0.0625761 -0.45605293 -0.3276488 0.3072762 -0.010215395 -0.30885994 -0.21846104 0.3937217 0.29896897 -0.031094907 0.1343807 -0.17891537 0.09435226 0.1720528 -0.4698842 0.21776104 -0.1318795 0.3243401 0.025257723 0.23037273 -0.20620544 0.13378692 0.21285006 0.31243536 0.19023438 -0.13896987 0.0156284 -0.014380306 0.1046122 -0.72638947 0.20208868 0.20591734 -0.4192571 0.5303786 0.013416873 0.34137437 0.26750648
642 -0.3119317 0.27417424 0.1491253 -0.33249694 -0.01516664 -0.30041367 0.3785556 0.13750648 -0.27597675 -0.18583874 0.0045510507 0.04008927 -0.04658575 0.26625308 0.17321572 -0.48629802 -0.038333274 -0.018584844 0.11745209 0.14815998 -0.27223104 0.10850065 -0.13901103 0.115091614 -0.35215387 -0.22195323 -0.02395374 0.021852706 -0.23331764 -0.5811061 0.17923711 0.16221048 0.29620972 -0.055788506 0.42042914 0.056504417 0.16274568 -0.122120686 0.15237197 -0.053302564 0.12850524 -0.18835194 0.057080626 -0.45351553 -0.0022035753 -0.08251247 -0.1834085 -0.39706782 -0.052379258 -0.14717801 0.010023365 0.1747107 -0.085453376 -0.0033586314 0.27542037 0.060247682 -0.05756227 -0.23107338 0.09413308 0.08725588 -0.091463804 -0.10490723 0.3189647 0.06542063
3215 0.08358908 0.23892184 0.30799446 -0.052158 0.18864629 -0.004373459 -0.11621764 -0.11409863 -0.17030929 -0.10835102 -0.06748133 0.054428108 0.27685633 0.17614661 0.20202525 -0.17704467 0.056601696 -0.09049609 0.1992177 0.14986451 -0.019608593 0.08386634 0.07348403 0.12417361 -0.22175747 -0.12087348 0.20369095 -0.18935671 -0.17638022 -0.42382014 0.2748297 0.1280878 -0.16588373 -0.043845993 -0.2468182 -0.18897527 0.21273467 -0.11466198 -0.123226374 0.052625712 0.050891 -0.07678846 0.30072922 -0.26650298 -0.16613038 -0.055087853 -0.04520091 -0.35874614 0.10306163 -0.22312136 0.039837845 -0.23238105 0.100945465 -0.086522624 0.11686448 -0.020876274 -0.3226848 -0.23988162 0.026660282 0.061942536 -0.054714095 0.14009292 0.19650412 -0.08084084
2876 0.03134101 -0.024244335 0.18851772 -0.022303335 -0.08191795 0.28609377 -0.38498285 0.11299217 -0.07646916 -0.16662091 -0.22086817 -0.024592916 0.12623972 0.03406011 -0.17946279 -0.22488531 -0.35742962 -0.38910565 -0.037842005 0.1662201 -0.13347617 -0.261427 0.07498293 -0.39431956 0.045414742 -0.24804783 -0.18561624 -0.027874779 -0.35600856 -0.080060996 0.14116788 0.33796352 -0.14009538 0.17445488 0.4664251 -0.24707988 0.028264737 0.00662373 0.11088752 -0.094468705 0.122228466 -0.10244816 0.11525632 0.012959429 0.046564586 -0.10596897 -0.21818526 -0.3595412 0.08015957 0.30252877 0.041743547 -0.112614326 -0.015974224 -0.0056473915 -0.07616064 0.08032317 -0.36251104 -0.012590137 0.10457186 0.23141874 0.04804009 0.023179367 0.11825144 -0.20253776
2370 -0.06606501 0.4089224 0.026920293 0.09545059 0.12119459 -0.44846505 -0.015800979 -0.085507885 0.01882983 0.110670224 -0.07437899 -0.13955218 0.18817276 0.14886199 0.15082482 -0.290725 -0.28571212 -0.032227863 -0.16734692 0.11141988 -0.14493915 -0.07793875 0.31661704 0.087320976 0.13751201 0.12460633 -0.17846598 -0.11286629 0.069371335 0.053154103 0.10572369 0.08255493 0.026103234 -0.11095717 0.0074033295 0.054136217 0.2248706 -0.041198112 -0.07626824 0.06269474 0.050410848 0.03362104 0.24530338 -0.0035309012 0.02635887 -0.046339013 -0.069259614 -0.25400993 0.16298802 0.03967322 0.1311205 0.1349824 0.21251363 0.10471364 -0.19306348 -0.070719324 0.032442346 0.23442829 0.18630159 0.11120864 0.2724755 -0.13197003 0.07432926 0.18219422
669 0.16775978 0.31292784 0.38663444 0.050435364 0.33403656 0.035437338 0.14946268 -0.44282657 -0.24126288 -0.12910803 -0.2629951 0.3495796 0.07112969 0.42775694 0.120855734 -0.5440199 -0.21187219 0.099283956 0.0013835739 0.09438472 -0.1271277 -0.05416469 -0.05740881 0.24065585 0.09113743 0.0792544 -0.077445865 0.04452961 -0.37353504 -0.31424546 -0.051389907 -0.28974614 -0.107388325 -0.057489604 -0.28032044 -0.20259602 -0.17847866 -0.25464344 -0.09708714 -0.14738269 0.23522367 0.33234656 0.27769595 -0.27438015 0.45997173 0.19162159 0.06066917 -0.36537382 0.4137091 -0.25235018 0.051826347 0.14753388 -0.12704107 -0.0010505269 0.22359739 0.058110137 -0.35206756 -0.47618037 0.0013288527 -0.24947642 0.27909964 0.24055637 0.35858533 0.16213001
2504 0.07939056 0.2251796 0.11107886 -0.13578299 -0.020562407 -0.09932829 0.080824226 -0.113504514 -0.008598407 -0.026044186 0.003764514 0.19647281 0.20462926 0.27641928 0.03824887 0.031881683 -0.11303036 -0.13186838 0.22302309 -0.09540285 -0.15977596 -0.1058493 0.025575042 -0.16006224 -0.035265412 -0.0043130037 -0.36704582 0.042265464 -0.19849119 -0.01876944 0.060771637 0.12806131 0.10635503 -0.06302044 0.07523115 0.15232329 0.0637881 -0.3262629 -0.10530701 0.09700766 -0.008077844 -0.22638603 0.4793103 0.11180443 -0.037048206 -0.015713759 0.041140858 -0.2361889 0.2265279 0.037725452 -0.12267289 -0.09063059 0.086345606 -0.0285908 -0.13128836 -0.13402867 -0.09596487 0.039673023 0.23252861 0.11748968 0.041895114 0.052048523 0.034533568 0.1905344
3273 -0.049686804 -0.03321076 0.21937221 0.02169849 0.28752255 -0.10689393 -0.20679098 -0.21497783 -0.09648075 -0.046032514 -0.38733193 -0.17969672 -0.14203788 0.03614152 -0.027977826 -0.29718134 -0.10224587 0.06088684 0.113805056 0.29660833 -0.11414967 0.1437633 -0.007914068 -0.3970424 -0.023343055 -0.25212604 0.0351536 -0.12930237 -0.2322933 -0.062836476 0.1596413 0.24811262 -0.08136651 0.0070693125 0.21529925 0.10521907 0.0704566 0.038532134 -0.1856809 -0.2706506 -0.18995243 -0.17085044 0.054158933 0.09416725 -0.1637856 -0.1497092 -0.058053665 -0.088032395 0.15133673 0.000773723 -0.13301224 -0.0457535 0.022891423 0.0035249593 -0.120831065 0.15503035 -0.08096426 0.08706434 0.2840555 0.053656574 -0.004536374 0.016900398 -0.056696687 -0.07881079
