3396 64
139 0.094490565 -0.0779903 0.106362954 -0.21252933 -0.08034114 -0.032224767 0.07413015 -0.12878689 -0.063950814 -0.071266934 0.48246214 -0.033859544 -0.25888538 0.002439119 0.07400662 0.09727056 -0.0355471 0.025026042 -0.029987348 0.52342135 0.014317189 0.11290252 -0.1492319 -0.3835729 0.07194385 0.096905164 -0.27596492 0.22057359 0.2891594 -0.06875556 -0.19250262 -0.36713287 -0.15471947 -0.042067908 -0.35889843 0.42136648 -0.074129656 -0.053278774 -0.02000448 -0.043059517 0.18906173 0.077780426 -0.19589663 0.102606066 0.32567853 -0.09428021 -0.4051362 0.2937303 -0.029669479 0.04778895 -0.18884449 0.25672626 -0.12532747 0.0151202595 0.040497866 0.31579214 0.20324506 -0.6269324 -0.043477777 0.35725656 0.025821393 -0.008037566 -0.16586408 -0.23293148
2569 -0.020940807 0.09323085 0.120068096 -0.06701239 -0.14185552 -0.093855165 -0.2380647 0.016037047 -0.20056066 -0.08456365 0.2626226 0.030606711 0.20474301 -0.2719779 -0.1350585 -0.033071995 0.12602232 0.03947508 -0.16469215 0.21932256 -0.3625614 -0.09521623 0.26469132 -0.05777859 0.17989321 0.2271839 -0.32333356 0.77600807 -0.011902996 -0.22973059 0.3829429 -0.25492495 0.17761773 -0.1248316 -0.09030417 0.025551638 -0.19814628 -0.13105501 -0.03005904 0.012253425 0.18994725 0.16710357 -0.2676294 -0.069250464 0.27822694 0.025774645 -0.12526703 0.27812144 0.13553922 0.051815357 -0.28369308 0.25941566 0.16001184 0.2840501 0.09689505 -0.3871502 0.024472887 -0.2338345 -0.08202325 -0.08335638 -0.0059099467 0.12535597 0.20715256 -0.20221378
2640 -0.1878458 -0.49673134 0.25076225 -0.09705897 -0.15475008 0.22538294 0.027996868 0.012583946 -0.2606476 -0.23942208 0.1171186 0.15005434 0.029560864 0.014991107 -0.25541356 -0.41701338 0.3303921 -0.02480589 0.079359405 0.037800595 -0.453102 -0.30561715 -0.05173351 0.05577164 0.3201294 0.0029061916 -0.070100404 0.2338853 -0.19232596 -0.06917454 0.3533867 -0.03280473 0.5801287 -0.10933863 -0.12005877 0.25398752 -0.0088987695 0.17615542 -0.09949702 -0.14278561 -0.03260485 -0.116219714 -0.4025676 -0.20942621 0.15345351 0.020490067 0.009354317 0.36075696 -0.10819161 0.001472593 -0.2542791 -0.22438397 0.16697796 0.04028567 -0.12971625 -0.42127806 0.40342999 -0.04511927 -0.026991395 -0.3218013 0.24658415 0.12934822 -0.2883977 0.02100773
1200 -0.056137595 -0.18364944 0.13858752 -0.38759857 -0.16719657 -0.30367702 -0.052333243 -0.11497771 -0.19681539 -0.08114713 0.0067334073 -0.10775768 -0.19022797 0.3072605 0.0029440713 -0.1628416 -0.11097716 -0.08024607 -0.01457723 0.1916648 -0.16951378 -0.1354414 0.28162223 -0.10319811 0.20224129 0.31781256 0.021188725 0.073192924 -0.060719363 -0.0891346 0.30307457 0.03940701 0.18669388 -0.20673414 -0.08876617 0.2375088 -0.17765564 -0.08429421 -0.07080038 -0.15636583 -0.06690071 -0.08783726 -0.053514067 0.030733036 -0.12601595 0.21634986 -0.07088773 0.34628502 0.29333863 0.1340308 0.05600842 -0.24374987 -0.08617453 0.20546523 -0.006642238 -0.04892585 0.083990134 0.09963757 0.27685058 0.044782043 -0.114648886 0.27646104 -0.11213277 -0.21425614
102 0.056059845 0.10271704 0.07669809 -0.36219913 -0.19006738 -0.14908294 0.090887934 -0.026030071 0.011121001 -0.021491742 0.21797888 -0.023783825 0.08289535 0.25955567 0.10312629 -0.08544303 0.14761809 -0.0670775 -0.07613341 0.21897246 0.15021329 0.046059113 -0.33443815 0.12081959 -0.042660892 -0.20640717 -0.23501691 -0.04772592 -0.07629689 -0.11369016 0.08421865 0.13517767 -0.010839689 -0.091892436 0.021462554 0.010905267 -0.08282111 0.057835877 -0.29242384 -0.3829663 0.07642411 0.033886377 0.18394765 -0.17824663 0.32347676 -0.01243881 -0.22311673 0.4164136 -0.22220646 -0.0727868 0.06425031 -0.16732644 0.26446596 -0.008614209 -0.2680967 -0.16175555 -0.11578554 -0.40715596 0.17279565 -0.08785765 -0.010938231 0.030251749 -0.06695223 0.024879033
1326 0.24668819 0.14814374 -0.16010717 -0.28004673 -0.1773784 -0.46254355 0.15341924 0.13417889 0.1315123 -0.29064593 -0.072946824 0.10984642 0.2623299 -0.20730667 0.34638017 -0.2714625 0.4211638 -0.0041540693 -0.09743506 -0.29698032 -0.30605155 -0.057342052 -0.16895859 0.16716859 0.23429152 -0.018931065 -0.37282512 -0.11071821 -0.27164605 0.104408436 -0.011345912 0.22044665 -0.19715387 -0.065938406 0.20565899 0.23246801 0.35550773 -0.08395954 -0.3486065 -0.23438667 0.041711137 0.06560895 -0.36289966 -0.010456028 -0.2130244 -0.025153097 -0.21160273 0.15199468 0.075032584 0.39413098 -0.42908043 -0.31989408 0.24689597 -0.007876312 -0.2626251 -0.1444846 0.011231493 0.10508926 0.24946521 0.23180178 0.23391086 0.22027431 0.09138446 -0.09778047
417 -0.26205018 0.05971273 0.17494328 -0.26377258 0.11581794 -0.023184149 -0.27319542 -0.12467512 0.14773619 -0.35133672 0.3517695 -0.13673624 0.16093753 -0.2923743 -0.11172336 -0.23798813 0.009566242 0.27884203 -0.27937922 -0.1055978 -0.17844833 0.01272345 0.20798352 -0.7299458 0.0211805 0.22195528 -0.2055612 0.15727654 0.1275855 -0.13561693 -0.08079019 -0.029793475 -0.21839067 -0.19712879 -0.29774174 0.33123773 -0.125955 -0.20994338 0.09865097 0.23736759 -0.015313824 0.26237315 -0.17642789 0.01528489 0.31997472 -0.24209917 -0.2351858 0.53005904 -0.13673533 -0.052433304 -0.26163104 0.51035005 -0.13492504 0.5078314 0.00921317 0.31826672 0.15405585 -0.67807263 0.06492271 0.10337492 0.23539229 0.11253064 0.038597684 0.108722925
2309 0.1220703 -0.72256964 -0.1345793 -0.35142013 -0.062487446 -0.25199705 -0.119833834 -0.057803933 -0.43213445 0.0130516905 -0.16968843 -0.06133275 0.008937776 -0.050069727 -0.03705366 0.112627834 -0.038794532 -0.07092012 -0.20171769 -0.54888046 0.08315507 -0.094484925 0.17958447 -0.3980052 0.17827857 0.13204113 -0.2889294 0.092451245 -0.20329797 0.003139727 0.026815789 -0.15194665 -0.0030142253 0.086836234 -0.121121794 -0.19495113 -0.13344339 -0.24365065 0.08958884 0.027475554 -0.34771785 0.5004722 -0.0040434366 -0.49540216 0.45002013 0.5133047 -0.28674138 0.061684635 -0.109654546 -0.23476239 -0.054461334 0.1853424 -0.029046902 0.34855002 -0.05878823 0.017999494 -0.059380163 -0.18761049 0.24920964 -0.028148009 0.04124005 -0.21752204 0.33032277 0.32193053
82 0.07651694 0.17788836 0.3297369 -0.10202585 -0.19489287 0.015638351 -0.0123248305 -0.0384149 -0.033683736 -0.00363243 0.19099325 -0.23519486 -0.29086632 0.15495054 0.06153078 0.045937933 -0.18583596 -0.088409334 -0.07154105 0.36921751 0.26770422 0.08148246 -0.20945117 -0.15004309 0.065299556 0.14102879 -0.3388369 0.04232286 0.010016669 0.03707033 0.012331248 -0.119624116 -0.1535737 -0.078225836 0.11877521 0.08836752 0.058577895 -0.04806641 -0.13340387 0.032020297 0.14333591 -0.0081834765 0.040899456 -0.30350736 0.28980452 0.19868155 -0.23558643 0.3910395 -0.0591734 -0.11886789 0.041717514 -0.058236662 -0.036046464 0.055236068 0.009413693 -0.060249344 -0.2472814 -0.3087431 0.08825109 0.27443546 -0.04819602 -0.054215085 -0.05585098 -0.23782356
1134 -0.096255586 0.4027218 0.016202342 -0.28176963 -0.4518758 -0.16446204 -0.020541232 -0.06014999 0.13669178 -0.0075207856 0.13750444 -0.18383677 -0.26112664 0.05365217 0.27033225 0.16533537 -0.061633952 0.2570822 -0.12865011 0.105496764 -0.0245589 -0.12390216 0.026334956 -0.23563613 -0.10997015 -0.06336456 -0.15858424 0.16275273 0.02106717 0.024337554 -0.014482951 0.051477943 0.10460643 -0.2033856 0.116220646 -0.028879406 0.16802835 -0.07692197 -0.03143866 0.124969706 -0.22002019 -0.030402062 0.12853697 -0.38956818 0.21832569 0.28733668 -0.35347182 0.6193746 -0.15701987 -0.12951148 -0.043449745 -0.43403822 0.048059475 0.10810032 -0.08937226 0.19513085 0.040875297 -0.013908392 0.030358693 0.18263884 0.08000525 -0.11576069 -0.098425284 -0.2244843
930 0.57244205 -0.083272636 0.069693655 -0.22619103 0.8098006 0.01645098 -0.096098945 -0.681201 0.36140853 -0.22821249 -0.1336127 0.27191943 -0.47496518 -0.044525757 -0.16387936 0.05419537 -0.05321209 -0.2538553 -0.44454816 0.026146565 -0.4665049 0.041425616 0.09138504 0.032255366 0.3131251 -0.21729553 -0.022643141 0.09634149 0.07260592 0.38472977 -0.14510089 -0.07800076 0.74362344 -0.38777912 0.44550434 0.26236352 -0.091427624 0.12344531 -0.09453042 0.16525051 0.3467745 0.33167452 -0.31325135 -0.4029741 0.5851515 0.079197 0.50238293 0.6450443 -0.5011505 -0.44955215 -0.40357903 -0.03581453 0.17541926 0.01993243 0.19997288 -0.27240402 0.15625218 -0.2831041 -0.045901604 -0.09905238 0.08717098 0.0188045 0.010911392 -0.04463451
2734 0.04956946 0.22927319 -0.01021226 -0.21898684 0.39249298 -0.04417958 -0.115829565 -0.28598753 0.14874858 0.00017577193 -0.01813155 0.026729358 -0.15428841 0.09082631 -0.33116323 0.34927762 0.015160528 0.06721017 -0.18912221 0.114723146 -0.18655652 -0.081956334 -0.0029008798 0.008355352 0.22159858 -0.20150904 -0.1844268 0.34065968 -0.17444031 0.098471195 0.1309321 -0.06048984 0.012566823 -0.42112637 0.20280962 0.33984712 -0.21923126 -0.093999036 0.21024086 -0.048113104 0.19505833 0.5330578 -0.36793402 -0.26675594 0.34405354 -0.10380643 -0.095116325 0.42363983 -0.4338339 -0.41355646 -0.42528751 0.07423018 0.07907259 -0.06164336 0.10443246 -0.31141612 -0.016116891 -0.27274945 0.12930347 -0.040711306 0.22164361 0.06937687 -0.022418767 -0.2511913
150 -0.12514171 0.04477433 0.13725102 -0.4823714 -0.3260972 -0.117763706 0.093141854 -0.19171503 0.07730482 0.10688234 0.04657852 -0.024005031 -0.23236813 0.05227436 0.07674364 0.36461 -0.22812888 0.01029387 -0.19856744 0.26520813 0.5323132 0.0754595 -0.022277044 0.014862536 0.09301967 -0.081694685 -0.1054825 0.16034605 0.12425613 -0.1403408 0.05195505 -0.08755054 -0.0876918 -0.31556672 -0.08295406 -0.17353761 0.17433646 0.13822287 -0.13299698 -0.08557805 0.020780994 -0.021643808 -0.054400116 -0.13575077 0.17253157 -0.081543505 -0.2549284 0.5343397 -0.15820844 -0.031140452 -0.11601259 -0.13268745 -0.046194863 0.0046755103 0.004358118 0.12078964 0.033079937 -0.35290056 -0.018467788 0.12236253 0.13514598 -0.040168375 -0.11835236 -0.0792345
1025 0.25505063 0.19593185 0.049153414 -0.06374899 0.030539056 -0.4335478 0.12359998 -0.12766534 -0.10523952 0.29206944 0.30390579 -0.12334036 -0.3851162 -0.22788921 0.025897631 0.08486176 -0.11235888 0.12679622 0.077993244 0.39870736 0.07011537 -0.28697795 0.028815193 -0.06645515 0.28083384 0.1730046 -0.1561647 0.1271967 0.005321752 -0.03206253 -0.102566116 0.097302176 -0.116388805 -0.19289912 0.15169588 0.20983016 -0.22939228 0.092999764 -0.09748157 -0.17249489 -0.036159992 -0.34967634 0.11295336 -0.12072837 0.29583186 0.2690409 -0.17134564 0.08870805 0.09397733 0.025142822 -0.2852224 0.013498982 -0.013661808 0.041789807 0.06293778 0.19336766 0.17500624 -0.49637276 -0.13592231 0.26053175 -0.113543406 0.09538605 -0.0060116593 -0.28165692
3084 0.15408094 0.17403308 -0.046579923 -0.04903162 0.036787696 -0.14360784 0.21397236 -0.31019393 -0.19592564 -0.2632854 -0.08677436 -0.16916525 0.28114435 0.068482466 0.5107525 0.09346628 0.31991532 -0.084078334 -0.6524254 0.27730474 0.24225008 -0.10223164 -0.09301751 -0.07697429 0.56252897 0.020056073 -0.30957818 -0.20420763 -0.10200908 0.09560451 -0.048054244 -0.0067840507 0.02105237 0.4152598 0.1161585 0.29518107 0.42119977 -0.07340863 -0.3091786 0.13142547 0.016981682 -0.24938835 -0.19335496 -0.052228205 -0.20212288 0.015418749 0.2884482 -0.0016849672 0.089330815 -0.0034472 -0.48174334 -0.03024132 -0.088704556 0.32307747 0.043248024 -0.37717023 0.37607187 0.06690595 0.31862664 -0.31346413 -0.048744872 0.22185354 -0.08144322 0.20749484
1792 0.29504493 -0.14793226 0.54758304 -0.35014006 -0.07565798 0.13823308 -0.0047740005 -0.58851135 0.06784388 -0.41405633 -0.40164447 -0.19215882 0.23177819 -0.05603651 0.43356106 -0.015482182 0.6569777 -0.073032945 -0.59275216 0.21224754 0.48198178 -0.05228815 -0.090901546 0.06903846 0.48850456 -0.16930413 -0.13408312 -0.19766428 -0.022557046 0.17903163 -0.13242698 -0.17540549 -0.2817439 0.41947022 0.010373168 0.19185348 0.28870422 -0.16434717 -0.091610305 0.12768966 -0.075025275 -0.7600311 -0.18158892 -0.7485149 -0.082035094 0.0155480895 0.5245477 -0.11521221 -0.101352 0.23630883 -0.54262555 -0.10651962 -0.0676986 0.65356106 0.016458375 -0.25778347 0.28791526 0.0076029347 0.63949376 -0.06144204 0.51754457 0.37001514 0.3892018 0.15253642
87 0.14296067 0.1298551 0.22355461 -0.20226434 -0.05585289 -0.14535257 -0.09600022 -0.056465894 0.049565382 0.040420324 0.049534734 -0.13489233 -0.039490424 0.20304611 0.13790546 -0.0969084 0.103030086 -0.069641784 0.07967873 0.3055166 0.08458198 -0.06554777 -0.11337609 -0.010068751 0.14507008 -0.047665767 -0.31484625 -0.0029672927 -0.032069955 0.0490035 0.012127726 -0.0062715593 -0.02055314 -0.06917875 0.10497895 0.005039394 0.010579097 -0.003861305 -0.114569955 -0.1565425 0.0028165486 0.06714683 0.046825267 -0.24882531 0.19752006 0.1535357 -0.074636854 0.5408271 -0.40765622 -0.17986694 0.03685935 -0.22878483 -0.13391453 0.14787348 -0.15208067 -0.016024126 -0.2319282 -0.21170191 0.013144655 -0.07615188 -0.052515816 -0.06650036 -0.11468023 -0.2737479
1153 -0.33807197 -0.033792667 0.10479558 -0.16267231 -0.17906341 -0.38910767 0.09323381 0.11623171 -0.09459315 0.14730224 -0.23913315 -0.08395837 -0.086588845 -0.008407325 0.09212785 0.045969155 0.046876106 -0.12416723 -0.3952378 -0.120011665 -0.028248684 -0.38166633 0.05264944 -0.14776912 -0.01782233 0.018799111 -0.08081364 -0.056488775 -0.26350862 -0.02946722 -0.06535004 0.22645327 0.017852211 -0.08561018 0.009501123 -0.08798621 0.19502573 0.04963981 -0.2636262 0.36207762 0.00037741463 0.07471428 0.015723402 -0.31685856 0.051790543 0.36253226 0.029232673 -0.023552794 0.17283674 0.062653 -0.1421671 -0.2748536 0.08574372 -0.03192351 0.1972484 0.072196186 0.07431697 -0.3058661 0.057774838 0.059176322 0.03080213 -0.11909289 -0.13658915 -0.20129076
3391 0.0012630085 -0.05373938 -0.08622251 -0.31638554 0.019711072 -0.24802797 0.3390288 0.3456571 0.021440921 -0.152322 0.21692163 -0.1259425 -0.3412555 -0.25536644 -0.19795226 -0.13705511 -0.02071486 0.4523931 -0.50966674 0.24739844 0.17587359 -0.63558275 -0.41794848 -0.26702565 0.06955408 0.15585321 -0.09060066 -0.12938267 -0.18766588 -0.5551966 -0.21090095 0.024739109 -0.10580769 0.11234626 0.06829702 0.56611323 0.093192175 0.12914875 -0.016694514 0.05353208 -0.427872 0.30574036 -0.014055245 -0.00535249 0.22373722 -0.1214394 0.2706479 0.037712168 0.28298455 0.2801691 0.002600366 -0.12597153 -0.14974497 0.22211681 0.45224962 0.043897837 -0.303536 -0.42349634 -0.034986462 -0.053648643 0.31708258 0.43369067 -0.13140959 0.010940027
1684 0.22280647 -0.054221433 -0.15309088 -0.08990697 -0.14937253 -0.083697185 0.46610886 0.082576886 -0.13156204 -0.29353002 0.2872062 -0.28004244 -0.0031276103 -0.045627795 -0.16397172 -0.043461606 0.13111867 0.23266287 -0.19025318 -0.33176598 0.6148205 -0.9140574 -0.10024266 -0.00047935866 0.05053358 0.4205209 -0.16960564 -0.09439675 -0.15369125 -0.05970976 -0.2957806 -0.02675684 -0.13794714 0.06401498 0.010447473 0.44867036 0.3679045 0.009717239 0.05324964 -0.14537553 0.044423427 0.025370732 -0.02495008 0.05890652 -0.06569766 0.033266075 0.07728964 0.23138835 0.09199626 -0.09527389 -0.16377428 0.04373119 -0.18234926 0.25429925 0.17854081 -0.40263578 -0.08001035 0.114244424 0.028695898 0.0054226886 0.29024675 0.7196994 -0.10586851 -0.17771773
3292 0.09598832 -0.18006861 -0.007934422 -0.18996531 -0.12867492 -0.12537731 0.28967488 0.20475316 -0.13546821 -0.11818877 -0.07183312 0.19613734 0.3072699 0.10122554 0.2037921 -0.03651447 0.43683162 -0.16973045 -0.38941473 0.13846016 0.07861682 0.06791911 -0.40358722 -0.27706772 0.17162524 0.34710577 -0.16424403 0.28254706 -0.31984618 0.29990435 -0.36552283 0.38182983 0.34488425 0.19437191 -0.2224572 0.31840214 0.37555444 -0.36085826 -0.021030422 0.15353025 0.05347698 -0.18320884 -0.06354751 0.11079292 0.122421734 0.12547855 0.25600863 0.0148708355 0.027250191 -0.0199794 -0.27167085 -0.47361317 0.2578495 0.03101237 0.010396381 -0.20086978 0.009556893 -0.100359924 0.41023773 -0.32339862 0.08139229 0.117097594 -0.0040770876 0.22185256
1733 -0.1406481 -0.048388105 -0.042519357 0.18671693 0.05850792 -0.34627417 0.56114995 -0.010452351 0.0419498 -0.34571028 -0.3207762 -0.2820771 0.14637062 0.14919315 0.10105241 -0.12421399 0.122235365 -0.2117699 -0.58384776 0.10875729 0.13228399 -0.26593387 -0.33644637 -0.21744393 0.33722538 0.5279163 -0.093478635 -0.038676083 -0.2695806 0.1588685 0.07195242 0.105351746 0.04456889 -0.012864909 -0.21617468 0.4523481 0.821713 -0.0787909 -0.2565955 -0.20127432 0.012962802 0.023130031 -0.16006781 0.31750676 0.11226523 -0.07689515 0.29072025 0.23889299 0.3414769 -0.4588129 -0.39176202 -0.21045756 0.2964491 0.2856073 0.3544375 -0.27636147 0.15496092 -0.095654234 0.15243633 -0.40133324 -0.22317702 -0.26005644 0.07570926 0.22302459
16 0.17536928 0.1837756 -0.051499926 -0.0937152 -0.019763391 -0.27368626 0.02989854 -0.0909028 -0.21137942 0.074663155 0.16700853 0.029172426 -0.025333753 0.30904493 0.15052049 -0.18860005 0.16259396 0.020262957 -0.2248202 0.21262337 0.0073901936 0.121502094 -0.32350716 -0.05574842 -0.18766603 -0.14969955 -0.41482192 0.0430852 -0.047430657 -0.062732585 0.13514929 -0.05400103 -0.220443 -0.11391754 0.035798132 0.26025975 -0.112156 0.30554152 0.07436653 -0.4382357 0.09406271 0.108082384 -0.023491696 -0.40706104 0.115620404 -0.14688876 -0.19267422 0.32280537 -0.3906414 0.07304088 -0.11620497 -0.113018334 0.017046025 -0.037386976 -0.5384618 -0.2609938 -0.18773772 -0.0968698 0.050559465 -0.039558712 -0.058863148 0.13670003 -0.15332913 -0.08507174
1385 -0.0125426445 0.0658272 0.2118545 0.0041267998 -0.263547 -0.094543986 0.00689726 -0.23486558 -0.14521022 0.014822239 0.39453715 -0.05944433 -0.100825 0.091986075 0.25407022 0.12101325 -0.06686518 0.15743226 -0.15738897 0.33488834 -0.039815314 -0.118442155 -0.2971212 -0.010293811 0.055022363 0.05621117 -0.39570287 0.27370796 0.0033348335 0.012808538 -0.057349276 0.0038064132 -0.1702607 -0.09876787 0.19508134 0.2977617 0.17476211 0.23175578 -0.21177861 -0.4350219 0.007759555 -0.039508857 -0.26516286 -0.3260366 0.28058326 0.12385845 -0.3468998 0.26582915 -0.08628091 -0.09188009 0.20193553 -0.019655325 0.13088886 0.13039407 -0.21601342 0.18524157 -0.11112102 -0.20063971 -0.047236178 0.28794405 -0.33778062 -0.019635849 -0.29076824 -0.30771834
3008 0.24023938 0.1738819 0.26519117 0.22118539 0.037492197 -0.47498566 -0.055490375 -0.11596727 -0.46566355 0.055962544 0.16496716 0.159143 -0.45408505 -0.26843727 0.5937528 0.09122351 0.079618044 -0.537501 -0.12412777 0.04079977 -0.1954689 -0.35873497 0.59612566 -0.05140228 0.13803244 0.0836374 -0.043478586 0.0650402 -0.10213908 0.2158474 -0.09116545 0.4238108 -0.35488516 0.05175059 0.253445 0.10382035 0.13292335 -0.098032065 -0.046478912 -0.35273004 0.38760206 -0.12027245 -0.39828384 0.42862195 -0.08607951 -0.06469488 -0.009396819 0.34115624 -0.17043807 -0.26581937 -0.25707346 0.007641468 0.21268749 0.07733467 0.097753905 0.25961652 -0.740801 -0.0148938475 0.34280923 -0.074023604 0.2465224 0.539756 -0.28154945 0.3527665
2095 0.23405159 0.11618737 0.37904504 0.42778277 -0.20192726 -0.13185331 -0.033864766 -0.4604903 -0.37826785 0.2041035 0.09580988 0.15970731 -0.22440225 -0.33497941 0.62741494 -0.36477354 -0.31566608 -0.4573357 -0.53987294 -0.2150175 0.048289865 -0.5252401 0.29699275 -0.4780988 0.4350565 0.021143159 0.06936389 -0.37863028 0.13927346 -0.031291332 0.32259583 0.37865588 -0.21878763 -0.1823243 -0.032382518 0.5451172 0.40323308 -0.23558506 -0.01991997 -0.13387 0.26098415 -0.05834029 -0.3362831 0.15785906 0.10974403 -0.22534433 0.13130064 0.12986058 -0.035224393 0.23235832 -0.061247837 -0.22590247 0.07496575 0.10926987 0.49329555 0.18499683 -0.50303566 -0.27882642 0.08818216 -0.15251619 -0.025228932 0.34903845 0.027602244 0.1811682
223 0.093006134 -0.031333484 -0.028664863 0.032249507 -0.26341256 -0.02661095 -0.14644581 -0.06619629 -0.014689784 0.18054391 0.3886689 -0.15459564 -0.14234866 0.18035164 0.08369979 -0.14358184 -0.12034676 -0.2236019 -0.15347026 0.26243553 0.07249177 0.09759966 -0.07844636 -0.09637268 0.1223817 0.15239349 -0.31779027 0.04555122 0.07732989 0.057406012 -0.08299505 -0.18753572 -0.11702643 0.12348749 -0.014179937 0.17002915 -0.079336755 -0.065192536 0.044417925 -0.26403314 0.06865056 0.22260322 -0.030932056 -0.40155318 0.3530969 0.38392112 -0.15519783 0.43545085 0.038569856 0.0075250603 0.14563785 -0.0047775707 -0.014220411 0.21440692 -0.0009530117 -0.041370492 0.06630029 -0.06703692 0.10614585 0.108960785 -0.05579422 0.2212139 -0.21864817 -0.46851856
1221 0.28159633 -0.110767215 0.19257528 -0.47058535 -0.24345237 -0.045890946 -0.098806985 0.032280255 -0.015143619 0.15413523 0.26758978 -0.013431718 0.10586903 0.41867274 0.033331044 -0.12947986 -0.18378927 0.32265028 -0.18153083 0.1135583 -0.041865956 -0.1658321 0.1614686 -0.10119227 0.25653112 0.03541969 -0.31920612 0.08900482 0.13622156 -0.038426984 -0.049704816 -0.014049613 -0.17842792 -0.27756134 0.06490624 0.118086435 -0.13051286 0.08254151 -0.14420909 -0.19474103 0.11454545 0.08782622 -0.095544584 -0.382308 0.29776925 0.3572863 -0.0955286 0.30285114 0.11725403 -0.16692893 -0.0778419 -0.2601165 0.03692778 0.13376397 -0.105920225 0.21322201 0.014978962 -0.20596407 0.037669126 0.22185941 -0.21289955 -0.1384669 -0.020247046 -0.32199174
94 0.050175034 -0.15901676 0.16330568 -0.24858753 -0.08514638 -0.007389393 0.17263265 0.15400901 0.16580132 -0.1411819 -0.021634882 0.024784535 -0.5135724 0.09480361 0.1410926 0.20260124 -0.20246454 -0.18049096 -0.16489513 0.35143265 0.19022946 0.19864878 -0.2984004 0.06631026 -0.023588588 -0.16069172 -0.2932466 0.47685793 0.19336954 -0.04216612 -0.011850743 -0.2726052 -0.09741904 -0.3943738 -0.29182968 0.091279544 0.031390324 0.008517617 0.122713245 -0.06765727 0.18792427 -0.18623748 -0.16963415 -0.20387736 0.33398426 0.09891833 -0.38737044 0.42840156 -0.046372518 0.05143213 0.06337066 -0.14744024 -0.23816985 -0.05573471 0.00644006 -0.11918509 -0.031724527 -0.37452245 -0.036310416 0.09186728 -0.08422476 0.089489564 -0.01020054 -0.17944281
1292 0.2330834 -0.16661109 -0.01269282 -0.45331785 -0.24439326 -0.044823017 -0.18778765 0.045636456 -0.12712759 0.12427852 0.07816934 -0.056355935 -0.42935792 -0.052925687 0.002408336 0.034084834 0.21172404 -0.10524813 -0.10887423 0.4152509 0.1980567 0.24344294 -0.28769597 -0.009563681 0.19020104 -0.06424324 -0.39249212 -0.06894939 0.02824788 0.042670928 -0.12861183 0.17515506 -0.12258592 -0.035690796 -0.08489355 0.010363224 -0.16589339 0.15369488 -0.15944836 -0.51403683 0.33356726 0.22752449 -0.3706558 0.047587544 0.34068683 0.20784076 -0.47310713 0.15783545 0.105610676 -0.09665018 -0.10467229 0.20126937 -0.10526398 -0.078910135 0.047689974 0.111180365 0.04026044 -0.35721803 -0.107645355 0.4866807 -0.16152807 0.11556555 -0.17180438 -0.26646805
2565 -0.022039212 -0.22598633 -0.19616105 0.10703753 0.18613732 0.13155566 0.21804127 -0.0045344937 -0.14588463 -0.11405754 -0.14965685 -0.04042546 0.25383806 0.08710782 -0.0509726 -0.1264153 0.18188363 -0.25650588 -0.46420243 -0.191669 0.07041472 -0.13387841 -0.14349498 0.017513394 0.43538478 0.112029605 -0.31034207 -0.06856578 -0.3640007 0.1781536 0.06113014 0.29183128 0.20055488 0.35489413 -0.08134064 0.13628393 0.3661243 0.032163702 -0.099571824 0.13986562 -0.08239041 -0.1569692 -0.33531377 0.010260372 -0.11597161 -0.08269318 -0.038324986 0.49166465 0.070194945 0.21324691 -0.35305324 -0.29273707 -0.065636046 0.23686983 0.107147805 -0.22469874 -0.0933705 -0.057438765 0.18322004 0.06432815 -0.08464055 0.10823963 -0.066440985 0.0034957984
2026 0.20404214 -0.036554463 -0.011902004 0.09425101 0.04608058 -0.13453189 0.15779464 -0.21851753 -0.33615196 -0.0720654 0.16794337 -0.037898798 0.12880112 -0.292842 0.0889929 -0.15755676 -0.09021854 -0.29633296 -0.101187445 -0.026751246 0.24318953 0.03765904 0.05471891 -0.043540306 0.38748625 0.10076551 -0.07587231 0.14970724 -0.49931753 0.007598187 -0.0025014074 0.4753065 0.38723543 0.46351758 0.13006896 0.2024635 0.19949117 0.058772255 -0.16039765 -0.022614542 0.090842605 -0.025729228 -0.60300535 0.073336214 0.15825248 0.2135534 0.07765792 0.26284757 0.121260144 0.18727477 -0.7174261 -0.057055127 -0.0842485 0.41192845 -0.12520367 -0.21777834 -0.24575347 0.018420117 0.027933137 -0.10602662 -0.043301996 0.06419949 -0.23296276 0.5799604
540 0.3722426 -0.36586893 -0.05918114 0.37355107 -0.2113512 -0.1407395 0.14094642 0.46316373 0.4468348 0.21092659 0.39298707 -0.61818296 0.11396279 -0.78325814 0.6239693 -0.18408544 -0.025625251 0.36653525 -0.46083972 -0.84097254 -0.20578855 0.04145011 -0.1939689 0.13657199 -0.44054952 0.05397491 0.105675876 0.11998407 -0.26701832 -0.13070951 0.13409851 0.16757177 -0.12594073 0.05626748 0.30012703 0.20990746 0.16041745 0.33511004 -0.44421917 0.24161847 0.039781857 0.31682536 -0.5151126 -0.6225392 0.16325466 0.4968958 -0.5427074 0.7567792 -0.07659356 0.1099591 -0.07417464 0.6016491 -0.12841402 -0.004938393 -0.34566832 -0.3351191 -0.10476764 -0.2876802 0.62148595 0.29836127 0.23772721 0.58980703 -0.01510168 0.6317249
2381 -0.2976 -0.225993 0.43717566 0.22019003 0.1858687 -0.38204408 0.2655131 -0.50019103 0.51666737 -0.31694785 0.37603793 -0.59300977 0.36365286 -0.40313637 0.21365842 -0.2831033 -0.44332466 0.08027327 -0.8117033 -0.5266279 -0.5046497 -0.26562658 -0.71664083 0.14595363 -0.47028425 -0.16022736 -0.17976068 -0.046772633 -0.2377194 -0.14972068 0.021251287 -0.345993 -0.14001824 -0.014196507 0.6719872 0.027921038 -0.70272595 -0.086479716 -0.11609557 -0.31145403 0.64215386 0.31147638 -0.059414938 -0.52951854 0.32693133 -0.093981184 -0.5117427 0.6228922 0.08335127 -0.0083706295 -0.06789914 0.2677063 -0.10870379 -0.034101285 0.28952742 -0.21045475 0.020223593 -0.74917346 0.7721074 0.69138426 -0.09841144 0.05441433 0.0787867 0.37144312
44 0.10345028 0.051986042 0.19888285 -0.2671027 -0.12775224 0.005302095 0.003446225 -0.057527814 0.1129843 -0.08403069 0.155039 -0.058236197 0.010267331 0.33253288 -0.010572796 0.08611869 -0.32883996 -0.099843465 -0.046666436 0.22173704 0.10136452 -0.1397083 0.25992662 -0.1367372 0.15142429 0.18626636 -0.47960895 0.14448547 0.012823917 -0.17447531 0.11788986 -0.14888303 0.037961252 0.29934034 0.12998971 0.124710105 -0.015337776 -0.118968375 -0.036805805 -0.20203114 0.011271112 0.04631461 0.053198095 -0.18653502 0.22365363 0.26645517 -0.21832776 0.4931607 0.18921617 -0.055405498 0.11794976 -0.10045344 -0.014146525 0.1303543 0.0901657 -0.25377417 -0.14774281 -0.32352117 0.19678225 -0.0014784561 -0.17270422 -0.2572271 0.03665907 -0.26727626
1416 0.025745478 -0.09740929 0.06049837 -0.22715577 -0.146902 -0.3219327 -0.11657863 -0.14525896 -0.21920599 0.2501756 0.4313004 -0.11283425 -0.41588044 -0.046988495 0.025166627 0.10150307 0.067416795 -0.022396043 0.11618899 0.45825085 -0.07530638 0.21365 -0.14409417 -0.3958519 0.34843895 -0.07108631 -0.2969051 0.3018383 0.47516617 -0.10384112 -0.2785819 0.024790887 0.13434502 -0.116130695 -0.13196811 0.24508964 0.062728554 -0.13294299 -0.08575867 -0.38050798 0.121006496 0.10078405 -0.20670275 -0.2476862 0.32418805 0.28948134 -0.5240017 0.17013428 0.32478046 -0.16297191 -0.43924022 0.15111513 -0.20626444 0.066169366 0.11923299 0.0062298994 -0.0142026115 -0.21928658 -0.006130555 0.50688094 -0.0020319081 -0.017414412 -0.03881578 -0.4766253
147 0.18474127 -0.03950033 0.19938797 -0.2022044 -0.10543435 -0.23867357 0.011066894 0.05504642 0.010588813 -0.0430474 0.08400761 -0.041869964 -0.114423856 0.2886403 0.19619405 -0.07827365 0.022457574 -0.1160829 -0.20905666 0.33462322 0.08584631 0.11908401 -0.23937401 0.09507512 -0.097790375 -0.02113254 -0.3451796 0.010065914 0.05860902 0.10332202 0.2609615 -0.054987635 -0.18707933 0.06904962 0.050137065 0.19617516 -0.056403697 0.07420188 0.07342761 -0.23262493 0.24350964 0.07918571 -0.11267501 -0.16077502 0.307985 0.17059298 -0.31765404 0.371425 -0.1496705 -0.06479128 0.15998212 -0.102519415 -0.08365476 0.13666005 -0.2360446 -0.04470441 -0.22019418 -0.09250782 0.13551688 -0.070735164 -0.23171695 0.18814434 -0.24575132 -0.19522649
2585 -0.22831252 -0.05900629 0.13092282 -0.09845297 0.17589888 -0.34069142 0.23945157 -0.08617041 0.2513715 -0.08516687 -0.32817766 -0.049664035 -0.12852506 0.15294039 -0.269487 0.12816416 -0.09842436 0.0666763 -0.4242889 0.029923 -0.30245554 -0.15097086 -0.24017502 0.28784913 0.15528882 -0.2497236 -0.3915973 0.49946576 0.024466801 0.3051321 0.24735789 -0.22608681 -0.03328798 -0.5381075 -0.16012833 0.46614 -0.39932558 0.121518016 0.6006091 -0.057283495 0.5242704 0.26933405 -0.056906886 -0.2195913 0.69689435 0.023507664 -0.20988108 0.28692478 -0.30656365 0.089908905 -0.29452097 0.19772992 -0.20503062 -0.122475654 -0.0843534 -0.43247443 -0.051988393 -0.21933204 0.19598877 -0.48559555 0.19737786 0.27689666 0.004658093 -0.27032375
455 0.11734532 -0.05559963 0.5448296 -0.051450692 0.27011707 -0.19584458 0.38953468 0.16248961 0.16989519 -0.10049387 0.59769624 0.08348802 0.19790031 -0.34333116 0.084345 -0.145513 -0.21060799 0.38886395 -0.23547421 0.45541665 -0.30908585 -0.5043466 -0.13065667 -0.714479 0.12140855 0.40659213 -0.12194874 -0.22957964 -0.39630508 0.22321963 0.0065985704 -0.4578815 0.21612519 -0.54016054 0.13232999 0.48317468 -0.13888854 -0.3592089 0.44955367 -0.0060474286 0.44741473 0.10759888 -0.31224507 0.048897702 0.03172515 -0.57086915 -0.13753079 0.3214626 -0.0068117757 0.33382264 -0.16275729 -0.043986462 -0.0481052 0.05686527 -0.28529283 0.45982397 0.2543076 -0.81408596 0.022664743 0.4620242 0.67659336 0.28030354 0.17362781 -0.18843113
2430 0.07791346 -0.22453964 0.6866067 -0.09785249 0.18605638 -0.15872651 0.24310118 -0.18514745 0.28283164 -0.4557154 0.554097 0.107197605 0.357983 -0.30261508 0.12244208 -0.08137674 -0.2995137 0.27988198 -0.076334886 0.23867075 -0.24046531 -0.26923478 -0.07061866 -0.8409088 0.0709967 0.044656437 -0.1587208 0.07506279 0.0050799516 -0.10892233 -0.035775352 -0.2707964 -0.057395622 -0.3863137 -0.21612905 0.50932187 -0.17582361 -0.49476293 0.02194162 -0.19678661 0.48877767 0.1983331 -0.4584708 -0.07192631 0.16592993 -0.22253706 -0.37892932 0.30354288 -0.1433508 0.33431146 -0.15992424 0.14556289 -0.26703787 0.08774762 -0.035034124 0.6693037 0.0010193797 -0.8251497 0.03089708 0.62343436 0.38494298 -0.021879502 0.14892124 -0.14176221
515 -0.03037666 -0.59288985 0.8148985 -0.07997988 -0.42409602 -0.5623567 0.44669497 0.1375159 -0.22169732 -0.081932604 -0.19935822 -0.31121263 -0.07351965 0.021205166 0.2173907 -0.13786711 -0.25746045 -0.14292465 -0.5552528 -0.17991807 -0.11259863 0.24014392 0.4132642 0.3751269 -0.1876203 0.11788136 -0.08839194 -0.08867744 -0.26211804 0.16859399 -0.08240415 0.012201161 0.0506515 -0.087370545 -0.40426353 -0.1750556 -0.13464302 -0.065239616 0.025313191 0.47554284 0.16488789 0.4784485 -0.3172271 -0.5014699 0.18863147 0.13140084 0.5215473 -0.13390037 -0.1443545 -0.21477805 -0.5976407 -0.11443482 -0.45844898 -0.34169304 0.14718033 -0.052698642 0.32306844 -0.15603533 -0.09183919 -0.10541523 -0.36317888 0.3944631 -0.4431572 -0.18169759
2580 -0.2776764 0.18340044 0.37143508 0.21471713 -0.18058853 -0.073280066 0.22562885 0.31275797 -0.3167124 0.06266216 -0.119341135 -0.101450875 -0.2824324 0.18045247 0.39857516 0.03549775 0.239632 -0.112445205 -0.4093493 -0.03823161 0.13678992 -0.05943361 0.2684646 0.03936657 0.22272728 -0.1689779 -0.32083744 -0.5440337 -0.3772746 -0.19624852 -0.08756387 -0.20956695 0.033031452 -0.03688349 -0.14021964 0.13831367 0.06468249 -0.0034557048 -0.22707559 0.480622 0.119709045 0.24087453 0.065433465 -0.022126973 0.24864328 0.0970759 0.45026514 -0.24825935 -0.033748347 0.13809465 -0.5057227 0.0059060496 -0.25384277 0.02582882 0.2103944 -0.1202479 0.1180652 -0.5471306 0.0052105733 0.22809137 -0.2325085 0.6665651 -0.2220809 -0.123335816
209 0.3705019 -0.26040876 0.5301163 -0.34231406 -0.23493332 -0.120933615 0.04152672 0.051417567 -0.17055608 -0.18153843 0.004800863 -0.11372551 -0.16613652 0.35669598 -0.0704235 -0.04762335 -0.46288404 0.07132629 -0.1500559 0.10228853 0.0043071713 0.0033898528 0.089720674 -0.08348444 0.14126125 0.022977494 -0.3340003 0.13972272 0.20562573 0.17653638 0.024418712 -0.086238585 -0.24734455 -0.041035376 -0.05518847 0.15293665 -0.14739123 -0.11871215 -0.025713919 -0.15104564 0.08461421 0.0095983045 -0.065638244 -0.4437553 0.21670675 -0.07405985 0.042297445 0.6320606 -0.08724936 -0.12187497 -0.017152585 -0.15828028 -0.08155478 0.040943526 -0.11072896 -0.050404657 -0.21692447 0.012044916 0.008957889 -0.1176435 -0.53924155 -0.08656204 -0.2637734 -0.18494919
175 -0.08442333 -0.019398754 0.102178164 -0.073241726 -0.1387959 -0.3517233 -0.1959643 0.027153706 0.008972656 0.04312061 0.30341557 -0.0046625664 -0.07999935 0.23225549 0.04092426 -0.16223784 -0.014207679 -0.11692899 -0.07636296 0.4127484 0.023860047 -0.07715007 -0.24820432 -0.10527218 0.19660969 -0.032453645 -0.34812453 0.04126457 -0.0052362867 0.10596237 -0.03603224 -0.16890259 0.08761436 0.15332913 0.089696646 0.12923676 -0.21726786 -0.10030339 0.09973324 -0.05346194 0.012556159 0.180557 -0.14909433 -0.41201243 0.0878842 0.20974989 -0.3830728 0.32866418 -0.022453671 -0.041959457 0.13775502 -0.007785698 -0.07658187 0.23667724 0.022066025 -0.2929742 -0.06544199 -0.07249043 0.059745394 0.0015373293 0.085604094 0.028030109 -0.19629905 -0.3499214
1583 -0.06146256 0.09486146 -0.043814108 -0.0045791105 -0.34457386 0.002424598 -0.36212775 -0.35985968 0.13114199 -0.20763579 0.37928426 -0.10497103 -0.23061843 0.09404858 0.22413263 -0.12836298 -0.007137335 0.081679076 -0.14662513 0.4621881 -0.0032793942 -0.2567676 -0.30048338 -0.110453635 0.36218566 -0.085009724 -0.47739285 0.15635607 0.07267964 0.11792836 -0.33566776 -0.07159726 0.22701478 0.08446767 0.41599175 0.12754908 -0.14023714 -0.17051363 -0.0006667458 -0.1610723 -0.028361129 0.0035751106 -0.2894234 -0.40645397 0.37218642 0.22587149 -0.4283132 0.3274374 0.16129957 -0.117389835 0.13682738 0.11023388 -0.16682653 0.1643515 0.3064931 -0.003058339 -0.087577544 -0.28347236 0.09185931 0.5345513 -0.33987758 -0.15796044 0.02618593 -0.63916963
2973 0.47734138 0.31007305 -0.43698555 -0.08422833 -0.4902518 -0.31276762 0.1974957 -0.146272 0.4036481 -0.9634563 -0.06540323 -0.36131358 0.5055263 -0.30450797 -0.29372934 -0.113301106 0.2045121 -0.2374335 0.2370622 -0.35258996 -0.016412744 -0.5353586 -0.28236035 0.20348714 0.29385522 0.15582447 -0.62260133 0.03156915 -0.4366485 -0.06510148 -0.012658023 -0.13383046 -0.13539258 0.42091432 0.045105323 -0.17147206 0.51334286 -0.361025 -0.1479741 -0.016258307 -0.18123204 -0.14639437 -0.30745086 0.1528501 -0.069898285 -0.081191115 -0.053944074 0.48815092 -0.41185585 0.7400689 -0.29135212 -0.3589296 0.11269327 0.69102263 0.14735304 -0.10881783 -0.014434282 -0.018919112 0.2976642 0.3411417 -0.080284685 0.55817944 0.04182891 0.045735247
1962 0.2223418 0.27847522 0.15893838 -0.046239574 -0.67731076 -0.06312375 0.32242495 -0.49874526 0.049652647 -0.58276117 -0.043156706 -0.17495774 0.088553086 0.005369903 -0.2088874 -0.286335 0.27338353 -0.34130976 -0.014236148 -0.0217412 0.33901566 -0.5062164 -0.39767408 -0.029672232 0.2288949 0.015777213 0.008563251 0.17769238 -0.6015664 0.037747096 -0.22391963 -0.39571375 -0.3142996 0.23099914 0.1150303 -0.18323286 -0.16164453 0.015947454 -0.20103562 0.3498706 -0.10721354 0.0124368835 -0.51235723 0.3137141 0.08520938 0.20619304 0.26780596 0.030622903 -0.14216676 0.07020555 -0.485974 -0.3143895 0.32213235 0.6476421 -0.1887185 -0.20244926 -0.0385249 0.10670957 -0.03459092 0.11967248 0.07865137 0.56062305 -0.10826305 0.24750802
3139 -0.17645106 -0.088242315 -0.30225128 0.1117387 -0.030185921 -0.6171759 0.49167854 0.22884284 -0.015863236 0.043092106 0.088396184 -0.28490445 0.09266451 -0.06989535 0.44391978 0.2128978 0.015304526 -0.010028384 -0.099721454 -0.18630378 0.35994774 -0.29330567 -0.31437436 0.25177065 0.7108038 -0.3365043 -0.34027845 0.19522488 -0.6073926 -0.02667403 0.64922404 0.64709496 -0.17383689 0.39094186 -0.4119428 0.42970157 -0.10910317 -0.026865128 -0.2698556 0.2542026 -0.21317104 -0.05056523 -0.07790156 -0.2692323 -0.6548179 -0.042580817 0.1273515 0.048451178 -0.26290756 -0.15232305 -0.33362108 0.07579431 -0.2557072 0.15102886 -0.2343737 -0.030755665 0.11950441 -0.19352609 0.40965846 -0.050308175 -0.30797058 -0.07443173 -0.16582043 0.031219231
1298 -0.30304894 0.41154873 0.21253696 -0.3060941 -0.12844984 -0.10164111 -0.011743787 0.10539084 -0.1264796 0.09780778 -0.23062606 -0.03584232 -0.35749668 -0.1597808 0.057279274 0.084800735 -0.19521794 0.2918757 -0.40171027 -0.14774045 0.26857257 -0.41963643 -0.13576247 0.03221574 0.09520437 -0.25982988 -0.011591337 -0.06629024 -0.16819686 0.17399883 0.37047485 0.14078358 0.045965027 0.0049252617 -0.07642989 0.24097452 -0.073704936 0.048138257 -0.5759909 0.26248774 -0.08324105 0.041475765 0.04630509 -0.05604905 -0.10753318 0.046457656 -0.44206044 0.19814005 0.0034016857 0.08487123 -0.14709173 -0.22404058 0.004701553 0.02907529 0.21272391 -0.07265098 0.048412986 -0.13239315 0.04606174 0.2788017 -0.15408616 -0.05515379 -0.087795585 -0.2234646
2373 -0.15375748 -0.2478047 0.11509002 -0.31762663 0.18419155 -0.20556389 -0.2553971 0.007544315 0.115133844 -0.048614547 0.22955872 0.14256532 0.051939033 -0.32508248 -0.3061014 -0.04093397 0.20104699 0.43105128 -0.0665574 0.3199057 -0.09795668 -0.18738897 0.07491274 -0.43357778 0.06610646 0.22465023 -0.0691038 0.054572295 0.18385826 -0.0055400957 -0.1022787 -0.0985544 -0.20604415 0.074116096 -0.2996011 0.424037 -0.2494488 -0.36113217 -0.22144207 -0.059340637 0.3246365 -0.069104925 -0.11226523 0.09661762 -0.014674344 0.11078926 -0.16696097 0.60765123 -0.266837 0.12899278 -0.6366279 0.27142078 -0.22146237 0.37362087 0.14291939 0.59227467 0.39503273 -0.60002875 -0.05237201 0.14745831 -0.08119121 0.2264477 -0.056894623 -0.07441607
1830 0.17478971 -0.1266691 -0.14871185 -0.421666 0.3929735 -0.1954675 -0.017956471 0.22298379 -0.19041525 -0.00042086697 0.07640976 0.15243259 -0.17266919 -0.3905684 -0.16435912 -0.2576656 0.11276391 0.118657336 -0.2698251 0.25256002 0.10596703 -0.8407701 0.235818 0.045215383 0.37619343 0.07821434 -0.261547 -0.012905984 -0.17304486 -0.009761094 0.16436017 -0.24901505 -0.2762248 0.19248138 0.16317274 0.17027642 0.071818516 -0.31514633 -0.36282235 0.14579219 -0.42786592 -0.13079984 0.05097428 -0.024135042 0.27879682 -0.2512452 -0.15834503 0.08534745 0.14820278 0.24932343 -0.5000006 -0.013559515 -0.08440399 -0.05405468 0.08548381 0.49305776 0.21932109 -0.21689135 -0.33260706 -0.24872047 0.02664184 0.5027202 -0.25057253 -0.19053349
747 0.37935674 0.23126113 0.76304114 -0.09742737 0.7225141 0.47681135 0.14068592 -0.08138437 0.039709102 0.11977406 0.46262962 0.16754058 0.00036529414 -0.8027743 0.02054076 0.2144312 0.6220586 0.20422345 -0.6623859 0.19586597 -0.09004856 -0.43641472 0.102970056 0.19803788 0.9821998 0.08110991 0.20202842 0.19112179 -0.104445405 -0.07139146 0.051028974 0.22306061 0.21701802 -0.35329875 -0.4740456 0.25279772 -0.49122545 0.23664455 0.2739088 0.14326005 -0.15006581 0.30797333 0.09694418 0.0056763766 0.3679121 0.3901637 -0.28725573 0.6257377 0.0103389425 0.47121668 -0.23017451 0.16327544 0.25396505 0.3528821 -0.21594755 -0.50710714 -0.20020427 0.23919767 -0.5113062 -0.021954795 0.2293205 -0.08401949 0.12884061 -0.31248552
2596 0.010002781 0.23612805 0.8526687 -0.32533288 0.9508653 0.5412317 0.29771212 -0.36405683 -0.22072682 -0.25124767 0.4864951 0.045464233 -0.1291647 -0.38573942 0.05436172 0.10504974 0.49718335 -0.030684376 -0.7975022 0.02135232 -0.3244529 -0.2994015 0.30220884 0.4891302 1.2413583 0.109363526 0.41070193 0.081516 -0.43114135 0.14916584 -0.17759986 0.21875915 0.5070252 -0.25216374 -0.37467074 -0.15509997 -0.3530793 0.23582108 0.13180256 0.023253731 0.10420196 0.599414 -0.13013427 -0.36739698 0.30039185 0.078690134 -0.3294993 0.7936356 0.14995198 0.59989274 -0.36645845 0.10634598 0.11446069 0.06873278 -0.66642714 -0.30595186 -0.20021473 0.57059413 -0.7547236 0.26103804 0.5031894 0.3790408 0.40747598 -0.50587296
81 0.059850443 -0.19165647 0.11943519 -0.19973543 -0.1338088 -0.14655252 -0.17243387 -0.14178088 -0.0075289984 0.095289394 0.30373362 -0.09016213 -0.21565391 0.0026064776 0.031348757 -0.044024497 -0.08415649 0.1460504 -0.07387662 0.43516514 0.115516 0.16545455 -0.06869517 -0.27312958 0.06685641 0.05303512 -0.39863828 0.09660906 0.22501203 -0.094218336 -0.09142231 -0.11305592 0.061357193 -0.13110606 -0.10615825 0.1664454 0.092170425 -0.12260733 -0.06689362 -0.17123981 0.18683739 0.097005114 -0.06831189 -0.11809646 0.14261062 -0.0007445914 -0.34592134 0.4513285 -0.09148524 -0.10016727 -0.16913347 0.038158096 -0.14580776 0.14244084 -0.002737721 0.21270423 0.07710698 -0.34526372 0.021062423 0.26700956 0.12463357 0.0009848624 -0.16906974 -0.1536067
1220 0.1481968 -0.07030808 0.009861327 -0.15125175 -0.34570882 -0.24860361 -0.0663068 -0.18779716 -0.07090675 0.08973192 0.14696811 -0.21084438 -0.37705055 -0.16772601 0.046254754 0.1048572 0.16611066 0.20412734 0.13768314 0.5666719 -0.07294609 0.024317296 -0.2842962 -0.25330815 0.22169025 -0.001861703 -0.4073863 0.19621156 0.21639253 0.08261642 -0.15621284 0.0035897284 0.04827633 -0.14478461 -0.049223654 0.033012737 -0.03728412 0.04155943 -0.18808407 -0.34048754 0.14016375 0.20866148 -0.27057827 -0.2692227 0.3538033 -0.0056644827 -0.32678577 0.27925965 0.1708308 -0.020138899 -0.2936516 0.16904701 -0.09668096 0.0089265965 0.108671315 0.11448617 0.17200357 -0.26821488 -0.08471703 0.538787 -0.051314157 -0.10401797 -0.1272771 -0.36202243
2578 -0.09727387 -0.0305476 0.14738987 -0.18323544 0.0061579826 -0.1779431 0.14714666 0.075926654 -0.05579754 0.16603251 -0.05150875 0.08981616 -0.1895339 -0.15225919 0.11745527 -0.14314619 0.1413746 -0.29890016 -0.16649829 -0.036574453 0.23409 -0.20618868 -0.18307759 -0.2828923 0.08399854 0.06617047 -0.23348011 0.00093569997 -0.30923277 0.010207388 -0.121764794 0.16883758 -0.13725762 0.094786584 -0.3313128 0.044602904 0.2803411 -0.13742125 0.20802124 0.30060762 -0.0731015 0.3534684 -0.13710448 -0.3813575 -0.1678603 -0.1170599 0.27707365 0.051334765 0.051432177 0.17805462 -0.23740016 0.015502724 0.064913884 0.06164238 0.25282326 0.2701156 -0.23530482 -0.33596897 -0.04344652 -0.25487107 0.030954137 0.38370278 -0.060899895 0.10716979
1086 0.29574826 0.071906015 0.11927095 -0.21693309 -0.3443943 0.042340625 0.09455012 -0.05104352 0.094598666 0.107594565 0.074584804 -0.19892775 -0.13093807 0.2154464 0.06972656 -0.19917072 0.08878088 -0.045739114 -0.05145737 -0.098395824 -0.17939617 -0.03903017 -0.17344457 -0.3407037 -0.09138779 -0.069347695 0.1682717 0.14370604 -0.34377345 -0.09920921 -0.18202205 0.2437705 0.23604439 0.10859784 -0.1679404 0.44547835 -0.0905336 0.43311426 0.25757095 -0.03700329 -0.1706548 -0.046372276 -0.09483695 -0.24674465 0.0726885 0.08691161 -0.2059 0.24439742 -0.24906763 0.099133566 -0.018962853 -0.12839702 0.117108956 -0.10888697 -0.109857954 -0.07899029 0.3474347 -0.2799183 0.17235312 0.18633807 -0.10864191 0.17209058 -0.36822978 0.25647724
58 -0.18083927 0.2516142 -0.10147649 -0.22753158 -0.48379803 -0.07177661 -0.084817804 -0.047179632 -0.12405668 -0.24123134 0.35031357 -0.06525862 -0.2463876 0.4532788 0.085692674 0.11525097 -0.15799011 0.027156219 -0.0028076058 -0.021625444 0.06276185 -0.018439317 0.59382343 0.1580872 0.23835133 -0.067903675 0.030407272 -0.090146914 0.023162803 -0.012214639 0.13831417 0.15718949 -0.018091118 0.00070811756 -0.03359951 0.3598496 0.074057996 -0.20835268 -0.1997645 -0.37837932 0.06372274 0.25557116 0.09612611 -0.11485917 0.17387763 0.26244596 -0.062433682 0.7496481 -0.091378756 0.21181652 0.08871098 -0.36482638 -0.08578524 0.18378827 0.04046014 -0.16019304 0.20456192 -0.046825413 0.30463123 -0.2336671 0.25538415 0.10117341 -0.055343863 -0.1856463
1209 0.0026312175 0.091831945 0.021462798 -0.29038352 -0.18807411 0.16238962 -0.11266691 0.02184345 0.041900717 -0.1872201 0.17441264 -0.0639057 -0.26684383 0.22327426 0.14696367 0.22603446 -0.072819166 0.2667564 -0.26495746 0.20952834 0.0064987433 -0.23153903 -0.09944034 -0.13035114 -0.111181416 -0.08194534 -0.23297206 0.10029539 -0.07176927 0.14067042 0.22725308 0.20104946 -0.2980242 -0.032146197 0.14978668 -0.005266386 -0.14927332 0.25485453 -0.10786595 -0.25795466 0.23849982 0.3591037 -0.17955558 -0.43018994 0.21349339 0.48465693 -0.15999945 0.55415606 -0.04098467 -0.14374937 0.2119141 0.2646526 -0.03028285 0.19851421 0.072543845 0.19860253 -0.015940553 -0.24000096 0.26059377 0.33848932 -0.09974049 -0.110068195 -0.074183695 -0.21547522
156 -0.0815699 -0.16811012 0.026541177 -0.13497995 -0.28664696 -0.011805229 0.04308136 -0.012860835 0.04598487 -0.06795731 0.35620698 -0.17766736 -0.27012327 0.08366289 0.22218622 0.24739476 -0.13835697 -0.054206006 -0.15485135 0.42664388 0.1344601 -0.19280717 -0.12295264 -0.0008014105 -0.02447635 -0.085074194 -0.5531405 0.115734495 -0.08597025 0.063933335 -0.038921632 -0.121632606 0.030612689 0.049978696 0.11055235 0.07762974 -0.028456474 -0.058636624 -0.07058346 -0.041377507 -0.002821117 0.13211882 -0.062081397 -0.4048475 0.4047379 0.0013888502 -0.083952494 0.4675063 -0.037949495 -0.05482781 0.048361905 0.12640204 -0.114916384 0.04904011 -0.042556696 0.18994428 -0.09882113 -0.15400009 0.016716687 0.24615775 -0.26742935 -0.32988545 -0.258134 -0.2604123
1157 -0.043348856 0.21845824 0.10332982 -0.32390004 -0.29730582 -0.18227626 -0.020780198 -0.0045620007 -0.07492649 0.08705776 0.21024033 -0.11530838 -0.5243067 0.058781806 -0.10769257 0.26214832 0.19247773 0.11884051 0.046669867 0.3856299 0.21545303 0.17008941 -0.100073256 -0.34909716 0.044699535 0.033333115 -0.20226292 0.3880068 0.061385874 0.11762278 -0.11006119 -0.055512983 -0.2355264 -0.36641845 -0.10308845 0.1519303 0.24358672 0.21983476 -0.0728693 -0.23660158 0.14649266 0.03876588 -0.105863914 -0.10816741 0.4535958 0.07263243 -0.37922186 0.1886669 0.078301616 -0.3088188 -0.094435036 -0.06882154 0.10494362 0.00799323 -0.15852253 -0.07963871 -0.13768809 -0.41395617 -0.021559423 0.25549093 -0.13765495 -0.042175047 0.23550572 -0.39597827
997 0.05503266 0.1537559 0.10927722 -0.31637838 0.5579662 -0.040540997 0.038038928 -0.08100611 0.21754447 -0.08453765 -0.43195 0.065031484 -0.19110139 -0.108917445 -0.39869916 0.22428095 0.06688222 0.05195644 -0.3113596 0.017059898 -0.12652804 -0.13979034 -0.2442785 0.15159184 0.38249126 -0.15426043 -0.20450969 0.4611664 -0.1323911 0.15936205 0.1679153 0.058156263 0.11724072 -0.5793788 0.078671806 0.5841918 -0.28489164 -0.14822787 0.35988057 -0.088181235 0.36332273 0.629077 -0.023204649 -0.06902135 0.6653398 -0.14031677 0.023216978 0.4224829 -0.5202102 -0.20593362 -0.42644653 0.19404218 -0.04091615 -0.28147775 0.16169825 -0.50518703 0.051296882 -0.26233774 0.11416838 -0.18138131 0.16221398 0.1728941 -0.1335868 -0.36593193
2732 -0.11234953 0.17119935 -0.007741069 -0.34148636 0.6454963 -0.27383178 -0.19960861 -0.21486576 0.3119714 -0.01242759 -0.46202475 -0.41174296 -0.07685054 -0.0439285 -0.531028 0.4011748 0.09405297 -0.024281798 -0.23909229 0.11069737 -0.24315447 -0.1983675 -0.056936286 0.12536578 0.3665344 0.11599484 -0.15884759 0.5935797 -0.3487754 0.040970366 0.082870215 0.029246833 0.1472121 -0.25897264 0.07852901 0.2456205 -0.3051912 -0.3724541 0.29265055 -0.10835967 0.26449487 0.8696283 -0.24841212 -0.061831884 0.37712312 -0.2179884 -0.11125292 0.4114392 -0.8174194 -0.47231582 -0.6779479 0.19589506 0.18004178 -0.18058947 0.32458732 -0.46749738 -0.012042815 -0.120394565 0.21765952 -0.004692606 0.24449052 0.170973 -0.2398845 -0.48566666
201 -0.010063981 0.052038398 0.10514308 -0.05593089 -0.06898518 -0.019348882 -0.22957207 0.14343348 0.24488619 0.14655112 0.7700406 -0.30031648 -0.39841524 -0.19490434 0.06914634 0.2910726 -0.020575505 -0.034879763 0.0139506785 0.4407974 -0.004364192 0.05125584 -0.16402407 -0.32387185 0.26128873 0.0482382 -0.35236317 0.46708372 0.13011053 -0.0031828487 -0.11907454 -0.032159362 0.46918628 -0.08018644 -0.016918847 -0.006518702 0.20798863 -0.036723126 -0.116533905 -0.06973818 0.15240915 0.3063026 0.08513658 -0.4968187 0.39009935 0.15802604 -0.23310584 0.074959435 -0.10570647 -0.16259846 -0.32373866 0.042772193 -0.009444678 0.2460623 -0.09626071 0.09506548 0.04269628 0.053952117 0.041952815 0.077580035 0.046381727 0.24728964 -0.04375475 -0.12553933
2736 0.087612554 0.007183709 -0.016943801 -0.076531895 -0.2412291 -0.25113901 -0.13449173 0.26156372 0.09347661 -0.16516893 0.09534661 -0.14166427 0.1613448 -0.3578311 0.038212486 0.1439044 -0.019900803 0.25108516 -0.19488992 -0.32429144 -0.121672474 -0.045125626 0.23524635 -0.1296306 0.3177287 0.08386666 -0.29162678 0.6109308 -0.15661621 0.1163418 0.15342629 -0.2555095 0.10438997 -0.20893013 -0.22819188 0.05072806 -0.18884143 -0.020747762 -0.031243812 -0.20130645 0.0003043626 0.42103 -0.22570822 -0.44866556 0.3061342 0.10449847 -0.10825675 0.26055565 -0.39144862 -0.1396987 -0.042588655 0.2616184 0.09332203 0.17354733 0.03129594 -0.23334114 0.08332467 -0.17994748 -0.008811203 0.04168166 0.21074182 0.10186931 0.29896373 0.007007005
694 -0.13860567 0.1783128 0.34478965 0.123465836 -0.21753614 0.52318263 0.23876278 0.048163947 -0.20462205 -0.006203297 0.16891977 0.033742245 -0.0012057566 -0.24260996 -0.37188953 0.32494915 0.21192999 -0.02992548 -0.5061222 -0.15400383 0.3244096 -0.4555982 -0.26468205 -0.6142545 -0.2983842 -0.20608959 -0.2028031 0.46481708 0.12591922 0.16856086 -0.30781642 -0.10920115 0.00027463352 -0.31153864 -0.32371747 0.6460981 -0.65424067 0.38781187 -0.37622806 0.14696592 -0.2077975 0.13310044 -0.1816435 0.22086367 -0.046067458 -0.3790126 -0.13668956 0.7438204 -0.27356112 -0.5382948 -0.4038855 0.18452762 -0.4144721 0.27488184 0.0058531174 0.06915791 0.5574837 -0.5816842 -0.07965635 0.11096781 0.35984713 0.054411538 0.19115189 -0.20398563
2737 -0.14471176 0.07023932 0.14240798 -0.24132092 -0.056477398 0.034475245 -0.18683055 -0.01774439 0.23496227 -0.08860216 0.2697451 -0.3253105 0.042073153 -0.30441734 0.016741652 0.24393606 -0.010648112 0.18793045 -0.36422893 0.08967697 -0.17167944 -0.25124982 0.16572808 -0.41431123 0.046190303 0.011427181 -0.14083223 0.38459575 -0.039271258 0.03990449 0.23332237 -0.2554943 -0.018718658 -0.26063398 -0.2785241 0.18222703 -0.21708941 -0.25341812 -0.047394 -0.112842746 -0.07784725 0.25317815 -0.16755632 0.066027984 0.42741355 -0.070549965 -0.13791232 0.12516762 -0.21729423 0.009756212 -0.43258882 0.33835346 0.103776775 0.112088904 -0.028773366 -0.17804183 0.19148669 -0.4449299 -0.17508917 0.08359866 0.03929076 0.04596089 0.15904108 -0.07673134
3113 -0.20889558 -0.25673103 -0.055179723 0.08226979 -0.25098285 -0.35454857 0.21620408 0.01614356 -0.3137609 0.13626698 -0.2016365 -0.008913359 -0.21055399 -0.089958735 -0.051402733 0.042508584 -0.04014423 0.066846415 -0.28311372 0.044698946 -0.035416238 -0.4338501 0.04648896 -0.06528787 0.18722041 -0.0284296 -0.36096773 -0.14528014 -0.41201273 -0.3830006 -0.088173315 -0.007858396 -0.106105015 0.08337467 -0.034359206 0.20484664 0.1125149 -0.07873834 -0.3122101 0.36443394 -0.29953286 -0.06083433 0.15319216 -0.30189747 0.15290962 -0.05285841 0.08830295 -0.10146378 0.060868032 0.13315836 -0.2670562 -0.012098004 -0.10705501 0.25412264 0.03618211 0.15824266 -0.4037877 -0.16678916 -0.037344307 -0.13727002 0.10342676 0.37525398 -0.14880191 0.0289593
1070 0.021522585 -0.10948392 0.025040394 -0.3466729 0.05215445 -0.21980569 0.16575347 -0.010571156 -0.043365274 0.08727117 -0.28909582 0.29228368 -0.34133732 0.060190193 0.23065348 0.019628132 0.034815907 0.0047927042 -0.08320249 -0.23189409 0.25854424 -0.08298241 -0.1210469 -0.13990179 -0.21321933 -0.061235584 -0.16256292 0.0719214 -0.27710408 -0.19628806 0.09576951 0.021708561 0.028250186 -0.3649068 0.009598573 0.10303062 0.081805594 0.064173 -0.29970676 -0.1667015 -0.08186509 -0.16081238 -0.05764973 -0.3414835 0.14310618 -0.09736356 -0.26349598 0.1365593 0.0015054258 0.014536162 -0.15335988 -0.07393741 0.13490102 0.45690775 -0.0691374 0.11715942 0.07177886 -0.024321368 0.006906355 0.2455098 -0.020917568 -0.08193157 -0.09149472 -0.19045796
2519 -0.35247472 -0.15953511 -0.12193468 -0.040484227 0.2856783 0.093797326 -0.044964936 -0.04437406 -0.15929173 -0.22546154 -0.16280803 -0.123954184 -0.3713833 0.09993468 0.47875282 -0.30381373 0.0037071316 -0.16530113 -0.2984697 -0.18617862 0.49089453 -0.18466534 -0.046883065 -0.18718149 0.10738709 0.37573144 0.024644593 0.056168843 -0.2446311 -0.025488338 0.071816884 -0.013033855 0.027268713 -0.09600731 -0.28592816 -0.15476927 0.010029095 0.010171904 -0.26173598 -0.07711709 0.07672211 0.10766291 0.057256393 -0.2354224 -0.11208706 -0.23111486 0.23184289 -0.019244073 -0.04205042 -0.09045625 -0.39061457 0.06466036 -0.06318992 0.17416455 0.013494067 -0.28725326 -0.1349029 -0.21928973 0.29542124 0.13554816 -0.13793328 0.3457451 -0.32593298 0.004066099
1712 -0.017552719 -0.063320585 -0.27729645 -0.037527807 0.39711136 -0.10546629 0.307685 -0.025304569 -0.2854056 -0.089630164 0.14704515 -0.3314037 0.18059365 -0.0461931 0.35847765 -0.12483041 0.16276328 -0.26198348 -0.29946047 -0.015145521 0.2641087 -0.39503026 0.03918625 -0.23752987 0.5337891 0.09486064 0.022665875 0.221695 -0.30229768 -0.14068946 0.3337915 0.2702822 -0.22250749 0.22068666 -0.51756364 0.18595435 0.12482086 0.28504646 -0.16530345 0.31666568 0.07229404 -0.06843839 -0.40415093 -0.4059381 -0.3499641 0.059934143 0.19740732 -0.054176133 0.042959854 -0.1394197 -0.28752246 -0.16311777 0.035612885 0.08579294 -0.11029595 -0.30201828 0.2457989 -0.087480195 0.3808641 -0.13176696 -0.0968177 -0.11167758 -0.17389056 -0.117948964
138 -0.1958637 0.06575064 -0.07797036 -0.13373983 -0.14371371 0.10043623 0.14746732 -0.039164186 0.046539802 -0.024983969 0.14498958 0.041470703 -0.21307015 0.28526247 -0.029071437 0.12743972 0.068636015 0.3593649 -0.36073583 0.4091226 0.16324882 -0.009240942 0.22632286 0.21597382 0.10625121 -0.21313937 -0.14834456 0.19046956 -0.12402369 0.0025662484 -0.053402234 -0.1153873 -0.003167016 0.047206335 -0.10110634 0.16470306 -0.15169044 -0.07565948 0.14414816 -0.406957 0.085746236 0.22617282 0.094419576 -0.23788764 0.18830882 0.33598098 0.03188029 0.70870394 -0.10473687 0.11101245 0.087752365 0.10421145 0.022554433 0.16588296 -0.2546908 -0.16868162 0.00025558035 -0.085444085 0.33627263 -0.0072875996 0.043767333 0.15793125 0.025895862 -0.17368273
1097 0.3244056 0.16802733 0.24634804 -0.14167683 -0.21962826 -0.15279394 0.023016114 -0.092896394 0.05152088 -0.09712926 0.01910486 -0.10707324 -0.18397751 0.4367584 0.0053078113 0.06472401 0.019540697 0.20084746 -0.14755563 0.46156257 0.0031925652 -0.051353917 -0.02330089 0.009711414 -0.112140596 -0.11430144 -0.20284073 0.037866496 -0.15060124 0.17695577 0.3001371 0.095292285 -0.4142808 -0.11554809 -0.009836525 0.3824021 -0.22619067 0.26065582 0.06588279 -0.39087206 -0.07798068 0.2204105 -0.059399474 -0.26218915 0.29746428 0.27011988 -0.23012911 0.3563938 -0.11438697 0.22083795 0.03145165 0.27129903 0.26417133 0.11331909 -0.5456402 0.057941068 0.047660924 -0.028594404 0.109232314 0.040517844 0.052071128 0.24609077 -0.22498126 -0.15327817
378 -0.20785686 0.16326734 -0.3908908 -0.12441409 -0.38207167 -0.21019879 0.2824967 0.69319564 -0.13342524 -0.34280524 -0.14712477 -0.09547752 0.3242278 0.053637646 -0.008478707 -0.42445683 -0.19815387 -0.28869683 -0.483306 0.5403426 0.55722886 -0.5407512 0.6218987 -0.513594 0.20516476 0.26265422 -0.08906142 0.45003125 0.049238253 -0.2522297 -0.035034835 -0.051576663 0.26243538 -0.25243282 0.05749021 0.025781346 -0.22029476 0.18056639 0.38898277 -0.25967294 0.14033064 0.16688381 -0.034644704 -0.4682809 0.44749925 0.22031498 -0.43607563 0.38890058 -0.64530015 -0.20981139 -0.71028507 0.37158892 0.27172866 0.15184139 0.39260343 -0.26929626 0.021460934 -0.02242345 -0.36805788 0.3009156 0.69511354 0.39251322 0.3651226 0.2569709
2367 -0.22958618 0.09121657 -0.42509642 -0.34303722 -0.08198222 -0.3385992 0.28476423 0.61356074 -0.08649815 -0.39953944 -0.029705435 -0.014096649 0.49144623 0.03740661 -0.07608352 -0.35299432 0.10565155 -0.38139772 -0.5317871 0.5977628 0.37826553 -0.68780905 0.24207719 -0.20389618 0.4228934 0.096643165 -0.25404006 0.37581003 0.22346112 -0.16434094 -0.016902367 0.058063313 0.13405482 -0.21283396 0.33921033 0.17898306 -0.14878638 0.014925524 0.3342639 -0.155442 0.08108856 0.008492602 0.10647936 -0.4682222 0.35969597 0.22518283 -0.3770362 0.3097334 -0.5972484 0.08192518 -0.5336261 0.25994375 0.057820685 0.19538091 0.6207731 -0.01826183 -0.0793399 0.07420115 -0.32942584 0.5585643 0.12094784 0.28324035 0.2950868 0.25157312
3107 0.30882767 -0.034410607 0.33772877 -0.1076298 0.042736176 -0.3077619 0.5733265 -0.0650192 -0.23925246 -0.19982152 -0.53132707 -0.36178187 0.38506037 0.19304949 0.16555816 0.055065975 0.14321242 -0.11524513 -0.55803716 0.20377024 0.041349832 -0.22780474 -0.4447756 -0.1096103 0.3496822 0.85821444 -0.20428644 0.11304579 -0.16430242 0.012633735 0.031954378 0.17902726 0.026930714 -0.04908696 -0.026765108 0.50940996 0.6953854 0.08844062 -0.33752567 -0.270899 -0.09613627 -0.08360408 0.15403216 0.37683976 0.18192402 0.17329791 0.44201046 0.361118 0.4190758 -0.35872394 -0.41572157 -0.03904531 0.57870394 -0.005175881 -0.06776256 -0.05112309 -0.0171893 0.09427928 0.40720177 -0.4230864 -0.20733769 -0.117191 0.08597895 0.6901911
2034 -0.35356772 0.07222116 -0.10425749 -0.2740329 -0.12876435 0.10536517 0.344359 -0.02541532 -0.33517495 -0.23167245 -0.33539128 0.0200398 0.3563885 -0.08286259 -0.033211734 0.07451623 0.2957116 -0.12031891 -0.67767066 0.21073607 0.12816204 0.18897922 -0.29284886 -0.16510546 0.324493 0.4294359 -0.22502556 0.23235533 -0.2110025 0.06772575 -0.12520929 0.04801237 0.18236604 0.35344392 -0.10771356 0.5450377 0.37611383 -0.12559992 -0.18348223 -0.21470547 -0.3504057 -0.0011266089 -0.20727909 0.008216813 0.36463955 0.27470586 0.3119317 0.31555793 0.22776687 0.27960095 -0.41635507 0.03720007 0.22609317 0.0029103097 -0.28852463 -0.1338681 0.50828654 0.25820446 0.29436994 -0.45423752 -0.03587542 0.2441749 -0.13106205 0.70684654
52 0.210672 -0.106631674 0.1273991 -0.13499023 -0.08804347 0.012546533 -0.086873956 -0.039744213 0.1505476 -0.06796428 0.18985775 -0.15542212 -0.26753232 0.030291611 0.055595163 -0.052629706 -0.12213231 0.16300385 -0.15352438 0.5202525 0.20248002 0.096326865 -0.08965856 -0.10085377 0.1464264 0.12600815 -0.38817555 0.25799096 0.098212786 -0.11612821 -0.15551643 -0.21416973 -0.033320278 -0.07796642 -0.02886012 0.09295925 0.15006922 -0.021372767 -0.11137637 -0.053992253 0.072185144 0.15243949 -0.07940242 -0.06276203 0.33042574 -0.033980936 -0.33443466 0.3284071 -0.053013615 -0.06879938 -0.10793754 0.132171 -0.08322261 0.080902 -0.038872287 0.2489075 0.15941124 -0.4904521 0.0973783 0.40389094 -0.020606134 -0.120415136 -0.14789958 -0.17148972
2748 0.076557115 0.22905609 0.2481019 0.012539066 0.026819412 -0.19501022 -0.22556517 0.17635159 0.31446683 -0.025202712 0.18422782 -0.29657722 0.26014605 -0.22457492 0.14652835 0.13859141 -0.12110906 -0.008025035 -0.2738951 0.14468023 -0.11725699 -0.33342245 0.099732645 -0.20460978 0.25833416 0.10375906 -0.07837897 0.6037277 -0.19104388 0.012468471 0.09903444 -0.272783 0.14777331 -0.38003373 0.10584743 0.2042659 -0.220727 -0.13295835 -0.041290224 -0.13599402 0.083465025 0.22175041 -0.21784176 -0.43973568 0.40950686 -0.013996508 -0.31467575 0.27296564 -0.44462895 -0.05873477 -0.25091133 0.15649287 0.09584931 0.15577002 0.029108346 -0.27689797 0.20116434 -0.08597083 -0.01082665 -0.08926947 0.20634343 0.060650393 0.42993754 -0.17822266
3235 -0.16924948 -0.26567164 -0.08262677 -0.2585803 -0.010403051 -0.48010185 -0.011402067 -0.038371038 -0.07837937 -0.26092762 0.19623071 -0.034812983 -0.36737368 -0.1876927 -0.5013348 0.036214218 0.09748876 -0.006584819 -0.4137965 0.30284464 0.2875589 -0.5550589 -0.2775402 -0.24969292 0.15314351 0.2948352 -0.24495661 -0.12826847 -0.34561583 -0.55742604 -0.42605114 0.04107248 -0.27156657 0.33122462 0.060551114 0.30898634 0.23837392 0.10466779 -0.18114716 0.25546256 -0.3860773 0.4323287 -0.1673065 -0.31961566 0.30555755 -0.037633166 -0.019787068 -0.21538228 0.19232905 0.17119536 -0.06600855 -0.18820406 -0.05830353 0.04390793 0.37323463 0.294303 -0.46375844 -0.41594785 -0.121419325 -0.39057204 0.30627647 0.37968832 0.19515327 0.25014523
1211 0.273917 -0.065253966 -0.1982448 -0.1028317 0.08801912 -0.1265673 -0.004122608 -0.039808482 0.046545133 -0.16475119 -0.00025000816 -0.031718165 -0.2030796 -0.1857203 -0.039118417 -0.02447885 0.13264282 -0.14420767 -0.059001468 0.17530788 0.17438443 -0.45180023 -0.15753315 -0.060471665 0.23655649 0.23429687 -0.09077071 0.052055243 0.10778302 0.06440033 -0.1618317 0.22323485 0.01952629 -0.21463856 -0.16641767 0.21116649 0.04020917 0.0020142656 -0.17065023 -0.19732554 -0.042112052 0.03864778 0.03136562 -0.054367457 0.09557073 0.20649798 -0.13499728 -0.17050165 0.14321522 -0.075716384 -0.2886892 -0.11150502 -0.2660853 0.12868361 -0.09187946 0.1588203 -0.014912069 -0.34522212 -0.12112747 0.34118304 -0.024722628 0.34577572 -0.0641303 0.0022521347
84 0.27526328 0.07064815 0.26001883 -0.24426652 -0.20347863 0.009703234 -0.017595828 0.18650042 -0.12458031 -0.15241158 0.19016343 -0.120044276 -0.1714745 0.24033645 0.29384306 -0.08079782 0.1787701 -0.022291092 -0.076233156 0.28157887 0.13891825 0.104722135 -0.25892606 0.135411 0.08699812 -0.08182764 -0.41514575 -0.16548896 -0.1003298 0.046639662 0.32567003 0.0237112 -0.2071225 -0.022952281 0.060138464 0.18523611 0.008689772 0.06947566 -0.27526549 -0.3227743 0.2389483 0.19073914 -0.17285296 -0.11690277 0.12515634 0.1522869 -0.315197 0.29454887 -0.34838519 -0.049229853 0.27401686 0.03218098 0.045650758 0.05681297 -0.29497677 0.08951605 -0.30790955 -0.38325456 -0.13367872 -0.07333211 -0.16431661 0.19721825 -0.2504712 -0.13321808
1052 0.3658302 0.24249953 0.14279945 -0.50622094 -0.2369051 -0.21667679 -0.031359408 -0.07217405 0.13267687 0.1191523 0.13784528 -0.02727779 -0.1752628 0.39347944 0.20178379 -0.2508564 0.2014667 0.055852585 0.0805149 0.12074116 -0.07770302 -0.0557513 -0.13906565 -0.05920565 -0.17315476 0.041556843 -0.21717371 -0.0132150985 -0.15262493 0.09141823 0.33223557 0.16651624 -0.029950052 -0.046296287 -0.040036775 0.55684483 -0.14760712 0.19346361 -0.010868516 -0.42918348 -0.029188927 0.032404922 -0.018264329 -0.3037698 0.23947597 0.12807238 -0.26026407 0.19984151 -0.22597052 -0.05752995 0.012414997 -0.3584146 0.16543442 -0.11083086 -0.1572516 -0.15835957 0.1640343 -0.13181806 0.025754422 0.035877243 0.014804643 -0.1423491 -0.07777133 -0.11235186
165 -0.059759106 0.116643496 0.2557752 -0.22159208 -0.27730796 -0.12872656 0.02894213 0.06688081 0.18798497 -0.011344842 0.043605007 -0.08098308 -0.23548703 0.14186682 -0.015742403 0.34128463 -0.16033272 -0.023538712 -0.25818926 0.4272468 0.34223402 -0.040825233 -0.00021254737 -0.04604439 0.11086977 -0.022252528 -0.2384863 0.09638037 0.13381898 0.015735956 0.21927266 -0.20601957 -0.003531884 -0.04823634 0.007875842 0.11644224 0.102317184 0.11061708 -0.1610094 -0.10981435 -0.009340679 0.06503358 -0.12896934 -0.1062465 0.09783466 0.06451605 -0.286829 0.50406474 -0.14671336 -0.054740425 -0.050967414 -0.20313497 -0.12016132 -0.07284883 -0.12063472 -0.15190479 -0.21797842 -0.15585335 0.27337182 0.17278178 0.156804 -0.15378536 0.09707873 -0.16781767
99 0.19663554 0.13914417 -0.039843243 -0.36490813 -0.027132297 -0.07837924 0.00019934913 -0.2200251 -0.06314919 0.22704044 0.4086519 -0.024876468 -0.41667306 -0.13246688 -0.16253199 0.0655765 0.07496359 0.24308588 -0.1600313 0.42951155 0.22095907 0.11230936 -0.10059917 -0.19048923 0.092337854 -0.07064181 -0.39190504 0.53712255 0.15914549 0.009629852 0.103943296 -0.26492983 -0.008588227 -0.0076527577 -0.38886786 0.24453562 0.16213822 -0.3505298 -0.075213954 -0.17601585 0.2942629 -0.016572146 -0.104155704 -0.34174213 0.4016326 -0.020704318 -0.4506567 0.032746766 -0.1413152 -0.18851107 -0.2922908 0.02133614 -0.13490133 0.05291889 0.19312705 0.017083978 -0.1185924 -0.20775229 0.07276213 0.0026129105 -0.011762841 -0.3526071 0.071202144 -0.34035578
2733 0.12010575 0.34127787 0.08969082 -0.19069266 0.27161863 0.077366695 -0.14165157 -0.21578847 0.183384 0.038732987 -0.051632926 -0.03299507 -0.118985444 -0.027767353 -0.3622484 0.32269838 0.06791232 0.035117943 -0.31385687 0.14639427 -0.19613084 -0.038902063 -0.124765575 0.023923973 0.20420806 -0.05292235 -0.13904312 0.3734653 -0.14675598 0.07674107 0.23741949 -0.08931689 0.03810566 -0.4327467 0.0039387755 0.3167663 -0.15817414 -0.0867482 0.13152164 -0.09134917 0.0016099606 0.54804426 -0.3526264 -0.23525657 0.40711913 -0.06878565 -0.16804795 0.44835427 -0.41749567 -0.3762913 -0.34260708 0.18667966 -0.026100928 0.005177752 0.0959907 -0.28142673 0.015175513 -0.19056149 0.074765235 0.0004939362 0.28386205 0.060736116 0.06153462 -0.26716253
2934 0.26240075 -0.20055032 0.064198114 -0.26629472 -0.068480976 0.16060418 0.296438 -0.15802011 -0.22711205 0.37683752 -0.1537626 0.052541494 0.022145443 -0.31531313 0.19910629 0.032201238 0.09972492 -0.031083997 -0.10450942 -0.3531138 0.17414184 -0.27900591 -0.0668193 -0.28506127 0.23521642 0.3137572 -0.14385565 0.13639735 -0.5299807 -0.24792731 -0.13273849 -0.3128114 0.32873616 -0.26491362 -0.28191936 0.13901894 0.26435578 0.24140382 -0.049452517 -0.08171812 0.021052677 -0.40321225 -0.012526988 -0.09971315 -0.2732466 -0.086195484 -0.041681543 0.30353323 0.03662016 -0.082869746 -0.3094119 -0.04345002 0.39077386 0.3820701 0.080399245 -0.17110533 -0.12698974 0.16753227 0.116037644 0.17396794 0.20932056 0.45433712 -0.22314286 0.33294374
1638 0.06288245 -0.02930708 0.014164635 -0.09177833 0.24220915 -0.19139276 0.3208079 0.06891534 -0.065963104 -0.040466283 -0.06927023 -0.23291974 0.3363356 0.14732789 0.2895056 -0.02841145 0.08927345 -0.12904428 -0.46871582 0.015251558 -0.022694342 -0.42489967 -0.057674613 -0.18065666 0.3977617 0.36629283 -0.07579238 0.14709395 -0.37206665 0.04286647 -0.21839544 0.20960794 0.038944636 -0.08279092 0.014027757 -0.059717808 0.09971031 0.08169629 -0.21164769 0.03392509 0.08717642 -0.14878131 -0.004237647 0.2477057 -0.007962894 -0.07069946 0.1697218 0.18242966 0.1647344 0.26514912 -0.40989596 -0.2539814 -0.055255245 0.108777456 0.05290951 -0.31254297 0.1998671 -0.08731567 0.03826533 -0.08295533 -0.13511062 0.0883213 -0.08523684 0.13328078
3007 0.2838557 0.30407178 0.5334718 0.3415403 -0.24420582 -0.11085534 -0.04157508 -0.4029066 -0.1244858 0.003312524 -0.057212956 0.32432386 -0.3193954 -0.11390096 0.5151669 -0.29226428 -0.14585747 -0.38782877 -0.15573126 0.15591073 -0.41514686 -0.39506853 0.37719792 -0.66859114 0.28920254 -0.064925686 0.06749643 -0.061110415 -0.31193918 0.27648088 0.14643456 0.074753165 -0.43586713 -0.0061822026 -0.23201133 0.36889926 0.43402952 -0.030809285 0.15179428 -0.3835965 0.28145972 0.00087716436 -0.20641556 0.11366268 -0.10849649 -0.27428865 0.25931376 0.25493684 0.18066418 -0.11292775 -0.16120102 0.055623025 -0.05920352 0.18640286 0.48225862 -0.14088254 -0.74389035 -0.12045959 -0.11035475 0.1998229 0.24543293 0.3964862 -0.1903357 0.13056996
1998 0.17886075 -0.011880135 0.33529335 0.34807143 -0.3428519 -0.100298926 0.21751104 0.21088982 -0.33760303 0.15236782 -0.087168284 0.3062734 -0.48088008 0.11496472 0.25787875 -0.03003139 -0.1010763 -0.64428735 -0.23618482 0.1826639 -0.26082686 -0.70395386 -0.11938149 -0.43016252 0.30095574 0.07595999 0.3493434 -0.05459194 -0.49105632 0.10138694 0.08230963 0.6000243 -0.3301843 0.002546169 -0.23411737 0.09335788 0.3083478 -0.21346034 0.14899616 -0.08472041 0.07974719 -0.0132329995 -0.04386972 -0.13286877 0.16980109 -0.46638736 0.38827533 0.27518964 -0.088380374 -0.3150648 -0.1193516 0.034534886 0.0021178883 0.19703801 0.30671364 0.4383871 -0.41789085 -0.40125746 -0.11747957 -0.1798292 0.027900709 0.3713067 -0.03253701 0.51546925
164 0.06731439 0.008197395 0.09184907 -0.0031390323 -0.2640011 -0.21062994 -0.04410171 0.09438892 0.12051923 0.10375026 0.2865434 -0.27005553 -0.25297463 -0.012524534 0.15653458 0.13601519 0.021219485 0.12738822 0.13029982 0.53102386 0.0835036 -0.040255 -0.1417493 -0.27444392 0.04027938 0.116552725 -0.35672724 -0.057608567 -0.19228365 0.07993195 0.1602569 -0.15089394 0.16972855 -0.10887188 0.22503547 -0.045199715 -0.06197646 -0.1348762 -0.20779291 0.048294596 0.14235346 0.12176078 -0.045008652 -0.42741746 0.023034258 -0.02150941 -0.20636268 0.39638513 -0.155667 0.10047816 -0.22159146 -0.3044651 0.005172938 -0.05530011 -0.015489235 -0.08485204 -0.00038980754 -0.18105641 -0.11001465 -0.007530483 -0.024819715 0.097281836 -0.05140093 -0.07278443
1166 -0.0038715356 0.15961456 0.25450486 -0.43658403 -0.36568472 -0.009440483 -0.050996758 -0.15981361 0.27894402 -0.044920105 0.047556948 -0.058851454 -0.26882374 0.02678263 0.16802353 0.044099122 -0.14919685 0.36219564 -0.109104834 0.3553414 0.31882542 -0.14510837 0.0757339 -0.061273765 -0.15490262 -0.06499922 -0.19343911 0.31506234 0.13658121 0.11673937 0.2813091 0.17870712 0.25131357 -0.110500924 0.11784677 0.20280391 0.04184619 0.26538327 -0.12756117 -0.1425763 -0.027734244 -0.030771805 0.06597866 -0.23690097 0.43773964 0.28293136 -0.11115317 0.4559203 -0.033961575 -0.08847801 -0.11618787 -0.17809659 0.016115755 -0.053997103 0.027123395 0.07091236 -0.12927641 -0.015500776 0.24914643 0.28048405 -0.054953087 -0.06981661 -0.05653909 -0.2587398
3177 0.23216535 -0.1020982 0.043405324 -0.7489235 0.31004876 -0.12721218 0.5199759 0.02290066 -0.568003 0.31623125 -0.096997686 0.27513215 -0.3943165 0.2799014 0.23957255 -0.27611348 0.08770053 -0.20570303 -0.00855429 -0.62245584 0.298511 -0.06931943 -0.35583326 -0.42341787 0.19448715 -0.39544728 0.07287668 0.3208769 -0.5072267 -0.43392277 -0.11456015 -0.49529472 0.1863483 -0.16299123 0.0050663673 -0.021225793 0.13908102 -0.058233306 -0.04778676 -0.11887517 -0.17322908 -0.04682342 -0.016320953 -0.26629817 -0.17741558 -0.18843736 -0.034294654 0.31686285 -0.04518834 -0.118142605 -0.55422634 0.23768067 0.17070621 0.83605033 -0.21439572 0.4010103 0.06940398 0.06120899 -0.50414324 -0.024764067 -0.12075545 0.11565228 -0.34305325 0.12800701
1781 0.35036975 0.22255068 0.1392517 -0.8845225 0.15509875 -0.07274524 0.5835476 -0.19847621 -0.40590414 0.13766307 0.30137682 -0.027910555 -0.14347012 0.43407905 0.23873186 -0.35017154 0.26388714 -0.3026102 0.073470354 -0.30523923 0.18862979 -0.40779334 -0.40767267 -0.3536962 0.39185557 -0.2857757 0.35544056 0.3572154 -0.48679 -0.005277577 -0.045670707 -0.6612339 0.15375882 0.24363256 -0.169122 -0.07252368 0.07384244 0.0061832606 0.11039253 0.0948889 -0.11224353 0.21730778 -0.4694902 0.2745152 -0.37807173 0.14306596 0.33745036 0.4379503 0.15871921 0.1324572 -0.7091708 -0.033210654 -0.10750957 0.29516807 0.047906905 0.17082252 -0.014681191 0.02956957 -0.55130416 -0.17430261 -0.10054435 0.3449618 -0.2614464 0.38262966
97 0.19587424 -0.109807126 -0.09256178 -0.26712656 -0.29134542 -0.023591155 -0.026505504 -0.23743656 -0.049426347 0.20133156 0.4828433 -0.07460447 -0.25900978 0.018247208 0.054661676 -0.022726683 -0.096038505 0.15188603 -0.13372369 0.5094711 0.17513211 0.07198169 -0.03819385 -0.08965258 0.28169295 0.032883074 -0.49679303 0.20451312 -0.017953467 -0.031336453 -0.14649494 0.050582286 0.06118161 -0.024387296 -0.07770763 -0.008277248 -0.08691563 -0.23394017 -0.18634965 -0.22163191 0.22411354 0.16988866 -0.13526471 -0.34451306 0.3014479 0.01442151 -0.2804747 0.27364725 -0.07516871 -0.021959182 0.030210968 0.11512226 -0.25193843 0.093303114 -0.025718065 0.10065121 -0.118769616 -0.1797571 -0.020439819 0.26434594 -0.121538 -0.24586366 -0.108953 -0.23664033
1210 0.065190256 -0.022303782 -0.0845501 -0.10639852 -0.16344188 -0.21159741 -0.13785669 -0.1581761 -0.12905425 0.2369788 0.17325945 -0.1742726 -0.46944478 -0.0850135 -0.009834349 0.09867769 0.016057545 -0.06272789 0.043921154 0.5780455 -0.020416575 0.19148135 -0.075342774 -0.18425995 0.306381 -0.07344492 -0.43373793 0.3040086 0.28966665 -0.041506417 -0.12607296 0.05754072 0.022880662 -0.16682826 -0.12910172 0.21780227 0.06023726 0.11120025 -0.14141402 -0.31537086 0.12889175 0.14851075 -0.236351 -0.27881846 0.25644436 0.15793325 -0.45331916 0.19504301 0.27232346 -0.14299518 -0.35958928 -0.035869747 -0.21206145 0.09311388 -0.012163802 0.14308415 0.19250149 -0.15370071 -0.014274978 0.5099237 -0.06447921 -0.00503292 0.065794885 -0.45420426
3375 -0.17913829 -0.26320532 0.25690058 0.06685948 -0.43605408 -0.07068777 0.06657058 -0.7035852 0.12689798 -0.2322728 0.12805638 0.034710415 0.12128377 -0.057720914 -0.58681744 -0.060237747 0.39135054 -0.54660636 0.20180658 -0.3955957 0.20173128 -1.058224 -0.30999833 0.23224187 0.30495146 0.4891805 -0.13304405 0.16353774 -0.5504864 -0.14058006 -0.45008752 -0.2565826 -0.4058939 0.13559741 0.17817734 0.13492301 0.22758175 0.33950487 -0.26330388 0.32003096 0.043602053 0.5327209 -0.25440457 -0.3180493 -0.03100253 0.58156395 -0.16534548 0.04166047 0.17520429 0.0694183 -0.5708593 0.19093809 0.29754025 0.17911823 -0.16435926 0.32795155 -0.1340025 -0.10023517 -0.1140993 -0.044261403 -0.0047165425 0.18617523 0.1380192 0.15742116
2137 -0.30977508 -0.17189035 0.3244901 0.17030111 0.008877807 -0.09980271 -0.005442597 -0.35648203 -0.16068581 0.1084896 -0.2445623 0.2075772 0.09017466 -0.338134 -0.072245374 -0.2356238 0.61108726 -0.5048581 -0.09159875 -0.3287397 -0.3552058 -0.35630092 -0.056456406 -0.18004578 0.47280452 0.20142673 -0.217839 0.42938098 -0.27721184 -0.26167816 -0.17675571 0.012138679 -0.115612864 0.14863458 0.20508687 0.1292279 0.015086887 0.26254264 -0.38082185 0.24033064 0.2719184 0.16761893 -0.06590426 -0.23917057 -0.22462921 0.16526508 0.108919516 0.26991713 0.16999592 0.60233396 -0.6018998 0.074084 0.23230584 0.23851492 -0.022659745 0.1107998 -0.19995207 -0.028176133 -0.27746692 0.20529364 0.14288868 0.03410359 -0.1857389 -0.36483073
3019 -0.07171209 0.04573797 -0.49294308 0.028188625 0.1764779 -0.37304902 0.13334915 -0.10022042 -0.30269095 -0.21862729 0.35452503 -0.16039748 0.036457527 -0.15565275 0.22665413 -0.011138245 0.3746129 -0.22676891 -0.5325277 -0.09779238 0.21815465 -0.29196125 -0.11172268 -0.49590167 0.24360573 -0.14638127 0.061024714 -0.073403664 -0.42604247 0.15126915 0.28588971 0.23244198 -0.056593154 0.33762378 -0.018476702 -0.37610486 0.39175576 0.44720653 0.10875477 0.31259015 0.10800076 -0.090979055 -0.1268981 -0.32918507 -0.11411294 0.32231975 0.059392333 0.0695069 -0.21398422 -0.052211665 -0.12428629 -0.058907017 -0.13310213 0.20508203 0.019643238 -0.49490535 0.28937718 -0.30517468 0.26237074 -0.22037525 -0.108554944 -0.060889177 -0.20342483 -0.08769379
1630 0.08477946 -0.257578 -0.19246343 0.18065095 0.0031617046 -0.21070698 0.20954616 -0.06827697 -0.06179836 -0.19217043 0.056208435 -0.12896854 0.18930155 -0.263595 0.36982825 -0.21034728 0.27687767 -0.19668424 -0.35360536 0.16236098 -0.1309438 -0.42397392 -0.09692233 -0.33711562 0.2365268 -0.045409493 -0.08890025 0.35858572 -0.4405718 0.022379396 -0.019591345 0.35077927 -0.004170667 0.052030686 -0.13495922 -0.086110875 0.2353554 0.07811489 -0.09484979 0.04727915 -0.06378454 -0.36533841 -0.15343782 -0.23279636 -0.25991485 -0.11783555 0.15883608 0.24293855 0.033136923 0.22675829 -0.3522794 -0.11203671 -0.01689621 -0.03338643 -0.21125168 -0.13906167 0.33979684 0.0968745 -0.0053526997 -0.2601298 -0.1486103 0.36349228 -0.19715425 -0.04160828
2615 0.47343728 -0.49327013 0.7585393 0.11015456 0.51504093 -0.3225857 0.012730653 -0.3444348 -0.36331484 -0.009460634 -0.0010550788 -0.08407142 -0.13571513 -0.6110431 0.06181242 0.09847516 -0.010735279 -0.13657823 -0.40911105 0.24060236 0.6088052 -0.13655315 -0.1934672 -0.12486978 0.39440483 -0.3708417 -0.6152788 0.00520105 -0.11587886 0.0962803 -0.044812746 0.54424673 0.4162878 -0.10478779 -0.5561992 0.308799 0.022984302 0.3896493 0.12791257 0.14944915 -0.43865436 -0.081066266 0.4911368 0.46619862 -0.1196367 1.023259 0.109481715 0.28753734 -0.01577442 0.62513256 -0.33642507 -0.21047422 0.38539788 0.44319704 0.19169423 -0.19741607 0.019422587 -0.12658109 -0.49610755 -0.3495797 -0.057833005 0.031994198 0.27774456 0.54242307
1323 -0.48473296 0.0712053 0.1125857 -0.32456943 0.22252928 -0.27551433 0.33054554 -0.07785328 -0.07043189 0.24679513 0.17584534 -0.20219886 0.18813497 -0.18301149 0.18403551 -0.14317769 -0.051818658 -0.10949666 0.009679843 -0.11394011 0.01335342 -0.10156858 -0.22408867 -0.28527164 0.42315176 0.19113871 -0.40722194 -0.020268822 -0.4060998 0.023907341 0.084903434 0.3470106 0.2766695 0.33256033 0.023795819 0.26074117 0.1357283 0.17744145 -0.21844313 -0.3638656 -0.06012285 0.010072421 -0.0987589 -0.10480591 -0.08315226 0.57855 -0.17253858 0.240742 0.35890323 0.042537864 0.042607803 -0.46566206 -0.121963024 -0.009445022 -0.0133740725 -0.29055026 0.23802778 -0.010401342 0.26402497 0.019575184 0.03909558 -0.15607984 0.28388387 0.24905862
148 0.0135126645 -0.042270195 0.07676081 -0.4077185 -0.23095378 -0.003909129 0.052161895 -0.1474848 -0.21895078 0.2163578 0.17426075 -0.048833035 -0.32019314 0.27193636 -0.056020185 0.119128026 -0.18392602 -0.07715111 -0.3113154 0.34737882 0.26200417 0.23785983 -0.23795453 0.036532104 0.18216765 0.03229309 -0.47453177 0.21377827 0.24948901 -0.043766543 0.094599575 -0.08516184 0.03636417 0.108318254 0.04354753 0.25661832 0.061782435 -0.18468836 -0.15544704 -0.41422305 0.010176345 0.21610083 -0.0565963 -0.15106516 0.13029051 -0.027633658 -0.35308483 0.27962366 -0.09390131 0.09396389 -0.04483066 -0.15638968 0.11527375 0.06112708 -0.22133319 0.18477471 -0.051228132 -0.06911541 0.09225593 0.20206366 -0.22012454 0.13920619 -0.15016149 -0.21724114
1244 0.12429039 -0.11877218 -0.015599996 -0.31559077 -0.2160827 0.016522953 0.07850487 -0.012707276 0.0065216906 0.042453874 0.2661108 -0.09601723 -0.34457317 0.042654756 0.105361484 0.2964522 0.062605806 0.049046207 0.005203942 0.46079856 -0.011251359 0.037623737 -0.24306677 -0.22217801 0.28141636 0.0054055355 -0.17487569 0.21618123 0.17492679 -0.010784478 -0.015499513 0.097240895 0.054104317 -0.19745676 -0.05148933 0.1921973 0.048522953 0.122942336 -0.015385958 -0.3646903 0.062900364 0.2524176 -0.10817281 -0.22596683 0.37421888 0.115375236 -0.41708997 0.14015956 0.045776907 -0.00016131643 -0.1657703 -0.15644535 -0.026370393 0.0024097462 0.047711667 0.15846977 -0.15522543 -0.38391787 -0.053991266 0.37857732 -0.089797795 -0.07728104 -0.14880201 -0.4008787
2866 0.1557575 -0.19133885 -0.026579797 -0.2525184 0.27634075 -0.10095678 0.3261822 0.078522764 -0.23105232 -0.10104988 -0.14687648 -0.10616891 0.22817512 0.19494501 -0.00562829 -0.1699991 0.014658773 -0.277368 0.021350112 -0.49172154 -0.24682705 -0.14499117 -0.04364929 0.12295854 0.357833 0.08079434 -0.5926111 0.11848082 -0.29579583 -0.11297994 -0.35629472 0.12937547 -0.24793068 0.040994313 0.29598686 0.11062827 0.29714835 -0.014652209 -0.2678135 0.00482847 -0.5332037 -0.36085364 -0.48337385 0.3213907 -0.35290304 0.2876751 -0.30238724 0.38276073 -0.15886399 0.6623764 -0.75604683 -0.32225418 -0.28494018 -0.11012663 0.17805292 -0.49603564 0.31678015 -0.26274097 0.4483865 -0.0834271 -0.27015835 0.5277199 0.19140579 -0.07743032
2016 0.20480469 -0.25148696 0.036263634 0.14662607 0.3349301 -0.368699 0.49687785 0.27969417 -0.24966377 -0.31146795 -0.101951234 -0.13140552 0.19531277 0.13418487 0.3252486 -0.111439385 -0.1281334 -0.22070022 -0.24796654 -0.29210594 -0.14675035 0.13690539 -0.06648453 -0.09725038 0.27203813 -0.027160594 -0.3507078 -0.21197931 -0.31756902 -0.12291497 -0.16567259 0.22466694 -0.32592678 -0.2248661 0.11632649 0.21393886 0.45721224 0.1551882 -0.32577258 0.33572513 -0.550771 0.029291108 -0.402594 0.12326116 0.19264942 0.15820608 -0.582464 0.17253907 -0.10397799 0.62979543 -0.7762838 -0.0778088 -0.09134287 -0.41609928 -0.2674205 -0.2507667 0.5668436 -0.05700343 0.51670885 -0.053547647 -0.23913702 0.59475696 -0.18462753 0.31697896
2308 0.00931525 -0.37955368 -0.11077017 -0.05367742 0.04902203 -0.22949913 0.013996834 0.20241697 -0.29619107 -0.09424401 -0.15565714 -0.051447853 -0.0551078 0.036104303 -0.0056268675 0.045342974 -0.083260484 -0.09176967 -0.39808255 -0.17556159 0.12198847 0.031678606 0.03908476 -0.18860805 0.12171535 0.1392588 -0.1243341 0.009836427 -0.31389597 -0.10311949 -0.09471459 -0.00675798 0.09339406 0.2414624 -0.21229756 0.26274604 0.080353044 -0.0077036256 -0.05816343 0.21310948 -0.1686593 0.24175829 -0.09673941 -0.41613206 0.12745595 0.12019392 0.083896264 0.19565637 0.15405256 -0.011897021 -0.048519604 -0.20281869 0.1233451 0.24039944 0.059281275 -0.0011115528 -0.08688311 -0.25455248 -0.013980641 -0.06302569 0.16128048 -0.020283466 -0.021497676 0.30421433
1647 0.03879752 -0.33052903 -0.04423855 -0.18993269 -0.22061092 0.12046701 0.4559692 -0.11096232 -0.1784298 -0.111284144 -0.1346368 -0.18064746 -0.037711892 -0.27263144 0.13628428 0.022948783 0.3287635 -0.12510979 -0.12915634 -0.13140972 -0.17388426 -0.35388136 -0.21990912 -0.4084239 0.33499613 0.1688774 -0.006968702 -0.11289608 -0.3168588 -0.044233758 0.038663648 0.15515628 -0.053865492 -0.14778996 -0.29374835 0.18953685 0.18790032 -0.13006908 -0.032322515 -0.0044332766 -0.18570001 -0.19719446 -0.23454171 0.060497444 0.13692376 0.21210052 0.20538573 -0.06266486 -0.050825708 0.084745795 -0.4750095 -0.1539969 0.12015429 0.1640835 -0.11818971 -0.31807062 -0.25000933 0.078192286 0.3383934 0.045431983 -0.07164381 0.3219599 0.04146578 0.19612499
3312 0.06773096 0.13961719 0.102227226 -0.010352787 -0.3768916 -0.2344988 0.49035665 -0.16508222 0.056119587 -0.39268503 -0.03216296 -0.010723374 -0.40946773 -0.45814317 -0.18684243 0.018011544 0.36785406 -0.20548607 -0.05665157 0.10087378 -0.08857999 -0.68688095 -0.31316334 -0.1762042 0.2767821 -0.114389636 0.30177864 0.14781246 -0.006722315 -0.18791026 -0.37883717 0.21341586 -0.121274404 0.10114149 -0.08513854 0.2073274 -0.0018053716 -0.20039016 -0.16002218 0.10242101 -0.13641717 0.07021015 0.16406913 0.3283186 0.09360165 0.5074607 0.17452261 0.039641045 0.30631182 -0.24054801 -0.47937807 0.07028288 0.031987388 0.25536183 -0.29172137 -0.41550946 -0.08220509 0.1878354 0.31608352 0.39305004 0.15320584 0.6140239 -0.17440382 0.050194863
1803 0.36498535 0.08228512 -0.3210079 -0.11876956 0.23246928 -0.22959787 -0.0086160125 -0.06348305 -0.017946726 -0.14838931 0.26128834 0.21568193 -0.18828 -0.37140596 -0.08434287 0.107892044 0.14313628 -0.01781556 -0.4123571 -0.16121545 0.09206908 -0.42726645 -0.022662861 -0.13054886 0.1084417 0.19883056 0.029015416 0.10111156 0.015200309 -0.018284803 -0.21358673 0.2828609 0.101864815 0.024726314 -0.30848965 0.35712528 0.23934472 -0.21209519 -0.12309053 -0.020083973 -0.0575431 0.0022740935 0.0801256 -0.22151007 -0.07388438 0.14304338 0.10291347 -0.17129381 -0.16302258 -0.19759344 -0.2984864 0.008511262 -0.18269813 0.10502484 -0.1538351 0.12087387 0.20396298 -0.37677008 0.030487765 0.30655986 0.030120667 0.62716866 0.12924486 0.47140297
267 0.0028971224 0.2579823 0.51235193 0.059685905 -0.35058454 0.27528837 0.034956336 0.22403117 -0.06564687 -0.036136154 0.10797061 0.14968486 -0.21554671 -0.16678646 -0.32630366 0.35111356 0.043239683 -0.15667698 -0.43448445 0.08806426 0.49041012 -0.24967116 -0.20331405 -0.12840986 -0.019933863 -0.20884788 -0.29429165 0.4735832 0.013646525 0.25355193 0.28761613 -0.23770644 0.18324082 -0.26915917 -0.38072196 0.52294815 -0.2199775 -0.05074023 -0.6009067 -0.01458206 -0.29660624 0.18037447 -0.045613013 0.22879526 -0.045658216 -0.08977664 -0.1809311 0.5033403 -0.30864024 -0.26297203 -0.06352244 -0.24760485 -0.13221093 -0.049220797 -0.062833086 -0.050596423 0.028817276 -0.0797566 0.07573393 0.11601132 0.4725324 -0.19359386 0.1984329 -0.48340768
2477 0.25741595 -0.34044796 0.5555084 0.17405254 -0.31571817 0.40088838 0.21906365 0.5192751 -0.27753288 -0.19951214 0.3457537 -0.025236186 -0.15847257 -0.39912722 -0.40184015 0.4574957 -0.042876717 -0.43215427 -0.6539748 -0.08772486 0.39374503 -0.37979117 0.04601422 -0.29037586 -0.040692374 -0.050001197 -0.1866375 0.30947417 -0.22354044 0.4187244 0.5030266 -0.3397468 0.16020356 -0.2378814 -0.29126817 0.79236835 -0.6792349 0.17799735 -0.7878978 0.10963803 -0.5287484 0.5992416 -0.2888477 0.023764199 -0.42996708 -0.15030923 -0.13609047 0.45343858 0.1302134 -0.7654494 -0.041658506 -0.048819575 -0.23116638 -0.091202855 0.04055886 0.07487851 0.2824817 -0.4959805 -0.09476826 -0.04973636 0.6500402 0.1414417 0.31702194 -0.74994475
128 -0.01445757 -0.047935333 0.1935572 -0.20902765 -0.018052606 -0.04213706 0.07913073 0.016363852 -0.0169446 -0.15177134 0.22042093 -0.02596522 -0.18753383 0.25958768 0.025311725 -0.117387 -0.3006598 -0.017533997 -0.26437354 -0.045755852 0.10157103 -0.04560309 -0.012839933 -0.17474727 0.1688332 -0.190512 -0.51261085 0.035269815 0.113306314 0.23622504 0.06915358 -0.062149264 0.030670485 0.019508086 0.04984402 -0.12406699 -0.32209435 -0.09975369 -0.04509447 0.00056224986 0.08830297 0.120398484 -0.0025808043 -0.3707338 0.36855683 0.3628143 -0.11486991 0.28942817 0.044506103 -0.19507095 0.0146697825 -0.21757463 0.11201813 0.017893108 -0.16416803 0.072201945 -0.35649347 -0.2244859 0.2517687 0.086686626 -0.021152869 -0.23515593 -0.120062344 -0.111134686
1040 -0.4548682 0.23984529 0.12077054 -0.53738195 -0.20022635 -0.18743266 -0.087091 -0.097454734 0.040907085 -0.084268115 0.36406577 -0.11374985 -0.34465247 0.02961561 0.23567747 0.18814507 0.2090783 0.03803084 -0.04684084 0.0634214 -0.0068739736 0.10414496 -0.20404035 -0.1934004 -0.06077854 0.011743567 -0.5555763 -0.04691404 0.121591665 0.22248524 0.06164925 0.07698846 0.27550563 -0.24072248 0.21359923 0.31264156 0.041812383 0.3169144 -0.04244055 0.036040734 -0.065999456 -0.10164387 -0.057713795 -0.39429584 0.21676867 0.17148545 -0.38422605 0.26329488 -0.035252366 -0.30829823 0.14162901 -0.10944907 0.04314717 0.24052426 0.04178259 -0.01242215 -0.19381727 -0.36923188 -0.16993538 0.26150036 0.0982484 -0.08089917 0.06955912 -0.2604609
3164 -0.08545819 -0.009697229 0.010464756 -0.17201863 0.19026548 -0.30829468 0.044944894 0.48159015 0.06659118 0.05347155 0.072198465 -0.41980383 -0.52283674 0.36763692 -0.48892817 -0.1366669 0.20006178 0.06970089 -0.67498714 0.018966477 0.116022795 -0.37956324 -0.32395956 -0.50044525 0.30086896 -0.06474239 -0.33583298 -0.36409205 -0.37224576 -0.5483594 -0.31853694 -0.047647316 0.090077154 -0.25752345 -0.22322121 0.035358474 0.26587668 0.13954182 -0.4483987 0.022585753 -0.00025771785 0.41800448 -0.06456833 0.08202157 0.3406591 -0.14207523 0.07757203 -0.34286657 0.23394711 0.14173223 -0.14966038 -0.14417537 -0.019479224 0.45864823 0.4481186 0.29171813 -0.25679755 -0.03831403 0.18139163 -0.26681814 0.3513988 0.575001 -0.06739594 -0.051182795
1689 -0.09154943 -0.045949087 -0.040192198 -0.35345358 0.19808467 -0.45135063 0.17576236 0.17868611 -0.09426177 -0.09647132 0.045965135 -0.051767707 -0.37384605 -0.17138782 -0.18278562 -0.28536463 -0.110547036 0.23860016 -0.4099634 0.27667525 0.15201986 -0.49595147 -0.14754146 -0.43621242 0.17357254 0.18044233 -0.14288835 -0.0874731 -0.27634007 -0.4629513 -0.39261556 0.076571256 -0.18309371 0.07703929 -0.08928411 0.34419605 0.11083433 0.1317698 -0.23479985 -0.0014296538 -0.28573674 0.113538146 -0.078161776 0.015050268 0.2790835 -0.08087347 0.31744185 0.0473368 0.075372085 0.21409822 0.06854127 -0.09741121 -0.1433764 0.1604045 0.32133892 0.12877208 -0.23354568 -0.34438136 -0.13084997 -0.316899 0.1949395 0.4480919 0.17018305 -0.017530095
3217 -0.009970368 0.17497899 -0.66186833 -0.09677674 0.22391829 0.031766556 0.071766235 0.08071256 0.31308818 -0.31738278 0.10170583 -0.031036971 0.64893806 -0.29037595 -0.049294777 0.16778214 0.327388 -0.37710553 -0.21485214 0.42112532 0.30392033 -0.50939137 -0.47113448 0.092040226 0.28185612 0.05044844 -0.47263145 -0.14636539 -0.66179127 0.12734991 0.18774593 0.13800566 0.1318447 -0.36035904 -0.031551823 0.525304 0.119417846 0.13147123 0.019858422 0.55452985 0.057591688 -0.58919346 -0.09182443 0.29836318 0.05559797 0.37814403 -0.062101573 0.54060614 0.092015676 -0.026173959 -0.062718965 -0.100482486 0.2449972 0.16318059 0.12950514 0.10437037 -0.22426276 -0.12568362 0.5997545 -0.117571495 -0.34653407 0.5418051 -0.27293244 -0.023794537
1916 0.08263912 0.013624409 -0.23290977 -0.22468679 0.006891511 -0.16833463 0.30717024 -0.018899456 0.06874084 -0.11539796 -0.060016956 0.0051701483 0.4560496 -0.33480015 0.29092193 0.012132779 0.13702096 -0.24656583 -0.5295552 -0.092689104 0.12887359 -0.02548729 -0.27015343 -0.05802873 0.5601667 0.23447919 -0.21486801 0.073789425 -0.4348698 -0.22773348 -0.14731687 0.13770953 0.02951174 0.10567113 -0.2211799 0.31021437 0.36789864 0.05766991 0.0283246 0.12248943 -0.028441463 -0.35032403 -0.2870796 -0.08256951 -0.024467716 -0.060815237 -0.01352947 0.04521477 -0.008167506 0.081091866 -0.5978306 -0.18887174 -0.0030912485 -0.3403568 -0.3001634 -0.10441036 0.08868069 0.0677843 0.23271415 -0.068427786 -0.0656093 0.31077877 -0.08760564 0.19546975
3228 0.0432553 0.015381056 0.09612381 0.07102247 -0.23574911 -0.38485363 0.37741512 0.03833987 0.037916344 0.09659697 -0.18205136 -0.0076821647 0.18099707 -0.083914325 0.38365155 -0.13935319 0.19657601 -0.15169507 -0.1364924 0.08541904 -0.15704608 -0.08101469 -0.055314824 -0.18660423 0.49146786 -0.0981922 -0.50419307 0.25452647 -0.5673134 0.10304914 0.17265181 0.25904587 -0.13213664 0.21659349 -0.46914816 0.072012044 0.021553729 0.24586262 0.11345096 0.014582142 -0.2001927 0.1430763 0.26260406 0.034582734 -0.47829834 -0.0075965635 0.2601346 -0.055752683 -0.16206266 0.08416701 -0.10908016 0.21085013 0.0030673756 0.25831172 0.12953301 -0.30074087 -0.17453945 -0.2932747 0.22392555 0.041613515 0.077435076 0.15942729 -0.20956455 0.033783775
1711 -0.022205444 -0.013603847 -0.2359481 0.038710788 0.44008327 -0.1539475 0.25762728 0.041577462 -0.20291577 -0.10531718 0.15181863 -0.27129367 0.1177014 -0.009907533 0.36359772 -0.17794116 0.12405176 -0.18328008 -0.39026874 0.0075661386 0.26061264 -0.32098725 -0.029928153 -0.23503508 0.64212173 0.13518433 -0.042064928 0.23531994 -0.25929523 -0.17536408 0.26860023 0.17626354 -0.16638026 0.25568113 -0.49656314 0.14338109 0.103206694 0.21898437 -0.12263533 0.3192332 0.07817434 -0.13043685 -0.4478154 -0.42307937 -0.3531231 0.11439779 0.23480086 -0.14981692 0.07334222 -0.08339755 -0.26839867 -0.08871665 0.0033230789 0.10796261 -0.06969454 -0.3625984 0.21041483 -0.111624315 0.35316074 -0.026163125 -0.16097347 -0.029182738 -0.14095704 -0.15697263
1978 0.2555417 0.05890569 -0.269936 -0.48940587 0.010120268 0.15151739 0.40036374 -0.012636801 0.04710264 0.01926327 -0.011380825 0.19209428 0.16438986 0.28105566 0.13985541 -0.1031225 -0.014832123 -0.386628 -0.4741906 -0.021395814 0.18798643 -0.20368762 -0.11306177 0.07817699 0.17283311 -0.13675666 -0.24045326 0.22020769 -0.4935173 0.22294667 -0.51516795 0.38017344 -0.05311646 0.33882767 -0.04528682 0.10694953 0.34489337 -0.16033314 0.12167042 -0.05656101 -0.19820003 -0.6684663 -0.63047695 0.24135649 -0.12162621 0.33962512 0.20812774 0.007593348 -0.024865048 -0.0024221127 -0.5291802 0.08200562 0.10575951 0.2047769 0.29617777 -0.42616788 0.2943488 -0.6771123 0.08908515 -0.3354604 -0.1088654 0.090653025 0.21279591 -0.19109146
1346 0.26035833 -0.14810835 0.20039162 -0.22769004 -0.18515001 -0.33403403 0.10895966 -0.101496294 -0.33298507 0.09730966 0.19203028 0.1837554 -0.22622591 0.14528406 -0.0019480563 -0.06388345 -0.09161983 0.04229454 -0.23265862 -0.017032938 -0.14354832 -0.040810537 0.38979787 -0.12426027 -0.0063656727 0.24758781 -0.2084992 0.24923755 0.005038541 -0.051172722 -0.0349973 0.08612457 -0.19755052 0.15638201 0.29112568 0.23846658 -0.22540738 0.046580266 -0.12310559 -0.14977188 -0.07248236 0.19185399 -0.015006627 -0.1913873 0.14175944 0.2972214 -0.080025695 0.025213014 0.12519656 -0.29551274 0.12388465 -0.47493997 -0.14170562 0.17421116 -0.28366223 0.20396957 0.0331049 -0.24662933 -0.047214184 0.20117933 -0.022598978 0.2700575 0.010856002 0.22103034
272 0.21250409 -0.086893216 -0.29334974 0.01723588 -0.13910402 0.17975998 -0.55341184 -0.3450113 -0.8817225 -0.9861785 0.48540625 0.9361128 0.31971523 0.26449335 0.40922812 0.012685263 -0.78320634 -0.43570226 -0.3493365 -0.057217486 -0.190556 -0.24662176 -0.62630767 -0.17142528 0.45745844 0.3401608 -0.36579046 0.42506132 -0.8779357 0.45866108 0.5200346 -0.09999661 0.44855502 -0.13287579 -0.4231995 -0.5138948 -0.40840536 0.5444473 -0.88234913 -0.28084308 -0.2567492 -0.15993892 1.0201645 -0.21783875 0.019934254 -0.59180605 0.56410265 0.25934058 0.49913862 -0.6990791 -1.1148767 0.05730691 -0.40413007 0.055548184 0.02245588 0.4056615 -0.476906 -0.1768983 0.48251435 -0.048657145 0.56565833 0.8327882 0.5852219 -0.31341547
2192 -0.18666485 -0.34350926 -0.4107949 -0.09993983 0.03113306 0.00016670753 -0.06572166 -0.2664609 -0.5371239 -0.38244748 -0.2249879 0.71369207 -0.33262554 -0.09242083 0.5272846 -0.17780785 -0.16210563 -0.29068884 -0.11965083 -0.1524704 0.04980715 -0.18277122 -0.16157055 -0.30698836 -0.00028062492 -0.02671988 -0.36910936 0.23168316 -0.6595095 0.15544306 0.13381162 -0.38103172 -0.16651766 -0.37035128 -0.41948134 -0.16844448 0.1355361 0.25147015 -0.31400096 -0.60131615 -0.13769484 -0.11613254 0.5847176 -0.25294432 -0.12655944 -0.3155613 0.16639838 0.100626856 0.08281496 -0.18188253 -0.58697796 0.18342331 0.17030907 0.3448487 0.20031607 0.062361162 -0.458847 -0.020027198 0.2113063 0.26842353 0.41348493 0.2178103 0.1809762 -0.061452903
3244 0.4704556 -0.004851695 -0.51921356 -0.11097378 0.14287172 -0.51381534 0.4747277 -0.14472209 -0.44325963 -0.24242692 -0.07504076 0.07948972 0.0070001963 -0.08244544 0.076172605 -0.047522612 0.4682274 -0.14378124 -0.4577637 0.04567416 0.1576077 -0.074208446 -0.197154 -0.56258935 0.42263722 -0.14033923 -0.045120597 -0.037074648 -0.38351223 0.2998074 -0.014475797 -0.20891932 0.31384552 0.14425804 0.2201216 -0.43576914 0.072239414 0.2709696 -0.038867254 0.2027151 0.08252441 0.119667366 -0.041071817 0.30749717 -0.015963843 0.41784015 0.07939465 0.21723615 0.06257226 0.17232268 -0.3074018 -0.13082145 -0.25712368 0.050578788 -0.3175939 -0.72446346 0.19130103 -0.2968932 0.2294876 0.001346029 0.06287321 -0.001026622 -0.06302876 0.34700692
1715 -0.18111688 -0.052060094 -0.29224032 -0.17064781 0.24303149 -0.34049094 0.34070516 0.1102679 -0.30541155 0.18637618 -0.17398237 -0.21173878 0.082002655 -0.18250869 0.1437871 -0.18569352 0.24683191 -0.18266483 -0.27362725 -0.16561945 0.3708398 -0.31797317 -0.29106483 -0.12803951 0.4939811 -0.29141983 0.07267389 0.07679883 -0.3681115 -0.093733326 -0.033125628 -0.14407182 -0.02807784 0.2459025 -0.37441406 0.09413451 0.06742819 0.19537213 -0.042142075 -0.04605168 -0.094543025 0.21623588 -0.5374993 -0.04096797 0.12675042 0.1933414 -0.032747295 0.14990455 0.16404948 0.06193006 -0.49111706 -0.09112035 -0.13020372 0.12025649 -0.5998057 -0.2503311 0.006702344 0.04629528 0.0047773947 0.16253397 -0.019199384 -0.10537366 0.11883267 0.231233
30 0.3075755 0.3867669 -0.0003812801 -0.50587684 -0.13978963 0.005428212 -0.03648376 -0.034454595 0.43354863 -0.11429714 -0.24109372 0.08187312 -0.09513353 0.15165342 -0.060210567 -0.049292214 -0.0904288 -0.3268854 -0.19979037 -0.001981864 -0.16190721 -0.059229936 -0.3357878 -0.08553273 -0.17609008 -0.27190107 -0.39916307 -0.11027794 -0.22582439 -0.41007105 0.088062495 -0.07173584 0.5106908 0.024268316 -0.1227317 0.10496587 0.20258622 0.06883547 0.30110818 -0.0490416 -0.16448607 0.120939 -0.062223453 -0.045358837 0.14534473 0.050323457 -0.15638171 0.13015348 -0.30564952 -0.44333914 -0.33714575 0.04942313 0.08411169 0.10275566 -0.22768523 -0.39865476 -0.024438906 -0.3561498 -0.029166678 0.114257835 -0.09109569 -0.05635237 0.016686412 -0.47559834
1472 0.37886772 0.044597037 0.40323603 -0.1457314 -0.564217 -0.113948464 -0.24381599 -0.11679496 0.21659233 -0.234943 0.43073747 0.09428635 -0.2965236 0.19858932 0.09680039 -0.14982598 -0.27645168 -0.040855553 -0.064868115 -0.094128035 -0.085395895 -0.09417559 -0.01642987 -0.37535274 -0.21082523 -0.02565494 -0.4781697 -0.3133539 0.253165 0.0639089 0.26832145 0.32052332 0.2661265 0.09085751 0.27343437 0.109115414 0.03673219 -0.021569494 0.07250214 -0.27844298 -0.37212697 0.19237366 -0.32983094 -0.41461173 0.23961744 0.40160233 -0.18593086 0.56539136 -0.27514917 -0.395908 0.09510288 -0.08762083 -0.20690452 0.1433898 0.099781156 -0.1952508 -0.29352486 0.051253993 -0.031128239 0.077518 -0.39237294 0.08253292 -0.13336605 -0.3241088
220 0.4615397 0.041163523 0.19160672 -0.25384384 -0.10980822 0.100216195 0.08476071 0.3819729 -0.36673132 -0.30736297 0.104216546 0.0978316 -0.08436496 -0.019002812 -0.057231758 0.2362049 -0.42644942 0.30663684 -0.059270717 0.18155365 0.05850864 0.008269457 0.36773962 -0.2130319 0.09723341 0.024892129 -0.29522076 0.36985117 0.12643392 0.07785819 0.17499366 -0.19830403 -0.21618281 -0.00045813114 0.02566543 -0.11518216 0.017234808 -0.06663779 0.11254845 -0.16855405 0.2578207 0.36095282 -0.36885962 -0.2345447 0.33457106 0.10739864 -0.20050403 0.49364272 0.085562155 0.028546669 -0.07332319 -0.18913776 0.2098626 -0.057829432 -0.40914088 -0.30582166 -0.18941715 -0.24205884 0.114844516 -0.059464812 -0.21322663 0.18674502 -0.09610843 -0.09709227
2773 0.020708434 0.15557738 0.4324094 -0.47964108 -0.32736716 -0.40650946 0.2802574 0.20011146 0.2057028 -0.19125709 0.28596094 0.13403131 -0.061158586 -0.232074 -0.17477924 0.39746875 -0.36227524 0.09339425 -0.1527586 0.22269621 -0.23946245 0.09479746 -0.024580492 0.27496013 0.45700634 0.57917786 -0.5458361 0.001272123 0.1228053 0.13709454 0.3747998 -0.11833253 0.13636108 -0.2679773 0.043091904 -0.26796615 -0.3593672 0.26893356 0.07547432 0.03905349 0.5450401 0.24844791 -0.36257145 -0.24534053 0.24645503 -0.31729558 -0.022251407 0.15748923 -0.11892248 0.05183344 -0.5352186 -0.39193928 0.19125961 0.025666239 0.18052202 -0.0005377536 0.16472654 -0.22853401 -0.16425988 0.0072749564 0.07845012 0.06989487 0.17427416 -0.12560746
3278 0.47643447 -0.047994073 -0.2740988 -0.17840208 0.06174802 -0.4460392 0.26202032 0.1351398 -0.1520964 -0.09377186 -0.18197884 -0.1495233 0.27458578 -0.08481647 0.21691439 -0.0073795565 0.09071182 -0.13479796 -0.08847265 -0.28246897 -0.18549906 -0.096329115 -0.25255397 -0.3051425 0.26714736 -0.057509746 -0.4236946 -0.41647708 -0.28820035 -0.0075262194 0.041546013 -0.06241496 -0.19062032 -0.17487536 -0.0554624 0.14659572 0.33732998 0.14094625 -0.49221945 0.24617025 -0.34700218 0.041901004 -0.46554023 0.060322657 0.03799392 0.08724162 -0.37400335 0.28015628 0.16545504 0.58750194 -0.99052763 -0.05568307 -0.0070254304 -0.3186619 -0.36003235 -0.5224628 0.027150413 0.21098842 0.46228608 0.11928055 -0.005222591 0.2214844 0.09202303 0.43941334
1667 0.15061599 -0.324461 0.008957504 -0.23957513 -0.26637942 -0.010847082 0.41505837 -0.02189884 -0.24887428 -0.17349212 -0.14657445 -0.18206191 0.019855581 -0.16337995 0.15930365 0.06246909 0.33041775 -0.2024719 -0.11907157 -0.15430777 -0.21227886 -0.34608987 -0.16956317 -0.38689724 0.2967416 -0.0022751018 0.03691653 -0.15477869 -0.28620043 -0.037585516 0.07255569 0.20237136 -0.028407618 -0.08973485 -0.27379078 0.2545937 0.08419736 -0.053413197 -0.04109612 -0.012561943 -0.1839147 -0.21353978 -0.23309146 0.029158046 0.12735285 0.19881903 0.20095292 -0.028223302 0.0610556 0.20020041 -0.571578 -0.11346455 0.19052243 0.02166156 -0.0970658 -0.2762031 -0.11295729 0.08458961 0.39945954 0.027209895 -0.099539965 0.2632998 0.0997644 0.2910192
129 0.21060622 -0.19177465 0.16819368 -0.20433415 -0.07266647 0.016973088 0.0662075 -0.16148108 0.042339858 0.074780755 0.40674496 -0.12504576 -0.2934423 0.12174409 -0.0045505576 0.13499546 -0.20968829 0.021928499 -0.13376345 0.35566288 0.010356365 0.22641273 -0.020519515 -0.18089342 0.1560038 0.27591604 -0.269337 0.36992586 0.16286288 -0.12454624 -0.13526654 -0.18996859 0.080006346 -0.07481698 -0.044878285 0.15994558 0.077607185 0.01760958 -0.04847429 -0.14382723 0.0981673 0.093962595 -0.041378196 -0.11588192 0.20308118 -0.17788497 -0.34237066 0.3223968 -0.08254626 0.04352143 -0.24729271 0.05904163 -0.031877693 0.12930089 -0.093487635 0.30485484 0.14229636 -0.5426975 -0.03257681 0.27155456 0.029461766 0.0061372947 -0.07039415 -0.1772464
